{"layers": [{"type": "input", "name": "input", "size": 12}, {"bias": 1, "type": "blstm", "name": "blstm_level_0", "size": 128}, {"bias": 1, "type": "feedforward_tanh", "name": "subsample_level_1", "size": 64}, {"bias": 1, "type": "blstm", "name": "blstm_level_1", "size": 128}, {"bias": 1, "type": "feedforward_tanh", "name": "subsample_level_2", "size": 128}, {"bias": 1, "type": "softmax", "name": "output", "size": 65}, {"type": "multiclass_classification", "name": "postoutput", "size": 65}], "meta": {"section": "complement"}, "weights": {"output": {"input": [-0.153955, 0.0969185, -0.0773493, 0.28164, 0.0552112, 0.115675, -0.198907, 0.233825, -0.0656068, 0.530979, -0.00119755, 0.453985, 0.218838, -0.303017, -0.268363, 0.100558, 0.225739, -0.294861, -0.0606459, 0.0747164, 0.444973, -0.355479, 0.316723, -0.131676, 0.36228, 0.332431, 0.471132, -0.384568, 0.0109253, 0.746189, -0.411245, -0.392145, -0.0544386, -0.00962724, -0.629481, 0.0395449, -0.201974, 0.306848, -0.000540307, 0.34382, 0.0496325, -0.1944, 0.0444889, 0.354446, 0.299818, -0.119139, 0.26879, -0.112667, 0.114747, -0.555272, 0.013908, -0.273654, -0.145048, -0.0203328, -0.127475, -0.110655, -0.734532, -0.347203, -0.0283774, -0.564432, 0.220389, -0.438534, -0.0526573, 0.242449, -0.216897, -0.0538024, 0.264109, -0.368681, 0.199319, 0.300154, 0.0948539, 0.00178609, -0.641603, -0.203964, -0.180297, 0.751738, 0.00784595, 0.304405, -0.339499, 0.0714703, -0.244065, 0.157445, 0.439685, -0.111205, -0.293968, 0.557509, 0.142734, 0.55455, -0.378805, 0.097284, 0.302865, 0.534538, -0.374827, -0.262818, 0.546589, -0.4683, 0.0173123, -0.153553, 0.0375939, 0.0910807, -0.292556, -0.195641, -0.396097, 0.194563, 0.419906, -0.21719, -0.553532, 0.455145, 0.0418206, 0.0841647, 0.222626, 0.253369, 0.180502, 0.0858624, -0.0159667, -0.0958965, 0.649642, -0.65225, -0.261859, -0.0580859, 0.612577, 0.810752, 0.194622, -0.166916, 0.0373752, 0.185122, -0.146447, 0.0153034, 0.270375, -0.0362093, -0.0786714, -0.21009, 0.875243, 0.143505, -0.129289, 0.434332, 0.00514544, -0.317802, -0.268701, 0.541129, 0.564435, -0.241306, 0.0220152, 1.38293, 0.0451858, 0.0687226, 0.655163, 0.238383, 0.00284512, 0.860578, -0.104862, 0.580563, 0.362951, -0.410309, 0.717632, -0.298458, -0.0985817, -0.531347, -0.747801, 0.707148, -0.810044, -0.176146, -0.628484, 0.0343096, -0.0934949, -0.0931166, 0.395143, -0.094197, 0.14807, -0.505631, 0.203705, 0.101416, 0.0734165, -0.120439, -0.175422, 0.414937, -0.106891, -0.627035, 0.249102, 0.130366, 0.185183, -0.427861, -0.280945, 0.257275, 0.00211654, 0.519301, -0.132345, -0.403576, -0.0678709, -0.615911, 0.662751, 0.185603, 0.102824, -0.197106, -0.310997, -0.0802376, -0.325134, -0.357487, 0.273127, -0.555804, -0.193288, 0.560881, -0.444143, 0.0449229, -0.23346, 0.318394, 0.805344, -0.659721, -0.0434343, -0.186806, 0.090422, -0.0865512, -0.548143, 0.343792, 0.628791, 0.576743, 0.18447, -0.61668, 0.0304068, -0.509595, -0.467544, 0.339712, 0.123048, -0.597773, -0.186086, -0.649217, -0.314396, -0.154569, 0.484777, -0.149289, 0.402005, -0.635424, 0.48551, -0.249258, 0.350752, 0.139434, -0.231029, -0.127732, 0.439574, -0.169993, -0.0580228, -0.298806, -0.112153, -0.309761, -0.0804932, -0.0912014, 0.154609, 0.204633, -0.0158149, -0.0324644, -0.0810626, 0.307058, -0.285029, -0.50546, -0.222028, -0.158821, -0.081638, -0.193688, 0.280499, 0.303579, -0.352962, -0.322505, -0.401561, 0.280306, 0.325889, 0.192433, -0.126778, -0.0279345, -0.331746, 0.151906, -0.0596662, -0.0828049, -0.01963, -0.455686, -0.384955, 0.0931893, 0.509418, -0.575625, 0.522113, 0.0993396, -0.484644, 0.499967, -0.0470944, 0.00739036, 0.220818, -0.0608021, -0.676945, -0.277819, -0.107312, -0.229808, -0.376307, -0.166141, 0.253302, 0.236933, -0.122716, -0.129115, -0.139097, 0.443807, 0.175319, -0.335796, -0.18368, -0.45137, 0.231981, -0.202871, -0.355086, 0.278019, 0.238292, 0.330549, -0.110753, -0.222361, 0.0183495, 0.28394, -0.377029, -0.363385, 0.196296, -0.42338, -0.583748, -1.06928, 0.142262, 0.322019, -0.309206, -0.122329, 0.273543, 0.475567, -0.139648, 0.628218, 0.590497, 0.0489469, -0.632268, 0.340936, 0.439179, 0.560299, -0.235747, 0.175881, -0.651919, -0.308825, -0.20537, -0.111753, 0.277298, -0.000248622, -0.690085, 0.361768, 0.523789, 0.277494, 0.116283, -0.284467, -0.236693, 0.0904902, -0.358895, -0.378643, 0.154818, -0.409429, -0.055559, -0.121223, -0.152068, -0.404246, -0.601573, -0.3458, -0.12225, -0.21656, 0.15917, 0.237598, -0.33529, -0.195927, 0.282575, -0.642106, 0.0330143, 0.855573, 0.0908128, -0.0567391, -0.29152, 0.124672, 0.215177, -0.409428, 0.0182573, -0.0908689, 0.0448021, 0.922174, 0.585205, 0.0754602, 0.505888, -0.284998, -0.159682, 0.0996381, -0.316866, -0.270354, -0.156895, 0.500728, 0.485301, 0.383814, -0.329764, 0.374697, 0.106924, 0.226649, -0.140978, -1.10506, 0.171409, -0.332525, -0.0745502, -0.0231691, -0.392691, -0.210372, 0.160887, 0.328927, -0.672775, -0.0254251, 0.0433518, -0.177266, -0.380167, -0.269435, 0.0897102, 0.721531, 0.429555, -0.122295, -0.159652, 0.110278, -0.313129, -0.127354, -0.575018, 0.362389, -0.46881, -0.405464, 0.615332, 0.380172, -0.58711, -0.43148, -0.34116, 0.749525, 0.153728, -0.510532, 0.428958, 0.22068, -0.353489, -0.72614, -0.615275, -0.357798, 0.33227, -0.177798, -0.136537, 0.320719, 0.695499, 0.355583, -0.0615472, 0.242482, -0.0660629, -0.394625, 0.238611, -0.367017, -0.132812, -0.297382, 0.0786615, -0.0984633, -0.439543, -0.00769588, -0.189481, -0.471278, -0.307903, 0.369924, 0.124434, -0.297363, -0.270188, 0.512374, 0.159191, 0.189257, -0.00339378, 0.0274732, 0.108919, 0.0272273, -0.562975, 0.353026, 0.32939, -0.187364, -0.0980005, -0.0864705, -0.0210891, -0.701259, 0.201696, 0.794846, 0.288809, -0.0669436, -0.456973, -0.247288, 0.0169422, -0.20435, 0.506126, -0.266371, -0.0785017, 0.0529671, 0.0457057, -0.543897, -0.465876, 0.138611, 0.324698, -0.321963, -0.0091484, -0.483769, -0.70061, -0.47318, -0.196201, 0.552146, 0.261702, -0.154705, -0.244038, -0.340141, -0.131496, 0.273109, -0.190298, 0.202863, 0.0534753, -0.540523, -0.304487, 0.488439, -0.419423, -0.499819, 0.162957, 0.601433, -0.393395, -0.413826, -0.720783, -0.736372, 0.283171, -0.0886696, 0.0466662, 0.240699, -0.0708426, 0.862498, -0.172178, 0.261826, -0.792758, -0.0293121, 0.349222, 0.158685, -0.111113, 0.177515, 0.108271, 0.0941269, 0.375479, -0.436487, -0.548374, 0.207691, -0.0936726, 0.0678242, -0.203823, 0.382314, -0.15567, -0.0123034, -0.314802, 0.147095, 0.331556, -0.159252, 0.377724, 0.318735, 0.207515, 0.088581, -0.598972, -0.244496, -0.0947372, 0.0689798, -0.271142, 0.0275829, 0.156488, 0.861176, -0.278736, 0.194218, -0.239441, -0.384391, 0.166402, -0.131925, -0.398709, 0.189194, -0.40689, -0.686456, 0.0556041, 0.129056, -0.168002, -0.458877, 0.243799, -0.185951, -0.193266, 0.43012, -0.115337, -0.671608, -0.259045, -0.0582359, 0.41727, 0.451172, -0.150342, 0.209513, 0.835356, -0.535127, -0.109154, -0.0207559, -0.370427, -0.614072, 0.482267, 0.274819, -0.711274, 0.270779, 0.609673, 0.0930976, -0.856555, 0.0398122, 0.213495, 0.0210291, -0.59264, -0.156063, 0.51416, 0.294264, -0.174016, -0.282113, -0.657754, -0.232319, 0.250837, -0.265149, -0.450756, 0.379081, -0.384333, 0.342637, -0.311646, 0.489053, -0.502586, 0.469338, -0.341988, 0.325498, 0.387575, -0.0280402, 0.165985, -0.113454, -0.146675, -0.208922, 0.316139, 0.338093, -0.00368472, 0.557754, -0.401129, 0.0457417, -0.0890222, 0.504116, -0.0593769, -0.0844757, 0.0913849, -0.381411, -0.397646, 0.0750054, 0.273089, 0.144048, -0.286858, -0.00516687, -0.164862, 0.329598, 0.621192, -0.196867, 0.0570354, 0.131291, -0.601398, 0.353764, -0.797961, 0.35978, 0.565881, -0.413605, -0.0746882, 0.051343, 0.221326, -0.0788156, 0.119693, 0.803968, -0.816878, -0.719501, 0.230762, -0.345101, 0.0195302, -0.042844, -0.337411, -0.0392553, -0.64099, -0.326814, 0.825098, 0.0622027, -0.280847, 0.492441, 0.240482, 0.0805921, 0.21279, 0.113187, 0.00277617, 0.918897, -0.345463, 0.610067, 0.443485, -0.185327, 0.0912556, 0.0384444, 0.245841, -0.4031, 0.270108, 0.329236, -0.0605605, 0.474411, 0.130072, -0.991332, 0.403598, -0.735548, -0.218531, -0.193406, 0.0115736, -0.0298638, 0.15328, -0.0852907, -0.890453, -0.514807, -0.36732, 0.490295, -0.121592, 0.101408, -0.0788025, -0.167259, -0.630845, 0.318457, -0.827835, 0.431318, -0.0360111, -0.282351, 0.624855, -0.467178, -0.00310452, 0.0923988, 0.469581, -0.870235, 0.280942, -0.0981166, 0.10611, -0.199239, 0.202063, 0.406428, 0.716167, -0.222877, 0.399832, -0.469104, 0.212372, 0.0223332, 0.497909, -0.435611, -0.362896, 0.104035, -0.208813, -0.375479, -0.11091, -0.361742, -0.409397, -0.365021, -0.0335659, 0.117109, 0.0105856, -0.137386, -0.115777, 0.180811, 0.604152, 0.065747, -0.898083, -0.0508175, -0.132764, -0.9092, 0.029142, 0.273465, 0.291373, -0.198455, 0.410596, 0.426104, 0.145649, 0.358225, -0.0790246, -0.104642, -0.66249, -1.14683, -0.749771, -0.280531, -0.10043, -0.252496, -0.047574, 0.104009, 0.516113, 0.257406, 0.00689983, 0.445875, -0.257687, 0.181108, 0.548643, 0.666415, -0.310311, 0.598903, 0.489244, 0.135682, 0.564887, -0.275301, -0.444736, -0.0287756, 0.651525, -0.139021, 0.181504, 0.235865, 0.467332, 0.15611, -0.407955, -0.0361178, 0.134526, -0.379535, 0.0840246, -0.516104, -0.0970666, -0.251916, -0.395767, -0.48728, -0.0890905, -0.195662, -0.464615, 0.424029, -0.689483, 0.245458, -0.246623, 0.268667, -0.536592, -0.820646, 0.231889, -0.981, 0.0726236, 0.409915, -0.338543, -0.433401, -0.375924, 0.0361606, 0.320433, -0.0923897, 0.0133771, -0.540847, -0.372459, 0.0723521, -0.369538, -0.522467, -0.190386, -0.251659, 0.416412, 0.426552, 0.0122836, 0.136375, 0.549479, -0.439586, -0.0845142, 0.168941, 0.0362478, -0.0956089, 0.552909, -0.663855, 0.0564265, -0.16386, 0.30571, -0.454876, -1.03377, -0.0533529, 0.104837, 0.0567721, -0.494791, -0.281232, 0.221869, 0.424376, -0.196409, -0.404209, -0.126879, -0.470066, 0.291835, -0.520314, 0.205182, -0.00356405, -0.101918, 0.236099, 0.209841, 0.274133, -0.61113, 0.251047, -0.0378761, -0.407594, 0.119403, -0.194622, -0.051474, 0.0687971, -0.0193132, -0.220805, 0.436867, 0.282692, 0.462876, 0.725288, 0.165337, 0.0691156, -0.256334, 0.00300566, 0.360281, 0.335636, 0.0607808, 0.69149, -0.242143, 0.132331, 0.00733129, 0.679864, -0.376359, 0.304787, -0.606557, 0.281308, 0.382122, 0.122384, 0.305304, -0.306448, -0.197753, 0.539012, 0.172948, 0.0371898, 0.385906, 0.342444, -0.450733, 0.0727495, 0.426486, 0.375163, 0.248688, -0.197749, -0.322028, -0.0429287, 0.148715, -0.0840369, 0.0133567, -0.152849, 0.61234, -0.38904, -0.0893149, -0.411012, -0.34905, 0.141128, 0.22083, 0.0469211, 0.0237284, -0.0850441, -0.37371, -0.382437, -0.486983, -0.00621185, -0.316357, 0.394211, -0.827474, -0.529178, 0.169547, -0.0880875, -0.0679593, -0.145869, 0.957885, -0.0244881, 0.0518969, -0.0997878, 0.327683, -0.409069, -0.390382, 0.0493082, 0.545761, 0.105938, -0.163495, -0.202473, -0.100057, -0.108437, -0.657289, -0.866979, -0.412598, 0.0749818, 0.267732, 0.231376, -0.125571, -0.452554, 0.403278, 0.332007, -0.289998, 0.337573, -0.424949, 0.0868193, 0.573539, -0.156066, 0.0770995, -0.431886, 0.228977, 0.188225, 0.218632, -0.127524, -0.154057, 0.213002, 0.367171, -0.23579, 0.638695, 0.108831, -0.300612, -0.41732, 0.222053, -0.234864, 0.239524, 0.398901, 0.359514, 0.244783, 0.51742, 0.196859, -0.196509, -0.104354, 0.116459, 0.714309, 0.651846, -0.374627, -0.589529, -0.258956, 0.258273, 0.153555, 0.295603, 0.097589, 0.533329, 0.472116, 0.184816, 1.21631, -0.143594, 0.112224, -0.0972893, -0.531152, -0.11138, 0.285726, 0.200744, -0.358637, 0.266318, -0.118249, 0.11508, -0.287038, -0.711598, 0.0664462, -0.563333, 0.184692, 0.181775, 0.259782, -0.319506, -0.287377, 0.143022, -0.0944611, -0.398178, -0.450795, -0.182022, -0.103222, 0.0737844, 0.302168, 0.0522572, -0.507294, 0.240483, 0.0872435, -0.158333, 0.0956599, 0.297357, -0.142377, 0.208171, 0.265108, -0.0562625, 0.0424351, -0.567341, -0.0298968, -0.4913, 0.824514, 0.0108609, 0.0751411, -0.682738, -0.194022, 0.373508, -0.0668454, -0.743703, -0.264999, 0.290358, -0.0356454, -0.459092, -0.441959, -0.383045, 0.130361, 0.285793, 0.0779603, -0.0199662, -0.184248, -0.122055, -0.310624, 0.0781813, -0.168117, -0.619386, -0.525972, 0.265076, -0.045402, -0.474415, -0.147492, -0.378409, 0.581722, -0.0220898, -0.0740306, 0.594653, -0.217288, -0.20175, 0.512095, -0.207488, 0.329736, -0.0189952, -0.945902, -0.445985, -0.465379, -0.012731, 0.128047, 0.0209237, -0.0132414, -0.643691, -0.137666, 0.49644, 0.0220892, -0.400725, -0.142064, 0.55558, 0.415949, -0.102739, -0.320234, 0.305037, -0.396845, 0.259505, 0.279567, 0.265814, -0.203149, -0.12112, 0.207911, 0.421029, 0.045451, 0.130927, 0.0942316, 0.0815231, 0.309689, -0.115649, 0.1269, -0.260145, -0.0630054, -0.0588121, 0.341269, 0.0590695, -0.589795, 0.706012, -0.397305, -0.157732, 0.0566485, 0.382578, 0.427601, 0.00968272, -0.163087, 0.381293, 0.285942, 0.0170578, 0.0746399, 0.00985074, -0.368332, -0.459736, 0.18023, 0.71673, -0.00647101, 0.472764, 0.18662, -0.144247, 0.449747, 0.0614083, 0.54003, 0.089403, 0.326057, -0.0432284, 0.0925329, -0.0516894, 0.048569, 0.348729, -0.251995, 0.989955, 1.00383, -0.102251, -0.136276, -0.031116, -0.068192, 0.247556, 0.0492084, 0.242885, -0.330205, -0.11377, 0.598905, 0.109597, -0.382224, 0.109592, -0.126344, 0.399527, -0.232863, 0.384771, 0.352376, -0.268926, 0.142216, 0.580147, -0.26677, 0.0500043, -0.102473, 0.0988609, 0.258721, -0.476845, 0.00840943, -0.200594, -0.206509, -0.0222971, -0.467898, -0.380359, 0.539515, 0.0468883, 0.397772, -0.0730029, -0.311367, -0.979821, -0.2627, 0.222648, -0.103481, -0.506007, 0.0544219, 0.199022, -0.344347, -0.478563, 0.179349, 0.160106, -0.465699, 0.404364, -0.021436, -1.12576, 0.358608, 0.184032, 0.141415, 0.503347, 0.039085, -0.0328671, -0.182426, 0.407268, -0.00309805, 0.289255, -0.0499308, 0.537966, -0.0120413, -0.0543133, -0.653086, 0.554651, 0.386088, -0.0153851, 0.261889, 0.307451, 0.100647, -0.32994, -0.339321, 0.2273, -0.0367985, -0.301857, 0.146919, -0.0458895, -0.0161979, 0.110248, -0.432001, -0.278982, 0.189542, -0.107532, -0.50754, 0.170311, 0.196118, -0.00538523, -0.373559, 0.078466, -0.228555, 0.0651243, 0.0741816, -0.109127, -0.00427226, -0.200722, -0.401796, 0.465412, -0.325354, 0.346319, -1.06526, 0.113363, 0.487008, 0.27766, 0.290948, 0.410157, 0.108101, -0.0402745, -0.828482, 0.003909, 0.280812, -0.121784, -0.0317026, 0.189241, 0.624012, -0.542104, 0.140826, -0.0087927, -0.0606297, 0.00520838, -0.0827693, 0.110136, -0.308516, -0.267824, 0.0798577, -0.168085, -0.519722, -0.412446, 0.198541, 0.0805448, 0.508259, 0.567569, -0.0298346, -0.499627, 0.550504, -0.440349, -0.682549, -0.0714933, 0.386946, -0.364113, 0.581994, -0.0846048, -0.148015, 0.480767, -0.672146, -0.283296, -0.201088, -0.169573, -0.0064285, -0.287787, 0.212183, 0.164752, 0.224784, -0.373014, -0.0852578, 0.0643547, 0.226723, -0.625685, -0.202221, 0.107244, -0.461181, 0.202451, 0.342999, -0.611397, -0.868463, 0.0809183, 0.568421, -0.0282424, -0.0444602, -0.387701, -0.0962976, 0.0575509, -0.331063, 0.746077, 0.874953, -0.00321888, 0.49019, -0.174363, 0.422061, -0.0669139, 0.29224, -0.0175302, -0.0793292, 0.483196, 0.16763, -0.0301471, -0.0109992, -0.770881, 0.224142, 0.337865, -0.0956815, -0.144021, -0.153815, 0.174534, 0.711954, -0.103861, -0.298194, 0.340149, 0.106684, -0.131021, -0.327788, 0.543848, -0.0251185, -0.421436, 0.079938, -0.00836208, 0.464292, 0.439251, 0.335329, 0.062106, 0.434761, 0.237197, 0.387315, 0.0987801, 0.214246, -0.107205, -0.0190495, -0.255147, -0.222417, 0.517129, -0.441813, -0.490549, 0.306722, -0.0292323, 0.282781, 0.325502, 0.00639011, 0.342672, -0.084428, -0.199818, -0.0397757, 0.142875, 0.495619, -0.0451238, -0.332717, 0.00718522, 0.379485, 0.279568, 0.16073, 0.340004, 0.1056, -0.0609771, -0.805779, -0.0441165, 0.319055, 0.0641647, -0.191694, -0.447506, -0.0875441, -0.0642632, 0.137353, 0.156893, 0.416392, -0.299762, -0.309905, -0.254278, -0.502396, 0.215499, 0.543062, 0.386299, -0.218698, -0.346433, 0.262559, 0.03827, -0.238958, -0.263561, 0.681434, -0.252289, 0.134591, -0.413201, 0.0434469, -0.0954736, 0.191251, -0.0947963, 0.24259, -0.238924, 0.0206838, -0.488297, -0.288469, -0.330992, 0.44889, -0.286082, 0.056245, 0.168664, 0.491348, -0.521493, 0.272772, -0.160654, 0.20521, -0.0960013, -0.308346, -0.615643, -1.02834, 0.543434, 0.295607, 0.057496, -0.584895, 0.271277, 0.0105848, -0.455161, 0.548856, -0.247315, 0.120088, -0.050734, -0.019176, 0.220973, -0.0170057, -0.665311, 0.096119, 0.0195989, -0.546495, -0.233894, 0.288659, -0.17909, -0.342757, -0.336715, 0.129692, 0.63821, 0.157282, -0.365406, 0.196236, 0.225407, -0.248626, 0.157844, 0.142669, 0.426395, -0.162632, -0.148784, -0.143637, 0.177358, 0.0168315, 0.0920204, 0.0276635, -0.0565781, 0.115338, 0.48438, -0.275772, -0.522131, 0.323823, 0.801923, -0.169728, -0.295066, -0.0165547, -0.436315, 0.116459, -0.480061, 0.652003, 0.225175, -0.259135, -0.301931, 0.175869, 0.211253, 0.331625, -0.198053, -0.160857, 0.41578, -0.432376, -0.17133, 0.415486, -0.30146, -0.0143619, 0.0159417, -0.273412, -0.456326, 0.131233, -0.179677, -0.131431, -0.164874, -0.0764019, -0.330476, -0.566771, -0.49653, 0.242786, -0.121511, 0.321691, 0.092946, -0.459506, -0.148016, 0.434032, -0.175536, -0.199275, 0.0138174, -0.708562, 0.140361, -0.26954, 0.652271, -0.195166, 0.00698375, 0.437021, 0.342424, -0.362395, 0.0253948, 0.410992, -0.0803679, -0.341305, 0.388618, -0.167648, -0.560242, 0.367294, 0.0706432, -0.442558, 0.192039, 0.285463, 0.147324, 0.366379, -0.493116, 0.00649112, -0.166818, 0.47579, -0.132975, -0.548272, -0.39836, -0.133974, 0.392188, 0.295358, -0.0524476, 0.389901, -0.453748, 0.151242, -0.0460515, 0.0440693, 0.12443, -0.709259, 1.06824, -0.14061, -0.302222, 0.0485852, -0.0352947, 0.408514, -0.0192983, 0.318452, -0.30048, 0.234901, -0.0134133, -0.286891, -0.0399766, -0.210757, -0.270219, 0.126182, -0.498965, -0.553183, -0.0932469, 0.145485, 0.415501, 0.00081211, -0.208549, 0.199066, -0.176272, 0.0680175, -0.116769, -0.36391, 0.106508, 0.256597, -0.0478087, 0.257632, -0.373614, -0.0503923, 0.22759, 0.395976, 0.015243, 0.286163, 0.00948067, 0.350055, -0.211312, 0.0175791, -0.536227, -0.146048, -0.345099, -0.173434, 0.226282, -0.012666, -0.0103023, -0.0506418, 0.122399, 0.0242439, -0.228857, 0.73967, 0.24061, -0.395709, 0.474331, 0.540391, 0.170573, 0.208051, 0.153597, -0.258648, -0.0993106, 0.889019, 0.237952, -0.874077, -0.355403, 0.378678, 0.940833, 0.248293, -0.154644, -0.161719, 0.0906073, -0.385786, 0.668545, -0.0961721, 0.820034, 0.284932, 0.515894, 0.252913, 0.734424, -0.122518, 0.411194, -0.620334, 0.00480151, 0.0393799, -0.35286, -0.202903, 0.294492, 0.0952388, -0.0512375, 0.13778, -0.0241176, 0.76939, -0.077253, -0.446151, -0.407777, -0.710216, 0.225084, 1.11663, -0.22174, -0.0240928, 0.338595, -0.52538, -0.0955282, -0.245825, -0.10384, -0.0948228, 0.0446671, 0.119432, -0.841593, 0.0302815, 0.20681, 0.647844, -0.317824, 0.223718, -0.295429, 0.26428, 0.34605, -0.0797359, 0.112323, 0.259752, 0.0776768, 0.311685, -0.0725206, -0.495018, -0.224192, 0.154947, -0.393886, -0.00562136, -0.246702, 0.230089, -0.355628, 0.213589, -0.451057, 0.362781, 0.0918574, -0.044466, 0.481833, -0.468126, 0.373399, -0.823177, -0.301978, 0.363448, -0.129715, 0.0611128, 0.538602, 0.446589, -0.339317, -0.653246, -0.253636, 0.0956259, -0.535806, -0.492096, -0.16756, 0.0398369, 0.253873, 0.383368, -0.00280419, -0.263838, 0.097077, -0.253954, -0.229653, -0.150522, 0.319139, 0.200071, -0.159465, 0.575733, 0.22352, 0.103763, -0.385805, 0.00317621, -0.213834, -0.474742, 0.150908, 0.0952377, -0.378559, -0.391315, 0.307824, -0.47148, -0.00933852, -0.675966, 0.198216, -0.189516, 0.387314, 0.185198, -0.134046, 0.0670557, 0.388654, 0.367852, -0.706351, -0.417638, -0.484447, -0.461441, -0.206171, 0.0749813, -0.462112, 0.286558, -0.341912, -0.0397626, -0.369233, 0.762788, -0.453447, -0.35148, 0.197466, 0.390595, -0.0629331, -0.177618, 0.446642, -0.252139, -0.0469676, 0.320227, -0.556724, -0.245109, -0.363275, -0.409812, 0.0890118, -0.256214, 0.157834, -0.475817, 0.305892, 0.14609, -0.173556, -0.178184, -0.0459012, 0.254739, 0.156331, -0.0463354, 0.66007, -0.156522, -0.464918, 0.157895, -0.0978198, -0.269748, -0.0131516, -0.0747186, 0.0847413, 0.283902, -0.132215, -0.0134588, -0.0266931, 0.127866, 0.108964, -0.662394, 0.214339, -0.463041, 0.596565, -0.815137, -0.124759, 0.13531, -0.429677, 0.145044, 0.0737292, -0.404231, -0.010448, -0.618113, -0.238155, -0.0894646, -0.688938, 0.113029, -0.414385, -0.0828339, 0.326821, 0.66303, -0.490249, 0.109173, 0.556811, -0.350253, -0.353225, -0.083612, -0.518551, 0.157265, -0.682416, -0.162996, -0.279812, 0.0982885, -0.0201388, -0.327982, -0.333573, -0.0165147, -0.423554, -0.142847, -0.154305, -0.0569353, 0.477143, 0.485179, -0.320404, 0.437056, -0.315033, 0.136628, 0.513271, 0.144656, 0.0269044, -0.345115, 0.0656219, 0.389562, -0.113232, -0.204841, -0.0279761, -0.31501, 0.0964759, -0.0963483, 0.129323, -0.0567148, 0.352318, 0.219504, -0.228629, -0.136566, 0.032675, 0.821584, 0.311229, -0.336407, -0.111689, 0.862362, -0.590917, -0.0170719, 0.184666, -0.494643, -0.539618, 0.843085, -0.361585, -0.175749, 0.166696, 0.81386, 0.997173, 0.422287, -0.202661, -0.800421, 0.11547, -0.637747, 0.00819631, -0.53758, 0.246754, 0.198777, 0.39174, -0.12056, -0.140933, 0.156555, -0.463003, -0.455409, -0.59563, -0.211033, 0.118673, 0.566273, -0.0502193, 0.0206574, 0.195614, 0.332772, 0.128112, 0.170618, 0.108965, -0.133928, -0.0862991, 0.10882, -0.0989976, 0.0915742, -0.0752257, 0.00648146, -0.26155, -0.0513863, 0.241268, -0.300084, -0.0544755, -0.0791676, 0.123448, 0.33341, -0.0582579, -0.0965112, 0.433353, 0.407495, 0.100076, -0.628144, 0.142759, -0.0185669, 0.517946, -0.182025, -0.081772, -0.0434407, -0.56409, 0.137736, -0.875862, -0.0333654, -0.0350154, -0.0648296, -0.213555, 0.183795, 0.256518, -0.00129197, -0.207638, 0.363105, -0.082161, 0.603509, -0.262556, 0.430322, -0.0843411, -0.309229, 0.202624, -0.0448724, -0.697737, 0.283697, -0.0879291, -0.107013, -0.0161464, -0.0591646, -0.0130438, -0.477729, 0.0587428, -0.151238, 0.0450088, 0.0113321, 0.27308, -0.0710103, 0.681145, 0.0771239, -0.0397054, 0.388153, 0.222979, 0.0524688, -0.0505964, 0.0936875, 0.0593318, 0.392511, 0.300546, 0.351233, -0.00335831, 0.358428, 0.110522, 0.228836, -0.345173, 0.145728, 0.0947686, -0.103683, -0.327606, -0.164124, -0.359032, -0.0961663, 0.00273171, -0.19122, 0.312069, -0.9381, 1.02105, 0.23783, -0.340059, -0.0372303, 0.209006, 0.220296, -0.74912, 0.271241, 0.119951, -0.506488, -0.01152, -0.269222, 0.0708106, -0.0604686, 0.299618, 0.0172135, 0.10789, -0.0269646, -0.458174, 0.0133279, 0.278006, 0.132613, 0.349303, -0.204106, -0.300788, 0.449442, 0.121591, 0.0667796, -0.331539, -0.924274, 0.374305, -0.0269225, 0.412011, 0.20593, 0.663025, -0.0637087, -0.404018, 0.509261, -0.240951, -0.150365, -0.0256278, 0.474268, 0.153485, -0.269761, -0.0319013, -0.376682, -0.058032, 0.392537, -0.105773, 0.421403, 0.281133, 0.0306205, -0.0513813, 0.0136237, 0.416264, -0.428189, 0.529243, 0.381253, 0.764249, 0.137767, -0.344269, -0.29357, 0.047743, -0.0188, -0.43637, -0.685506, 0.298183, -0.322346, 0.507858, 0.284752, 0.125375, 0.453688, 0.0838548, 0.116819, 0.352564, 0.248479, 0.466482, -0.223619, 0.185302, -0.555427, -0.903889, 0.374671, -0.0818705, 0.0924355, 0.0119767, -0.316243, 0.0968003, -0.99886, 0.354979, 0.442957, -0.461252, 0.625549, 0.195194, 0.112545, -0.626471, 0.308806, 0.32543, 0.19906, 0.236445, -0.143698, -0.111505, 0.121859, -0.389892, 0.0237395, -0.201446, 0.181913, 0.369264, 0.0498186, -0.146331, -0.528503, -0.231647, 0.269636, -0.0360559, -0.129145, -0.0668729, 0.025734, -0.554982, -0.225879, -0.1194, 0.101227, 0.192414, -0.0278335, 0.0659645, 0.305205, -0.728851, 0.0236326, -0.061521, -0.257695, -0.545997, 0.116094, -0.000472228, 0.455966, -0.507601, 0.391935, 0.380038, -0.0534068, 0.00148306, 0.237062, 0.0684623, -0.253107, 0.503625, -0.162775, -0.44918, -0.366062, 0.0728585, 0.164916, -0.314338, 0.138558, -0.557643, 0.0368008, 0.259965, -0.0979024, 0.0695865, 0.377936, 0.00520074, 0.167621, 0.675761, -0.523318, 0.0633562, 0.262515, 0.0467258, -0.178538, -0.247777, -0.0956637, -0.360005, -0.275136, 0.82256, 0.306316, 0.548815, 0.00704218, 0.135538, -0.268823, 0.2026, 0.137635, 0.0757596, 0.237237, 0.255191, 0.50078, -0.221737, -0.170604, 0.123854, 0.310736, 0.476329, -0.2932, 0.16645, -0.242837, 0.460793, 0.110219, 0.3197, 0.155334, 0.160534, 0.153183, -0.534517, -0.0373202, 0.0334908, -0.233764, 0.478037, 0.203372, 0.28607, 0.44449, 0.189874, 0.27395, -0.0273273, 0.372507, 0.117334, -0.623178, -0.727922, -0.17449, 0.102563, -0.186503, -0.225184, 0.289866, -0.162998, -0.0725781, 0.201609, -0.103493, -0.0322529, 0.204665, -0.596795, 0.443002, 0.236868, 0.152732, -0.612394, -0.471141, -0.0448391, -0.268146, 0.467531, -0.245539, -0.618529, 0.76626, -0.228994, 0.354196, -0.449614, -0.144781, 0.205084, -0.788839, -0.153292, 0.0830011, -0.567704, -0.229035, -0.379476, 0.347356, 0.239534, 0.281652, -0.741865, 0.129817, -0.0877903, -0.183123, 0.0933341, -0.299441, 0.190035, 0.415404, 0.391105, 0.237209, 0.204809, 0.102691, -0.0337781, 0.168063, -0.599158, 0.608168, -0.079793, -0.395186, 0.66943, -0.918142, -0.250805, -0.580426, 0.70318, 0.108609, -0.0217214, -0.603437, -0.204027, 0.406713, 0.00962743, -0.84711, -0.480137, 0.148567, -0.107958, 0.427849, 0.524653, 0.00773116, 0.160014, -0.185663, 0.109689, -0.24338, 0.573847, -0.993892, 0.331687, -0.289836, -0.325593, -0.196615, 0.566993, 0.0169952, 0.065262, 0.0159923, 0.0590877, -0.00919725, 0.00919294, 0.40987, 0.208477, 0.132254, -0.390098, -0.203779, 0.0709859, 0.401052, -0.0503121, -0.154255, 0.427952, -0.556232, -0.0437875, 0.329151, 0.58224, -0.402662, 0.237266, 0.111078, 0.349998, 0.378911, -0.599437, -0.34265, -0.359981, -0.227462, -0.502265, -0.315774, 0.233607, -0.254843, 0.197247, 0.482597, 0.246796, -0.113092, 0.0147419, 0.00922807, -0.0445808, -0.0168433, 0.392992, -0.561919, 0.47602, -0.592605, 0.359728, -0.455364, -0.161756, 0.085056, -0.156286, -0.0851327, 0.127, -0.571773, 0.332968, 0.0229053, -0.307652, 0.594045, 0.436778, -0.619665, -0.467174, -0.313875, 0.567741, 0.00144745, -0.0455624, 0.0980861, -0.63306, -0.378584, -0.257894, 0.329483, -0.231437, 0.208231, 0.110718, 0.0024913, -0.30918, -0.366297, 0.0770191, 0.271805, 0.0684694, 0.598694, 0.0760059, -0.383144, -0.529242, 0.377963, -0.489802, 0.440375, -0.153822, 0.0327196, -0.0979576, 0.278412, -0.154547, -0.0945023, -0.19409, -0.306486, -0.188008, -0.0321623, 0.0748288, 0.0346469, -0.149817, -0.193544, 0.465276, -0.00603887, -0.492459, 0.0923539, 0.0250518, 0.036241, 0.427966, -0.172048, -0.2422, 0.187076, -0.132767, -0.226069, -0.306096, -0.136826, -0.442762, 0.0347628, 0.463678, -0.267843, 0.316675, 0.0158271, -0.758442, 0.0243338, 0.206941, -0.24138, -0.245249, -0.0151853, -0.0892839, 0.329114, -0.180446, -0.173171, -0.37253, 0.102715, -0.534095, 0.364605, 0.942106, 0.274642, 0.0887546, -0.181933, 0.0688213, -0.0892551, -0.0550401, 0.299098, 0.276628, 0.122361, -0.0358997, -0.0178345, 0.194378, 0.20132, 0.0242269, -0.221452, -0.156842, -0.533955, 0.515966, 0.00609771, 0.126034, 0.151981, 0.256231, -0.184223, -0.0644168, -0.500605, -0.146184, -0.231684, 0.485299, 0.515106, -0.00538104, -0.151601, 0.224047, 0.345133, 0.285158, -0.241432, -0.385701, -0.168127, 0.0131112, -0.0400866, -0.103981, -0.347919, -0.0911921, -0.133391, 0.159594, 0.173086, 0.482211, -0.213917, -0.0746466, -0.0862957, -0.610816, 0.187402, 0.0338898, 0.318682, -0.713077, 0.351719, -0.298941, 0.465881, 0.30709, -0.625373, 0.717583, 0.26698, -0.433363, 0.626475, 0.0896749, 0.123055, -0.0654321, -0.352111, -0.159927, -0.131574, -0.131873, 0.652882, 0.397859, 0.143784, -0.252113, 0.0487919, -0.112514, -0.20688, -0.226551, 0.286894, -0.42465, 0.221045, 0.240848, -0.00667285, 0.0187261, 0.141511, -0.600503, -0.263921, 0.23882, 0.0186366, -0.22868, 0.250351, -0.201775, -0.222174, 0.204795, -0.842709, -0.768834, 0.0349024, 0.152514, -0.208074, 0.014109, 0.232077, -0.375883, -0.386172, 0.374162, 0.136097, 0.727513, 0.625742, -0.213106, -0.111547, 0.318156, -0.147336, 0.42547, -0.0843341, -0.310307, 0.0168282, 0.0303473, -0.647927, 0.512844, 0.102036, -0.0437291, 0.14695, -0.259948, 0.0403624, -0.230962, 0.155047, 0.307407, 0.299473, -0.0715013, 0.719636, -0.147029, 0.342608, 0.133806, -0.413585, 0.242643, -0.437415, 0.318715, 0.290714, -0.0899806, 0.173549, -0.0821096, 0.45705, -0.308847, 0.115855, 0.543767, -0.190643, 0.361552, 0.163008, 0.07046, -0.316239, 0.308878, 0.396981, -0.305922, -0.112394, -0.0233241, -0.00240363, 0.26614, -0.023483, -0.219778, -0.465859, 0.439104, 0.245712, 0.420148, -0.981504, -0.111989, 0.0216082, 0.321271, 0.847798, -0.0822098, -0.460147, 0.0277966, -0.119173, -0.108521, -0.179975, -0.104688, 0.426893, -0.360606, 0.0862691, -0.160759, 0.0130362, 0.644923, -0.247707, -0.376585, 0.106456, 0.48629, 0.0659911, -0.638247, 0.341366, -0.159893, -0.0841334, 0.193777, 0.718027, -0.124358, 0.505115, 0.463209, 0.826093, -0.317684, -0.137283, -0.08632, 0.0629625, -0.421327, -0.252815, 0.231702, 0.139987, -0.0805831, 0.217667, -0.150945, 0.345233, 0.367981, -0.121029, -0.0553387, 0.114974, -0.0567713, -0.444128, -0.405938, 0.31065, 0.274974, -0.178085, 0.283546, 0.291539, 0.148282, 0.267403, -0.157697, 0.307367, 0.325442, 0.441843, -0.297784, -0.513662, 0.202388, -0.261789, -0.100059, -0.0210534, -0.0247912, -0.0102471, 0.374751, 0.0175431, -0.156311, 0.313924, 0.253134, -0.470621, -0.445432, -0.0325243, -0.479431, 0.556621, -0.286154, 0.625971, 0.275966, -0.165475, -0.108918, -0.156386, -0.96886, -0.291662, -0.21234, -0.756302, 0.350181, -0.140061, 0.0063318, 0.532118, -0.146326, 0.0400544, 0.0289118, -0.036033, 0.287004, -0.746587, -0.395983, -0.488534, 0.0354614, 0.769718, -0.319366, -0.0899056, 0.244446, 0.0199007, 0.0147343, -0.0527833, -0.480442, -0.646435, -0.548549, 0.299215, 0.170553, 0.695106, 0.248366, -0.28213, -0.64672, 0.411711, 0.188179, 0.0250701, 0.571178, 0.0106464, -0.0590965, 0.429672, 0.154315, 0.648726, 0.325313, 0.0317633, 0.111765, 0.740084, -0.188127, -0.484369, 0.0486356, -0.158379, 0.0651696, 0.096267, -0.265061, 0.109086, 0.754825, 0.116642, 0.572222, -0.0459018, 0.300618, -0.149108, -0.23575, -0.0687203, 0.00141475, 0.14585, -0.370043, -0.452087, -0.117969, 0.130024, 0.091368, 0.0415453, 0.17329, 0.263674, -0.389662, 0.864674, 0.228396, 0.0851955, -0.257521, -0.512469, -0.21763, 0.0202758, 0.565835, 0.332991, -0.259076, 0.11364, 0.217677, -0.0464248, -0.794592, -0.149381, -0.23373, -0.183003, 0.224066, 0.142568, -0.489496, 0.452376, -0.671967, -0.657163, 0.102469, 0.512903, 0.115223, 0.204142, -0.408617, -0.608901, -0.244735, 0.139096, -0.310933, -0.289883, 0.128111, -0.197335, 0.320832, 0.33625, 0.16362, 0.588629, 0.505744, -0.583836, -0.0747649, 0.824846, 0.220301, -0.832961, 0.15226, -0.251165, -0.224203, 0.109518, -0.892527, -0.212359, 0.668216, 0.0944432, -0.248407, 0.199056, -0.414933, 0.353268, -0.220585, 0.127598, 0.178631, 0.45141, 0.42192, 0.997223, 0.383143, 0.296848, -0.0260391, -0.243641, 0.00203221, -0.738417, -0.189587, 0.17119, 0.196946, -0.0325556, -0.44086, 0.431513, 0.0703961, 0.565037, 0.0156232, 0.0961461, 0.377086, -0.243859, -0.0716201, -0.118905, 0.0560125, -0.209106, 0.150642, 0.17339, -0.30541, 0.0674394, -0.291034, 0.30349, -0.588972, -0.190417, 0.075695, 0.49049, 0.355337, -0.328687, -0.0497965, 0.686583, -0.105298, 0.594528, -0.321762, -0.466284, -0.0170753, 0.271056, -0.245915, 0.0236113, -0.497139, 0.334329, -0.304333, -0.0113206, -0.473092, 0.339793, 0.574155, -0.168222, -0.231851, -0.148305, 0.432564, 0.062131, -0.23299, 0.199436, 0.0233766, 0.0610947, -0.311546, -0.0355349, 0.193248, 0.365876, 0.148132, 0.562662, 0.217067, 0.138539, 0.0470472, 0.0235827, -0.254102, 0.825596, 0.362651, -0.403649, 0.51742, -0.267845, -0.272492, 0.0237257, 1.01184, 0.163572, 0.00502545, 0.0155725, 0.8422, -0.642296, -0.406528, 0.294588, -0.206188, -0.395634, 0.173377, 0.393102, 0.0352909, 0.00432764, 0.243074, 0.129219, 0.416661, -0.0490972, 0.194269, -0.278189, 0.409781, 0.645754, 0.307634, -0.0535458, 0.0790107, 0.0613407, 0.185863, -0.251602, -0.137504, 0.159235, 0.657715, 0.264184, 1.01563, 0.221044, -0.350433, -0.139492, 0.202942, 0.833838, 0.109757, -0.17883, -0.0512908, -0.0628446, -0.664332, -0.105881, 0.449845, 0.0611736, -0.328022, -0.6646, 0.320872, 1.0297, -0.185538, 0.407753, -0.0856284, -0.5056, 0.482873, -0.308598, -0.331736, 0.289208, -0.47292, 0.145928, 0.42437, -0.0808973, -0.225193, 0.236495, 0.546058, -0.0678893, -0.259837, 0.112329, -0.27504, -0.228382, -0.360699, 0.476468, -0.146686, -0.0192833, -0.196599, 0.25034, -0.942881, 0.434784, -0.207727, 0.0303863, 0.206045, 0.791661, 0.142032, -0.498535, -0.0361602, -0.572376, 0.03736, 0.284241, -0.332257, 0.207699, 0.00957968, -0.492597, 0.331606, 0.667008, -0.242105, 0.156953, 0.17083, 0.328288, -0.293811, 0.393935, 0.550657, -0.164772, -0.899615, -0.119161, 0.0562821, 0.742084, -0.260148, 0.577394, -0.189478, -0.285079, -0.177533, -0.0431165, 0.272624, -0.826917, -0.419204, 0.718424, -0.0999406, 0.134063, -0.172851, -0.831696, 0.46901, 0.350902, 0.0960696, -0.0137054, -0.023315, 0.196022, 0.170388, -0.0930137, -0.106307, -0.229395, -0.446935, -0.459206, 0.0511758, 0.299743, -0.301141, 0.0896256, -0.459528, -0.511995, -0.201428, -0.383126, -0.627674, 0.412501, 0.4597, -0.0868051, -0.0958234, -0.625827, 0.249928, 0.0680248, 0.108445, -0.0304055, 0.129262, 0.408446, -0.0557852, -0.285408, -0.324132, 0.102567, 0.759521, -0.0983067, 0.309057, -0.0626061, 0.440782, 0.339082, 0.0319462, 0.244782, 0.134845, -0.42299, 0.0262223, -0.394876, 0.459215, -0.153793, 0.139718, -0.085902, 0.103854, 0.0568507, 0.0530353, -0.426253, -0.111637, 0.340953, 0.127231, 0.0248978, 0.0494731, 0.0390323, -0.193243, 0.40411, -0.131293, 0.317378, -0.161439, -0.225947, 0.117741, -0.000274208, 0.259481, -0.676222, -0.391109, 0.173414, 0.272293, 0.416841, -0.134336, -0.353995, -0.299605, -0.606722, -0.0239365, -0.714783, 0.146061, -0.177099, 0.482233, 0.345644, 0.49233, 0.398718, -0.0605692, 0.244343, 1.10132, -0.378664, -0.117623, 0.120517, -0.648229, 0.0904227, 0.392109, 0.135758, 0.237396, 0.191612, -0.22058, 0.208533, 0.366387, 0.219594, 0.217087, 0.104543, -0.228119, 0.196255, -0.0450871, -0.077248, -0.428779, -0.142448, 0.643261, -0.0143802, -0.000613594, -0.256464, -0.239756, -0.316896, 0.0677894, 0.768374, -0.20409, 0.5706, 0.0249735, -0.104084, 0.234202, 0.149406, 0.2464, 0.193529, 0.270169, -0.105155, 0.484706, -0.408653, -0.269332, 0.133072, -0.617326, -0.117997, 0.591137, -0.0547075, 0.017207, -0.257918, -0.42785, 0.189724, 0.15672, -0.738385, 0.208853, -0.175924, 0.90773, 0.376333, -0.0775879, -0.299608, -0.088067, -0.603157, 0.600624, 0.120017, 0.301592, 0.116663, -0.026386, 0.397144, 0.060272, 0.0247915, 0.0795779, 0.0186003, -0.328331, 0.166244, -0.210617, 0.248285, 0.276463, -0.340195, 0.683526, 0.698805, -0.0362912, 0.207779, 0.325969, 0.0394339, -0.157537, 0.45291, 0.0851599, -0.00813619, -0.602753, 0.233381, -0.639996, -0.0827471, 0.561553, 0.0605586, -0.215075, 0.163768, 0.116029, -0.0762301, -0.380017, -0.0450062, 0.0162294, -0.262686, 0.0220575, -0.584556, 0.568663, -0.279986, -0.408197, 0.100653, 0.210637, -0.0976023, -0.64254, 0.0247883, 0.108734, 0.183166, 0.170554, 0.0473846, 0.163039, 0.254224, -0.152073, -0.393578, 0.295049, -0.0380757, 0.0162991, 0.253491, -0.0920609, 0.187648, 0.319586, 0.0959805, 0.294018, 0.240666, 0.0547437, -0.0416021, 0.0663886, 0.082473, 0.0885705, -0.218941, -0.166369, 0.16275, -0.112039, -0.0631576, 0.102567, 0.546858, 0.512546, 0.273671, -0.55983, 0.171194, 0.0447028, 0.0441016, -0.00192497, 0.296077, 0.342238, -0.0755378, 0.407154, 0.0159056, -0.37954, 0.806576, -0.163682, -0.204234, -0.20436, 0.623953, 0.403838, -0.687918, 0.565401, -0.186802, 0.0511052, -0.4551, -0.299689, 0.037402, 0.774871, -1.00521, 0.189298, -0.137593, 0.152734, -0.26695, 0.269201, -0.221359, -0.250073, 0.696555, -0.699335, 0.508818, 0.264066, -0.0285577, 0.331255, -0.00974242, -0.31094, 0.368073, -0.16648, -0.657266, 0.0136061, -0.0545437, -0.334105, -0.336651, 0.69891, -0.189673, 0.132697, -0.0540058, 0.224521, 0.118719, -0.19766, -0.305982, -0.3116, -0.230445, 0.208102, 0.246132, 0.0735731, -0.363598, 0.572794, -0.565789, 0.106876, 0.25456, 0.397101, -0.33397, 0.0615696, -0.60203, 0.107374, -0.230335, 0.795659, 0.0411987, -0.473995, 0.127627, 0.192131, -0.167923, 0.289995, 0.194626, 0.362202, 0.283481, -0.147566, 0.0277001, -0.608516, -0.419107, 0.296914, 0.355298, 0.352521, 0.389246, -0.156763, 0.786492, -0.212821, -0.494102, -0.198907, -0.237884, 0.338289, 0.660515, -0.0777337, -0.000243639, -0.494015, -0.0773321, -0.242715, -0.138306, 0.26248, 0.0590828, 0.126491, 0.120332, 0.0763086, 0.502332, 0.037467, 0.0552459, 0.821342, 0.160644, -0.276542, -0.192759, 0.0241838, 0.105595, 0.194281, -0.00723512, -0.0308995, 0.0924428, -0.0331332, 0.0646021, 0.0467756, -0.251233, 0.29399, 0.278784, 0.0236322, 0.124328, 0.259742, -0.57259, -0.062387, -0.0758174, 0.588389, -0.061498, -0.0801728, -0.00561542, -0.254431, -0.346237, -0.678994, 0.289945, -0.0827227, 0.650438, 0.232718, -0.300824, -0.2617, 0.0701518, -0.352129, -0.600129, 0.21691, 0.043105, 0.176035, -0.345954, -0.141952, 0.0163264, -0.216847, -0.369072, 0.0778705, -0.451619, 0.163718, 1.11626, -0.380404, 0.399323, 0.104438, -0.242352, -0.0613295, -0.0198679, 0.376081, 0.0967223, 0.0912028, -0.0205263, 0.406244, -0.385047, 0.161228, 0.168306, 0.0612728, -0.0581006, 0.117806, 0.329479, -0.0418124, 0.154973, 0.348732, -0.274733, -0.620667, 0.226947, -0.153361, -0.0538585, 0.235079, -0.525418, 0.159129, -0.432268, -0.593983, 0.0509429, -0.224274, -0.455422, 0.0885096, -0.162172, -0.355442, -0.265475, -0.569251, -0.028367, -0.810827, 0.281494, -0.352567, -0.160359, 0.0299206, -0.322924, 0.137541, -0.529136, -0.0562635, -0.0744182, -0.148407, -0.103264, -0.136327, -0.268122, -0.0678691, 0.181324, 0.0600158, 0.0847342, -0.105392, -0.282028, 0.0367276, 0.0241014, 0.178492, 0.168755, -0.367822, 0.0892405, -0.118666, -0.551574, 0.270923, 0.0891911, 0.335966, -0.428667, 0.134072, 0.356178, -0.252172, 0.120708, -0.138374, 0.781835, 0.5311, -0.320904, -0.0898426, 0.0691898, 0.0693074, 0.607714, 0.401308, -0.12063, -0.00103475, 0.401907, 0.024045, 0.190869, -0.000669313, 0.214277, 0.337639, -0.0640928, -0.402381, 0.572853, 0.357908, -0.17549, -0.212827, 0.118263, 0.273596, 0.129699, -0.376003, -0.541328, 0.277248, -0.224508, -0.419697, 0.327286, -0.0506872, 0.324179, 0.00238659, -0.361187, 0.0701934, 0.0283592, -0.144828, 0.104161, -0.480629, -0.25513, 0.132803, -0.509841, 0.360368, -0.153983, -0.718767, 0.199711, -0.340761, -0.0285221, 0.114368, 0.0456877, -0.467866, 0.352657, -0.0848654, 0.35566, 0.209385, -0.161873, -0.204833, -0.0561597, -0.488285, -0.526162, 0.318503, -0.0603644, -0.344003, 0.0770377, -0.338176, 0.580457, -0.106148, -0.310731, 0.000466925, -0.409105, -0.0451201, 0.0426052, -0.116413, 0.275829, -0.799977, -0.402492, 0.568982, -0.220394, 0.230158, 0.0604204, -0.622749, 0.0150853, 0.550007, -0.0680567, -0.747914, 0.574068, 0.41041, 0.075898, -0.212235, 0.091575, 0.388338, -0.0830664, 0.19116, -0.333215, 0.267096, 0.698013, -0.040992, 0.0252509, -0.336806, 0.592992, -0.500234, 0.283756, -0.104631, 0.746852, -0.0792957, 0.880941, 0.222005, -0.161694, 0.438497, 0.00123918, 0.297352, 0.601771, 0.444841, -0.0439773, 0.612971, -0.267447, -0.124408, 0.773725, 0.654229, -0.490062, 0.49624, 0.452927, -0.171622, 0.330915, -0.240796, 0.205845, 0.803441, -0.220822, 0.0767198, -0.416006, 0.0517824, -0.211302, 0.0077157, -0.205578, -0.257953, -0.288272, 0.285219, 0.517086, -0.0740901, 1.20023, 0.449003, -0.105508, 0.0945719, 0.238668, -0.601563, -0.029843, -0.19532, 0.222281, 0.0191297, 0.428089, 0.550625, 0.204347, -0.104314, 0.171303, -0.0155347, -0.188494, -0.164125, -0.630472, 0.988768, 0.276008, -0.706167, -0.251609, 0.791806, 0.0788145, 0.0214285, -0.195707, -0.0767382, -0.0959966, -0.0215049, -0.445526, 0.367542, 0.0816501, -0.0442146, 0.191155, 0.34812, -0.096669, 0.0671712, 0.288644, 0.31757, 0.304649, 0.370791, 0.369708, -0.552865, -0.340106, 0.351158, 0.329434, -0.579067, 0.0751658, 0.51997, -0.318323, 0.383564, -0.310533, 0.0931717, 0.182166, -0.538157, -0.139266, 0.289692, 0.146409, 0.0582522, -0.202037, 0.429397, 0.621042, 0.294942, -0.561381, 0.226011, -0.227571, 0.0114965, 0.191649, -0.446913, 0.260689, 0.148047, 0.149099, -0.472574, -0.227857, 0.0497973, 1.0487, -0.39473, -0.13726, 0.121771, -0.222186, 0.589478, 0.117014, 0.0799402, 0.639976, -0.0605919, -0.00557062, 0.276546, -0.0402622, -0.131965, -0.205801, -0.124461, 0.103756, -0.0381735, 0.806473, 1.01493, -0.424373, -0.189211, -0.0761954, -0.0765277, 0.618677, 0.511779, 0.0379856, 0.12547, 0.0513551, -0.244008, 0.340452, 0.207037, -0.468812, 0.0195586, 0.902027, -0.0234195, 0.473942, 0.0204754, 0.146321, -0.236624, 0.824766, 0.464361, -0.220096, -0.0131417, -0.660566, -0.147215, -0.310287, -0.430654, -0.279562, -0.143243, -0.250807, -0.341281, -0.341255, 0.520593, -0.504606, -0.228245, -0.631208, -0.302239, -0.178689, -0.101843, 0.0953843, -0.407308, -0.0324077, 0.522227, 0.025643, -0.4101, 0.71331, 0.215849, 0.0805722, -0.857327, -0.265342, -0.430326, -0.158262, -0.203856, -0.443471, 0.244283, -0.246544, -0.220144, -0.0876325, -0.121641, 0.277857, 0.16612, -0.369052, 0.491183, -0.0531811, 0.086946, 0.0108628, 0.45024, 0.628699, -0.0425183, -0.168076, 0.514216, 0.295046, 0.119332, 0.380083, -0.239804, 0.0775975, -0.0589752, 0.305087, -0.542432, 0.380907, 1.06574, 0.0511389, -0.519377, 0.0521954, 0.0889044, 0.726732, 0.0933337, -0.336694, -0.0464134, -0.114988, 0.0638071, 0.0411591, -0.0214813, 0.236386, -0.360673, -0.400106, 0.743982, -0.461428, 0.296387, 0.693759, -0.849617, 0.0342657, 0.394682, -0.31916, -0.239533, 0.463727, 0.539663, 0.844571, -0.386006, -0.320582, 0.262008, 0.0695859, 0.0449237, -0.245972, 0.136971, 0.520739, 0.383184, -0.190901, -0.507839, 0.454318, -0.623732, 0.0659274, 0.350206, 0.361087, -0.652632, 0.523474, 0.317493, -0.0287947, 0.0494379, 0.376104, 0.087708, -0.0825744, -0.0575883, -0.0390518, 0.115806, 0.16988, -0.6096, 0.121461, 0.222336, -0.41686, 0.134497, 0.343402, -0.0638115, 0.238398, -0.573891, 0.176382, -0.467656, -0.407876, 0.0575415, 0.0543692, 0.333059, -0.424309, 0.116069, -0.415412, -0.452145, -0.731803, 0.582868, 0.764564, -0.172748, 0.983628, 0.272203, 0.0135111, 0.379, 0.170976, -0.396411, 0.0354721, -0.123927, -0.24478, -0.284012, 0.0789957, 0.811912, 0.121786, -0.14912, 0.481487, 0.0737833, -0.192587, -0.331516, -0.698391, -0.390381, 0.371071, -0.328512, -0.0619867, 0.379834, -0.42715, 0.0145332, -0.453658, -0.37503, 0.0643334, -0.152585, -9.12743e-06, 0.134454, 0.32892, -0.115182, 0.13674, -0.394238, 0.296829, -0.223011, -0.0564666, 0.0880257, 0.193421, 0.352112, 0.15499, -0.840778, -0.391231, -0.2483, 0.120572, -0.464516, -0.311127, 0.583874, -0.108186, 0.224407, -0.0776832, 0.443397, -0.609758, -0.0412889, -0.131304, 0.340769, -0.780127, 0.690329, -0.364631, 0.198658, 0.354327, 0.0676159, -0.447102, -0.000949447, -0.0903795, -0.415014, 0.223845, -0.718429, 0.0197086, 0.70451, 0.091828, -0.498634, 0.468275, -0.322064, 0.0892124, -0.50084, 0.655139, 0.267204, -0.105707, -0.132535, 0.09012, -0.120313, 0.28518, 0.0214441, -0.775377, -0.684925, 0.249657, 0.0340503, -0.0276725, -0.266044, 0.191853, -0.314831, 0.705005, 0.625042, -0.189693, -0.358639, -0.133328, 0.503327, 0.422065, 0.498153, -0.108588, -0.0658847, -0.38151, -0.302937, 0.375998, 0.148615, -0.751394, 0.00362174, 0.183941, -0.139796, 0.214639, -0.359318, 0.040321, 0.469952, 0.185476, 0.37132, -0.318421, 0.287527, -0.306512, 0.0584848, -0.15377, -0.145973, -0.808062, 0.0266496, 0.236652, -0.143223, 0.403296, -0.150494, 0.00874815, -0.220822, 0.467408, -0.403259, -0.313694, -0.217305, -0.555048, -0.704881, 0.227832, 0.28436, -0.3748, -0.167491, 0.16608, 0.537848, -0.284961, -0.256438, -0.733424, 0.299575, 0.340665, -0.653886, -0.531569, -0.315465, -0.0732956, 0.0716917, -0.0691835, 0.179645, 0.22732, -0.491117, -0.877158, 0.209214, 0.522369, -0.379387, 0.100686, 0.825586, 0.322215, -0.468819, 0.365894, -0.187322, 0.0698611, -0.421277, 0.491125, -0.194436, 0.0236072, -0.281157, 0.292262, -0.258584, 0.580387, 0.115373, -0.0121131, 0.433038, -0.307876, 0.528917, 0.0781734, 0.0732769, 0.451105, -0.222404, -0.0541248, -0.203309, 0.0979225, -0.171251, -0.1129, 0.266001, 0.0784837, 0.369948, -0.129298, 0.00542769, -0.48416, 0.284369, -0.275048, -0.593463, 0.588826, 0.0177214, -0.0523333, -0.312611, -0.442697, 0.0624311, -0.830082, 0.278318, -0.180242, -0.590455, -0.0495084, -0.545088, 0.122172, -0.589529, 0.0178386, 0.159456, -0.00569255, 0.404577, 0.0289333, -0.0748445, 0.270662, 0.0092177, -0.260134, -0.236073, -0.125595, 0.190257, 0.464722, -0.240667, 0.0392203, -0.0538685, 0.698701, -0.0636307, -0.0424954, -0.26293, -0.41508, 0.278297, 0.0903485, 0.287263, -1.03557, 0.0140019, -0.412052, -0.270329, 0.0604616, 0.0502261, 0.37662, -0.259033, -0.0259836, 0.362157, 0.498473, 0.207245, -0.736407, 0.484498, 0.333768, 0.154985, -0.339691, 0.00876675, -0.180338, -0.332627, -0.505993, 0.226175, 0.490795, 0.572333, 0.52566, -0.372019, 0.543305, 0.230677, 0.232859, 0.175478, -0.32134, 0.534561, -0.230578, -0.0888726, -0.264819, -0.118335, -0.339347, 0.16827, -0.183228, -0.0680128, -0.293019, -0.369956, 0.258344, -0.134093, 0.420131, -0.208215, -0.263497, -0.453967, 0.365151, 0.0253791, 0.0218744, -0.0723657, 0.125153, 0.117454, -0.26089, -0.0426604, -0.270754, 0.203102, -0.210795, 0.0905395, -0.0480552, -0.26682, 0.471657, 0.974933, 0.563596, -0.584371, 0.0610236, 0.0651944, -0.435691, 0.115277, 0.396058, -0.390442, 0.0548125, -0.115614, 0.20991, -0.26132, 0.288134, 0.635216, -0.389791, -0.292551, 0.182601, 0.0740729, 0.0622897, -0.712427, 0.709644, -0.344359, -0.0147086, 0.59904, -0.322994, 0.0288015, 0.19818, -0.215486, -0.130838, 0.405343, 0.718351, -0.137748, -0.491472, 0.740561, -0.553125, -0.899296, 0.197828, 0.0758554, -0.393239, -0.597435, 0.0893472, -0.695165, 0.434163, 0.267255, 0.109559, 0.157339, 0.0985283, 0.291768, -0.0656666, -0.350666, -0.656953, 0.100354, 0.446502, -0.219535, 0.562612, -0.157697, 0.383977, 0.0481317, 0.0867422, -0.0719407, -0.106923, 0.397817, 0.181285, 0.198651, 0.308246, -0.0581001, 0.132021, 0.0651931, 0.278606, -0.431144, -0.523133, 0.149186, -0.23403, -0.241717, -0.122181, -0.444407, -0.0810943, 0.328958, 0.327264, -1.2226, -0.0281247, -0.942152, 0.423047, 0.510581, -0.724388, 0.0328538, -0.41545, 0.217011, -0.166827, -0.623566, 0.270944, 0.503829, 0.00621882, -0.0929853, -0.462161, -0.202334, -0.129027, -0.11353, -0.10145, 0.41674, -0.425305, 0.265898, -0.273889, 0.268215, -0.538044, -0.911628, -0.314895, -0.354426, -0.29999, -0.0110969, -0.0440335, -0.213787, -0.226035, -0.345799, 0.574232, -0.496424, -0.284008, 0.446508, -0.101679, 0.423668, -0.147129, 0.651103, -0.0199247, 0.508084, 0.199252, -0.148456, -0.402307, 0.0949751, -0.0498289, 0.267771, -0.177957, -0.59964, 0.582062, -0.192693, -0.285675, 0.48476, 0.0956125, -0.0270376, -0.761811, -0.418173, 0.623857, 0.194566, 0.336097, 0.0514806, 0.332509, 0.161112, -0.124076, -0.152681, -0.548066, -0.0955968, -0.0383384, 0.123105, 0.19258, -0.309579, 0.216481, -0.234224, 0.347582, -0.342273, -0.650703, -0.257784, -0.0880192, 0.231496, 0.109463, -0.292083, 0.134326, 0.0453134, -0.645599, -0.243191, 0.359171, -0.0323919, -0.299561, -0.244918, 0.0525056, 0.458851, 0.0180273, -0.752479, -0.399307, -0.589, 0.0565848, -0.0752389, -0.142137, -0.467592, -0.306901, -0.0791548, -0.833124, -0.172218, 0.283734, -0.91314, 0.811393, 0.108591, 0.323038, 0.029961, 0.163001, -0.137834, -0.0948489, -0.347861, 0.164955, 0.188562, 0.0354022, -0.367154, -0.211455, -0.433972, 0.396538, 0.465266, -0.745067, 0.386247, -0.0255858, 0.13403, 0.476366, 0.490684, -0.245723, -0.275727, -0.419469, 0.196577, 0.233281, 0.191227, -0.112956, -0.141729, 0.467, 0.147003, -0.368175, 0.0786156, 0.0608624, 0.564969, 0.0426654, 0.0548788, -0.0104267, 0.202183, -0.367021, -0.321787, 0.0173936, 0.641693, -0.333992, -0.439494, 0.178609, 0.682843, -0.369566, 0.226004, 0.102093, -0.0790597, 0.196917, 0.456258, 0.634061, -0.250158, 0.305418, 0.34429, -0.36431, -0.354295, 0.0841544, -0.00714594, -0.427122, 0.113508, 0.494786, 0.0678444, 0.1175, 0.703351, 0.55929, 0.461776, -0.207535, -0.36828, 0.187219, -0.0127034, -0.0575997, -0.0640793, -0.427946, 0.356995, 0.0600034, -0.113953, 0.436715, 0.136238, 0.208258, 0.154381, -1.10303, 0.526692, 0.137119, -0.234325, -0.125624, -0.200799, -0.41845, 0.451137, 0.00723922, 0.0239191, 0.491869, -0.280393, -0.419097, -0.0042521, 0.635348, 0.416315, -0.439799, 0.156096, -0.639711, -0.20115, 0.0484578, -0.00774596, -0.0383409, 0.0718013, 0.0445452, 0.49401, -0.0622557, -0.357437, 0.635985, -0.638603, -0.204357, -0.229606, 0.362792, 0.328886, -0.259342, 0.0462821, -0.303954, 0.0786067, 0.540387, 0.385661, 0.137938, 0.419193, 0.0814825, 0.0528176, 0.0894732, -0.660344, 0.118574, 0.254769, 1.32688, -0.372942, -0.0194778, -0.126446, -0.370201, 0.11267, -0.635061, -0.41556, -0.0786246, -0.661113, 0.171009, -0.378787, 0.196301, -0.0530185, 0.547436, -0.216599, -0.351098, -0.645791, 0.137601, -0.0218569, -0.214854, -0.725168, -0.397167, 0.733096, -0.450956, -0.569962, -0.183066, -0.182434, 0.18945, 0.341197, 0.350203, -0.0919005, -0.276339, 0.00776128, 0.578493, -0.109839, -0.0367883, -0.237961, -0.514638, 0.930794, -0.404125, -0.524212, 0.0189104, -0.283713, 0.408466, -0.475092, 0.00928501, -0.65805, -0.304808, -0.370474, 0.89967, -0.0136643, -0.418456, -0.654427, 0.0790632, -0.36237, 0.0549016, 0.218013, -0.142198, 0.00962998, -0.0904489, 0.244467, -0.212707, -0.578624, 0.0756016, 0.19594, 0.17814, -0.635476, 0.564322, 0.221561, 0.770521, 0.180499, 0.230474, 0.15259, 0.000334947, 0.062693, -0.442078, -0.35127, -0.0171196, 0.252786, 0.146866, -0.382766, 0.539412, -0.261435, 0.522487, -0.0326309, -0.106729, -0.0260129, 0.619466, 0.0199412, -0.268926, 0.475327, 0.242053, -0.118709, -0.244959, -0.481444, -0.379798, -0.0865676, -0.285017, -0.164098, -0.531492, 0.0497241, 0.24589, 0.0622787, -0.452851, 0.00524964, 0.207648, 0.0306127, 0.442378, 0.570285, 0.190879, 0.190814, -0.193199, -0.369879, -0.601703, 0.173038, -0.267101, -0.512304, -0.189814, 0.7753, 0.250679, 0.151068, -0.659153, 0.455188, 0.109851, -0.323413, -0.0313401, -0.167655, -0.364139, 0.205583, -0.131595, 0.0657083, 0.331219, 0.609503, -0.655618, -0.323965, -0.0776601, -0.32786, 0.563377, -0.0255606, 0.237082, 0.179619, 0.186708, 0.18899, -0.464213, 0.202435, -0.589828, -0.233985, -0.0813599, -0.277992, -0.322365, -0.0552149, -0.204455, -0.187977, -0.00956845, 0.00530885, -0.0962756, -0.348739, -0.267781, 0.0177177, 0.0837963, 0.433073, 0.000633682, 0.17882, 0.736573, -0.172398, -0.0850239, 0.151306, 0.0587943, -0.245121, 0.0593423, 0.322894, 0.287342, -0.129737, -0.450042, -0.198842, 0.196591, -0.0306473, 0.0538673, 0.504399, -0.330566, -1.0808, -0.10839, 0.514368, -0.161935, -0.523589, -0.0635271, -0.17679, -0.13692, 0.495185, -0.151194, -0.384229, -0.109197, -0.266437, -0.194477, 0.0385307, 0.304374, 0.283673, 0.177902, -0.400227, 0.132308, 0.327472, 0.131879, 0.00619154, 0.413163, -0.315383, 0.0564434, 0.924448, -0.159139, 0.568586, 0.423973, -0.86463, 0.217581, -0.0370624, 0.532356, 0.492111, -0.176647, -0.346139, 0.0884297, -0.246585, 0.349168, -0.481626, 0.665677, -0.325115, 0.233351, 0.242485, 0.371914, -0.430178, -0.340804, -0.433383, -0.362709, 0.490143, 0.116014, -0.682232, -0.0338334, -0.000926077, 0.194224, -0.0711451, -0.639558, 0.298056, 0.107201, 0.470885, -0.872074, 0.128075, -0.135478, -0.00226687, -0.32479, -0.0817981, -0.151726, -0.199775, -0.0685595, -0.0712031, 0.138231, 0.241953, 0.137667, -0.360626, 0.963942, 0.153456, -0.11574, 0.468232, -0.0232467, 0.24249, -0.433126, 0.463144, -0.262227, -0.463756, -0.3587, 0.687944, 0.0331368, 0.424036, 0.372328, 0.0912441, -0.381293, 0.0369983, 0.343956, -0.543521, 0.0128011, -0.476903, -0.696981, 0.888053, -0.465789, 0.0571423, -0.134906, -0.359798, -0.613634, -0.293658, -0.667416, -0.461546, 0.0448912, 0.0795163, 0.237271, 0.369395, -0.203526, 0.14387, 0.558743, -0.268418, 0.169537, 0.304607, -0.0808167, -0.227744, -0.310954, 0.0447488, -0.123039, -0.0185634, 0.496877, -0.176447, 0.495406, -0.302136, 0.165947, 0.335864, 0.270112, -0.214505, 0.167382, 0.276443, 0.796305, -0.38244, 0.365401, 0.0566257, -0.745075, -0.234185, 0.0844387, 0.190438, 0.198167, 0.514625, 0.911201, 0.207174, -0.34909, -0.00212727, 0.0663549, 0.200107, -0.454133, 0.66399, 0.14578, -0.400472, -0.0717231, 0.315996, 0.00756176, -0.14967, 0.222779, -0.209733, 0.432052, 0.00997314, 0.114982, 0.375482, 0.163211, -0.0478238, -0.0674063, 0.171949, 0.318375, -0.530196, -0.0421453, -0.391008, -0.0291523, 0.525541, 0.0300452, 0.0698266, -0.378438, 0.357742, -0.0706241, -0.04468, -0.0643523, 0.226926, -0.000150032, 0.258611, -0.157906, 0.119003, 0.042642, 0.178658, 0.121902, -0.674874, -0.267006, 0.225501, -0.189441, 0.259005, 0.208535, 0.665961, -0.00835212, 0.196767, -0.225571, -0.0543036, -0.775891, 0.33888, 0.115821, 0.0186177, -0.170016, 0.244021, -0.587954, -0.422958, 0.340165, -0.225565, -0.537116, -0.319139, -0.0764869, -0.356562, -0.181432, 0.248769, 0.127838, 0.116818, 0.310005, 0.101043, 0.015861, -0.771518, -0.215939, -0.0598647, 0.271047, 0.299914, 0.48079, 0.150692, 0.024641, -0.0561811, 0.0978211, 0.101948, -0.314663, 0.426562, -0.445387, -0.129573, -0.284913, -0.0893459, 0.332445, 0.347029, 0.615552, 0.840198, 0.0794505, 0.395738, 0.184206, 0.00439287, -0.161874, 0.594859, 0.00955187, -0.370127, -0.0635724, -0.0569673, -0.0228971, -0.0822794, -0.123565, -0.0206975, -0.645974, -1.04079, -0.260906, -0.972469, 0.336913, -0.0259808, 0.129011, -0.100377, -0.585512, 0.520551, -0.340264, -0.0168098, -0.629302, -0.472283, 0.0409468, 0.0649151, 0.293456, -0.207483, -0.565659, -0.232163, 0.287329, 0.305074, 0.267272, 1.04856, 0.224971, 0.351038, 0.436012, 0.367248, 0.0568927, -0.131902, 0.0554281, -0.306318, 0.645006, -0.0380572, -0.28378, 0.501839, 0.0135784, -0.226912, -0.0965299, 0.0185685, -0.0398409, -0.260241, 0.399597, -0.29751, 0.0274608, -0.210968, 0.491709, -0.0124957, 0.169081, 0.428362, -0.463747, -0.222106, 0.209108, 0.490796, -0.53365, -0.330079, -0.437902, -0.36841, -0.275246, -1.05422, 0.074485, -0.487563, 0.132824, -0.0725857, 0.031601, 0.456581, 0.525034, 0.568978, -0.259377, -0.392312, -0.0920752, 0.0656244, -0.0922838, 0.359518, 0.0400639, 0.362764, -0.192512, 0.149897, -0.487259, 0.383329, 0.216543, -0.554955, -0.770076, 0.106707, 0.237357, 0.156001, -0.810547, 0.0311526, 0.33239, -0.110491, 0.12786, -0.602752, -0.189944, -0.0216294, 0.604243, -0.167294, 0.17815, 0.0182458, -0.0810281, 0.0375562, -0.00394336, -0.833792, -0.304074, 0.25443, 0.384989, 0.101236, -0.230288, -0.118747, 0.235571, 0.0530912, 0.208416, 0.42893, -0.171673, 0.556052, -0.484799, 0.414699, 0.390564, 0.247406, 0.818471, 0.608835, 0.305866, 0.0772485, 0.0374794, 0.532355, -0.222473, 0.551525, 0.248416, 0.480474, -0.372918, 0.104635, -0.639746, -0.445962, 0.485931, -0.510188, 0.704309, -0.194547, -0.698053, -0.0170523, -0.0475968, 0.364888, -0.0292758, -0.0571016, 0.507219, 0.0272788, 0.383021, 0.295336, -0.0740647, 0.243527, -0.108945, 0.0985235, -0.110045, 0.0456632, 0.0303281, 0.353879, 0.20489, -0.324814, 0.2772, 0.366493, -0.363344, -0.162104, -0.0752736, -0.394512, -0.185347, 0.278419, 0.263473, -0.12784, 0.0133347, 0.0989954, 0.139579, 0.353915, -0.0545769, 0.403118, 0.0463123, 0.68445, -0.102208, 0.170837, -0.649108, 0.0294431, -0.0938696, -0.178487, 0.120349, 0.275232, 0.0308561, 0.274283, 0.145234, -0.662457, -0.036767, 0.119292, -0.0290918, 0.0943445, 0.0891656, -0.19009, 0.0633676, -0.203359, -0.139836, -1.47557, 0.690533, 0.244357, 0.072922, -0.050166, -0.314045, 0.0295556, 0.080945, 0.108298, -0.536377, 0.532227, 0.156997, -0.207002, -0.113647, 0.00517094, 0.322908, 0.11888, 0.0308897, 0.00312426, 0.088602, 0.623285, -0.821773, 0.702474, 0.661762, 0.0717149, -0.269791, 0.0574601, 0.469291, 0.432584, -0.300943, 0.154627, 0.466134, 0.0345392, 0.209281, -0.628527, -0.196159, 0.284539, -0.403532, -0.260785, -0.6236, 0.548945, 0.348031, -0.274535, -0.555391, -0.410766, -0.249003, 0.15767, 0.311507, 0.290101, -0.731465, -0.42132, 0.672709, 0.277427, 0.358517, -0.306087, -0.247999, 0.338732, 0.603459, -0.261054, 0.490773, 0.598014, -0.0319714, 0.230493, 0.286899, 0.30928, -0.268053, 0.429807, -0.0602158, 0.0482646, 0.0759306, 0.419617, 0.447821, 0.180633, 0.120886, 0.630206, 0.793212, 0.0585993, 0.0482778, 0.346346, -0.265346, -0.234916, -0.203049, -0.172733, -0.117809, 0.243381, 0.136536, 0.0559502, -0.0797926, 0.0192816, -0.0210276, 0.220174, 0.0410178, -0.158778, -0.0293366, 0.0548057, 0.223711, 0.945124, -0.128941, 0.277274, 0.321224, -0.297234, 0.0582513, -0.376702, 0.246284, 0.427524, -0.751214, 0.737894, -0.750736, -0.925846, -0.00436379, 0.417199, -0.382541, -0.0278919, 0.35818, 0.500115, 0.0772873, 0.746285, -0.00601537, 0.307779, 0.0195673, 0.500066, 0.0247507, -0.214209, -0.288863, -0.0609718, 0.22536, 0.0783819, -0.103851, 0.193714, -0.530504, -0.0917428, -0.240389, -0.246892, 0.709956, 0.413862, 0.29027, 0.518338, -0.311162, -0.122493, -0.0898513, -0.286425, -0.369679, -0.136595, 0.0356592, -0.00788593, -0.345149, -0.117931, 0.402179, 0.316041, -0.31131, 0.299899, 0.174248, -0.87107, 0.140209, 0.453651, 0.136054, 0.377554, -0.0184999, 0.311992, -0.227738, 0.386405, 0.22887, 0.121943, 0.426057, 0.0602583, -0.107095, -0.263381, -0.372537, -0.0626118, 0.229383, -0.3045, 0.111862, -0.66974, 0.15713, -0.217784, -0.494053, 0.0382371, -0.0867636, -0.342988, -0.140354, -0.015227, 0.308885, -0.789257, 0.0519493, -0.135686, 0.226644, 0.248032, -0.443821, 0.537485, -0.236937, 0.118087, 0.301893, 0.409383, -0.188778, 0.253365, 0.206207, -0.464405, -0.27099, -0.502759, -0.208083, 0.305449, 0.193837, 0.181223, -0.306029, -0.0866595, 0.0818978, 0.287113, 0.204283, 0.648263, -0.0259257, -0.0984095, -0.511294, -0.0547061, 0.0368888, 0.487233, 0.165327, -0.0947375, 0.385064, -0.0403916, 0.206332, -0.468174, -0.0623085, -0.000108968, -0.307716, 0.232773, -0.0759633, -0.0265591, -0.0268347, 0.103062, 0.50675, -0.11667, 0.225609, 0.347384, 0.0792255, 0.433813, 0.0723974, -0.37945, 0.110214, -0.785809, 0.0691635, 0.149135, 0.735863, 0.221003, 0.0335587, -0.158476, 0.096335, -0.120458, 0.0856957, -0.083993, -0.394437, -0.0162071, -0.012636, -0.49925, 0.0446644, 0.20375, -0.241115, -1.11649, -0.31324, -0.176483, 0.082415, -0.48847, -0.0887761, 0.238264, 0.0156216, 0.26818, 0.0283767, 0.0329278, -0.160397, -0.00719978, 0.390595, 0.317414, -0.114172, -0.215162, 0.151676, 0.00574229, 0.156564, 0.905387, -0.537969, 0.789507, 0.0803218, 0.0803626, -0.187412, 0.589011, -0.00776807, -0.233288, -0.1135, 0.676636, 0.250761, -0.138161, -0.103648, -0.676948, 0.189721, 0.46323, 0.199635, 0.485217, -0.141871, 0.15942, 0.3037, 0.0403987, -0.257345, -0.122168, 0.053352, 0.0636171, -0.164636, -0.255, -0.639577, -0.545529, 0.532048, -0.379317, 0.364932, 0.0280204, -0.420319, 0.315317, 0.00622559, -0.0114514, 0.201362, -0.0702194, 0.252162, 0.0277435, 0.727356, -0.195614, -0.468501, 0.0717532, 0.0651052, -0.0169925, 0.254662, 0.146241, 0.0139104, -0.110123, -0.0117564, 0.114885, 0.309217, -0.164705, -0.0993134, 0.265094, -0.215973, -0.368779, -0.294084, 0.0849431, 0.147453, 0.171254, -0.240502, 0.0385024, -0.257694, -0.0533485, -0.0479034, 0.125187, -0.125541, -0.549486, -0.551412, -0.244178, -0.276293, 0.573859, -0.028899, -0.454154, 0.0510325, -0.0285477, -0.11553, -0.315144, -0.158555, 0.424244, -0.142993, 0.143436, -0.19077, 0.113781, -0.33209, 0.250224, -0.414012, 0.389662, 0.306852, 0.31099, -0.190405, 0.628453, -0.303764, -0.0210407, 0.0915507, -0.389785, 0.276872, -0.313002, -0.74796, -0.794799, 0.398571, -0.36389, -0.0429652, 0.202116, -0.199506, 0.151748, 0.299937, -0.0834768, 0.526708, -0.609, -0.120079, 0.258663, 0.252822, -0.269032, -0.293145, 0.54498, 0.1467, 0.203443, -0.121139, -0.28055, 0.179225, -0.123333, 0.299648, -8.60956e-05, -0.310338, -0.124859, 0.165665, 0.238214, 0.0169644, -0.742566, -0.0675634, -0.0518128, -0.0270843, 0.163108, -0.00836605, 0.439203, 0.0309328, -0.0938853, 0.316025, 0.654839, -0.378546, 0.063498, 0.326363, 0.0503277, 0.123734, 0.308891, -0.159797, 0.0627152, -0.607916, -0.0122864, -0.432588, -0.35993, 0.0523197, 0.711379, -0.768641, -0.301671, 0.0820261, 0.276231, -0.417799, -0.130571, 0.120149, 0.315267, 0.496892, -0.132582, -0.539079, -0.670446, -0.336694, -0.335902, -0.06707, 0.663153, -0.100582, 0.02311, -0.126457, -0.305989, 0.102188, -0.477874, -0.210376, -0.1656, -0.482971, -0.124324, 0.0638756, -0.131478, 0.389645, -0.232358, 0.157736, 0.339313, -0.0349661, -0.346655, -0.041705, -0.14312, -0.280362, -0.470944, -0.027152, -0.37902, 0.143701, -0.370204, 0.215504, -0.215593, 0.0183954, -0.122475, -0.0833715, -0.167653, 0.132643, 0.0705226, -0.268625, -0.575489, 0.152376, 0.494694, 0.343075, -0.16755, 0.493611, 0.518568, -0.518867, -0.0165261, -0.274012, 0.261034, 0.616719, 0.245052, 0.373845, -0.374026, 0.0727819, -0.518558, -0.0121604, -0.265178, -0.229734, 0.184624, 0.449242, -0.0813019, 0.406783, 0.630022, 0.0341033, -0.256463, -0.839815, 0.208575, 0.781721, 0.604779, -0.0551168, -0.0143632, 0.320471, -0.109911, 0.258758, -0.0882519, 0.458713, -0.278719, 0.032533, 0.788719, 0.454611, -0.441384, 0.0238956, -0.521619, 0.212633, -0.440067, -0.0399381, 0.102357, -0.281394, 0.216348, -0.00535417, 0.275327, 0.11169, 0.116729, 0.435457, 0.0750651, -0.595031, 0.121125, -0.217069, 0.0841588, 0.383904, 0.111513, 0.286782, 0.0364637, 0.19549, -0.240117, -0.0118997, 0.237305, -0.0730862, -0.175484, 0.0847524, -0.395737, -0.106643, 0.0901394, 0.751765, 0.297391, -0.0112734, 0.342989, -0.226531, -0.0115588, 0.327921, -0.378329, 0.261294, -0.206085, 0.0420967, 0.17916, 0.0628167, 0.0641299, 0.581655, 0.34188, 0.130056, 0.12682, 0.53775, -0.271823, -0.415368, 0.17537, -0.463237, 0.0581525, -0.480497, 0.0554624, 0.0466663, -0.20459, -0.0116828, -0.0705412, 0.14858, -0.299755, -0.500323, -0.0729924, 0.223603, 0.843676, -0.028783, -0.623664, -0.177101, 0.497673, -0.00330451, 0.41314, 0.179094, -0.527831, 0.0420364, 0.221741, -0.235159, -0.297334, -0.0503439, 0.0399691, -0.222034, 0.584944, 0.0965524, -0.648259, 0.374479, 0.234815, -0.0496495, 0.0491875, 0.403381, -0.0310526, -0.376436, -0.390883, -0.320316, 0.755212, -0.275694, -0.364045, -0.832579, 0.161107, -0.470778, 0.236006, -0.143761, 0.117635, -0.0974674, 0.0262214, -0.270357, -0.0673555, 0.316628, 0.0904738, -0.194281, -0.510218, 0.387846, -0.211802, 0.629742, 0.281014, 0.644078, 0.236258, 0.461388, -0.0934817, 0.179779, -0.318807, -0.235129, -0.151477, -0.302894, -0.190603, -0.121898, -0.569816, 0.790769, -0.471309, 0.037159, -0.318995, 0.239565, 0.836823, -0.0513657, 0.45844, -0.27772, 0.645147, -0.714085, 0.169622, -0.425682, -0.216317, 0.131677, -0.011446, -0.182699, -0.185938, -0.0206292, -0.871146, -0.441714, -0.238603, -0.306915, -0.138012, -0.201038, -0.467718, -0.288565, 0.0911494, -0.207643, 0.418506, 0.142293, -0.43613, -0.491575, -0.064365, -0.226916, 0.219245, 0.761203, 0.33155, 0.189296, -0.200544, 0.0230164, 0.111296, -0.259011, 0.343844, 0.0260156, -0.386505, -0.35192, 0.016244, 0.0364149, -0.243979, -0.260063, -0.221318, -0.2257, -0.0528051, -0.479703, -0.0751541, -0.145613, 0.0602083, 0.318436, -0.012134, 0.442257, -0.431502, 0.207277, -0.210852, 0.0139652, 0.146784, 0.390528, -0.0668144, 0.288593, -0.255948, 0.700843, -0.368518, 0.224844, 0.398231, 0.40692, -0.791125, -0.0639324, 0.0865041, 0.00223413, -0.212025, -0.0128703, -0.468014, 0.253369, 0.130268, 0.0327182, -0.31991, 0.207465, 0.473265, 0.340593, -0.482612, 0.220781, -0.168782, -0.119429, 0.128843, -0.523363, 0.296558, 0.536393, 0.339675, 0.435446, -0.163328, 0.206678, -0.049646, -0.240195, 0.0760102, -0.2342, -0.0912557, 0.134175, -0.111083, 0.424455, 0.376599, -0.068906, -0.5635, -0.421526, -0.199617, 0.539124, 0.824791, -0.641833, 0.221785, 0.0845446, -0.23405, -0.251202, 0.0408491, 0.359584, -0.344349, 0.0450232, -0.247192, 0.263706, -0.380952, 0.359331, -0.406176, 0.0955415, -0.32249, 0.16208, 0.149217, -0.0960654, 0.796458, -0.0386205, 0.624724, 0.194988, 0.261762, -0.0795756, -0.144922, -0.431635, 0.635769, -0.442241, -0.124051, 0.41524, -0.0709013, -0.117079, -0.449969, 0.0829857, 0.0541307, 0.226353, 0.459739, -0.175671, -0.342801, 0.0986131, -0.157716, 0.094842, -0.0381052, 0.155075, -0.103743, -0.243309, 0.142318, -0.43146, -0.0332161, 0.549227, 0.0539241, 0.109276, 0.107542, -0.22199, 0.0907963, -0.10816, 0.125206, 0.371262, -0.155594, 0.0912118, -0.0831479, 0.345433, -0.217038, -0.195521, -0.238558, -0.117866, -0.276173, -0.717237, -0.0496312, 0.147977, 0.0503896, -0.398111, -0.103056, 0.490104, 0.202957, 0.0432113, -0.19595, 0.141193, 0.418947, -0.303072, 0.0454341, -0.40402, -0.0843364, -0.212708, 0.305423, 0.230401, -0.436779, -0.177882, -0.3194, 0.161292, -0.280061, 0.356573, -0.463981, 0.235395, 0.366855, 0.44721, -0.0670256, 0.00268708, 0.1658, 0.497835, -0.207854, -0.428746, 0.172591, -0.182856, -0.0491876, -0.279804, 0.00402494, 0.446045, 0.0150224, -0.18544, -0.999067, -0.14073, 0.357755, 0.0175119, 0.428464, -0.164874, -0.0982494, 0.277131, 0.213592, 0.416852, 0.409792, 0.0900768, -0.661529, 0.146131, 0.392275, 0.895377, 0.65783, -0.276897, 0.284775, 0.0937248, 0.0772324, -0.268296, -0.512004, -0.0780826, -0.327844, -0.326933, -0.193694, 0.346796, -0.443213, 0.791028, -0.0249133, 0.759977, -0.473068, 0.483721, 0.307616, 0.0237649, -0.219572, -0.0153232, 0.580225, 0.0360574, -0.38256, -0.355816, -0.366503, -0.429956, 0.278573, -0.140202, -0.328866, 0.136755, 0.0713488, -0.0264626, -0.141268, 0.642057, 0.0148054, -0.101019, 0.367904, 0.103449, 0.222602, 0.0708041, -0.0297303, 0.0732298, -0.119686, 0.0693556, -0.156573, 0.306562, 0.671118, 0.328162, 0.102534, 0.481955, 0.0155706, 0.0560902, -0.139407, 0.145854, 0.0555123, 0.113525, -0.0679564, -0.129928, -0.355326, -0.111278, -0.245487, -0.45822, -0.0520668, 0.0160335, 0.318988, -0.118098, -0.461262, -0.0651865, 0.183806, 0.67185, 0.421185, 0.217137, 0.228203, 0.439576, 0.603616, -0.337917, 0.110447, 0.00613276, 0.335679, 0.324885, 0.155318, 0.0790634, -0.295526, 0.0923774, -0.00553791, -0.345804, 0.144006, 0.229103, 0.301483, -0.0130486, 0.137847, 0.0131204, 0.212491, 0.0498955, -0.109982, -0.140167, 0.0858705, -0.0718893, -0.259249, 0.487092, -0.911893, 0.554692, -0.17374, -0.131649, 0.291967, -0.0136814, -0.167013, -0.441981, -0.623941, 0.457348, -0.153773, 0.783764, -0.00126493, 0.257208, 0.0735005, 0.415685, 0.263824, 0.0755442, 0.216299, 0.0988992, 0.134769, -0.179576, 0.34469, -0.132815, -0.108028, 0.125616, -0.340727, 0.266408, -0.511267, 0.159065, 0.479188, 0.0676447, 0.296504, 1.01424, -0.26576, 0.305987, -0.193167, -0.29872, -0.358636, 0.0327481, 0.558716, 0.800994, -0.175106, -0.271776, -0.435283, 0.120395, 0.0137878, -0.266626, 0.0328328, -0.0691443, 0.151526, 0.145064, 0.208487, 0.507334, -0.536472, -0.112942, 0.169429, 0.18591, 0.10575, 0.297718, 0.0804994, -0.0460731, 0.0163971, -0.117996, -0.448832, -0.072433, 0.0751561, 0.558956, 0.160486, 0.140042, 0.617265, 0.303083, 0.313532, -0.244335, 0.665026, -0.361194, 0.187894, 0.154912, 0.158475, -0.287167, 0.26378, -0.306132, 0.0609584, 0.272354, 0.162482, 4.02697e-05, 0.126475, 0.0381082, -0.269291, 0.0092493, -0.163425, 0.203797, 0.107072, -0.27992, -0.181274, -0.469662, -0.749826, -0.245463, -0.44007, -1.06192, 0.0265668, 0.0745015, -0.195146, 0.127125, -0.212362, -0.162982, -0.0624889, 0.296525, 0.0511047, -0.518428, -0.479558, -0.201633, -0.274738, -0.0798218, 0.257522, 0.417795, -0.231064, 0.108256, 0.0573588, -0.350957, 0.458879, -0.309362, -0.0359023, -0.0708103, 0.273157, -0.148357, 0.195516, -0.219263, -0.200493, 0.00449741, 0.597078, -0.079353, -0.097469, -0.542926, -0.0264927, -0.728647, 0.138555, -0.184919, 0.264312, 0.00501023, 0.24276, -0.565285, 0.00629872, -0.325969, 0.0052529, 0.246997, 0.595007, 0.280576, 0.167499, -0.335024, -0.260736, 0.237613, 0.0412761, 0.0891803, -0.201835, 0.020618, 0.233529, 0.219097, -0.271392, -0.884529, 0.23994, -0.106533, 0.312304, -0.0322876, 0.663334, -0.184963, -0.0439746, 0.0220095, 1.03967, 0.355328, -0.540987, 0.508719, 0.305045, -0.250598, -0.366879, 0.0453921, -0.0766875, -0.056364, -0.0404203, 0.14, -0.0539495, -0.136921, -0.194847, -0.175487, 0.238233, -0.221625, 0.438739, 0.319032, -0.0499539, 0.0223129, -0.226309, 0.540147, -0.434061, 0.8106, 0.0226442, -0.466877, 0.326239, -0.135869, 0.0106838, 0.52522, 0.461152, 0.00829057, -0.257042, -0.214766, -0.240426, 0.0690727, -0.13724, -0.164028, 0.273921, -0.0388037, -0.477653, 0.0984499, 0.0375446, -0.116789, -0.036847, -0.0701661, -0.128153, 0.0194727, 0.527606, 0.218052, 0.145164, -0.395973, 0.307802, 0.18031, 0.437249, 0.344072, 0.0545099, -0.443182, 0.238546, 0.0154114, 0.247354, -0.349573, -0.350222, 0.0651274, 0.0371859, 0.150377, 0.134118, 0.380919, -0.41494, -0.286342, -0.0821093, -0.206788, 0.283014, 0.181306, 0.132755, -0.0687473, -0.0396162, -0.426773, 0.266921, -0.313883, -0.546616, -0.078291, -0.0833801, -0.0639367, -0.196564, 0.524112, -0.154441, 0.0808713, -0.124329, -0.0356596, -0.127901, 0.130382, 0.215416, -0.0988954, 0.250039, 0.234944, -0.102957, 0.206675, 0.0411015, 0.357303, 0.291291, -0.382414, 0.146649, 0.325843, 0.379941, -0.225095, 0.201177, -0.326203, 0.386234, 0.115191, -0.0241208, -0.0910472, -0.129878, 0.0585815, 0.00856595, 0.436064, 0.000429864, 0.0549887, 0.10863, 0.870439, 0.155448, -0.166531, 0.167544, -0.66776, -0.198393, -0.0253454, 0.423693, 0.307468, 0.355564, -0.64011, -0.0716591, -0.0287831, 0.372698, -0.0289903, -0.0819175, -0.109827, 0.121459, 0.227889, 0.654936, -0.175535, -0.3645, -0.318861, 0.27902, -0.687276, 0.10827, 0.0461424, -0.206739, 0.234609, -0.251668, -0.199652, -0.594615, -0.106807, 0.103369, 0.430866, -0.251579, -0.0488362, 0.262646, 0.419312, 0.427102, 0.0446638, 0.328861, 0.00955696, 0.110768, 0.406743, 0.301095, -0.0703322, 0.212748, -0.204069, -0.195319, 0.594461, 0.216556, -0.12042, 0.309929, 0.142468, -0.0367442, -0.215533, 0.161679, 0.237467, 0.0129604, 0.0229109, 0.0991018, -0.58902, -0.369032, -0.043771, -0.0693891, -0.822348, -0.226353, 0.0680928, -0.329078, -0.496853, 0.00280642, 0.44225, 0.465893, 0.106856, -0.211852, -0.186802, -0.438913, 0.262459, 0.29976, -0.371733, 0.0183155, -0.00979236, -0.104278, -0.431909, -0.956564, -0.258656, 0.425394, 0.165301, -0.30257, -0.0521049, 0.201141, 0.0384606, 0.566972, -0.0116497, -0.24431, 0.189388, 0.439313, 0.0498212, 0.121676, -0.475454, -0.0393803, -0.416682, 0.333592, -0.200287, 0.0588607, 0.0394871, -0.104873, 0.011216, -0.00640354, -0.0778162, 0.224196, 0.292457, 0.42254, -0.0809047, 0.118484, -0.0266161, -0.210208, -0.144681, 0.102825, -0.384457, -0.141861, 0.197221, 0.0841495, 0.341085, -0.291004, 0.591214, 0.320783, -0.57886, 0.109083, -0.287667, -0.0140243, 0.209824, 0.181477, 0.046694, 0.391981, 0.18703, 0.270921, 0.346491, -0.0931282, -0.31027, 0.195333, 0.0708626, 0.281006, 0.127925, 0.195857, 0.283629, -0.332427, -0.0895556, 0.0882711, -0.0870815, 0.164259, 0.413457, 0.125963, -0.0112694, -0.281067, -0.0949552, -0.0523418, -0.349329, 0.269434, 0.0122896, -0.149024, 0.304561, 0.287136, 0.0248724, -0.462786, 0.405509, 0.357901, 0.0629277, -0.156639, -0.378548, 0.25003, -0.172511, -0.218314, -0.0158, 0.256089, -0.0195004, -0.279782, -0.0357761, -0.360306, 0.0360117, 0.0896633, -0.102966, -0.684785, -0.0880127, -0.00642667, 0.117074, -0.0530445, 0.480917, 0.136552, -0.261483, 0.532495, 0.687952, 0.279504, 0.269461, -0.372384, -0.12133, 0.0636564, 0.565371, -0.425001, 0.373987, -0.0173603, -0.723683, -0.224675, -0.251273, 0.390162, 0.332899, 0.15241, -0.0567576, 0.0554537, 0.143311, 0.265301, -0.128213, 0.212801, -0.248526, 0.41913, -0.41811, 0.412821, 0.0509511, 0.0527814, -0.462123, -0.229884, -0.152661, -0.367916, -0.00120867, 0.332621, 0.847356, -0.146204, -0.0135099, 0.024799, 0.181053, -0.614932, -0.142322, 0.737698, -0.0448768, 0.375746, -0.355622, 0.215766, -0.0788685, 0.190811, 0.00759127, 0.329495, -0.179169, 0.398677, -0.152079, 0.11065, 0.378498, -0.126812, 0.0182836, 0.0868575, 0.0295638, -0.801902, -0.114719, 0.019358, 0.00330914, 0.312347, 0.0199577, -0.4107, -0.0100112, 0.07522, 0.622043, 0.481498, 0.522739, 0.269286, 0.302649, -0.314816, 0.0479957, 0.234918, -0.228522, 0.266641, -0.141636, -0.212943, -0.420936, 0.0471156, 0.311137, 0.286231, 0.531017, -0.171527, 0.201792, 0.242593, 0.555793, 0.0529733, 0.0656684, 0.341112, 0.143706, -0.29534, -0.0848844, 0.467232, -0.270732, 0.195578, 0.461234, -0.146879, 0.177245, 0.131973, -0.195407, -0.631543, 0.701616, -0.444466, 0.222915, 0.548805, -0.462023, -0.216836, 0.188704, -0.00384106, 0.18555, 0.457169, -0.315033, 0.0732694, 0.0500041, 0.745024, 0.306856, -0.363209, 0.236915, 0.109409, -0.317302, -0.913331, -0.341812, 0.595763, -0.25729, 0.314245, 0.206977, -0.0194369, -0.233746, -0.235604, 0.114, -0.265842, 0.351591, 0.00116373, -0.143005, 0.391721, -0.270415, 0.22096, -0.336778, 0.412638, -0.0116979, -0.461356, -0.20917, -0.0172807, 0.113115, -0.0821584, 0.0807329, 0.0805791, -0.220321, -0.0963756, 0.397873, -0.155276, 0.466636, 0.0535834, -0.637954, -0.270593, 0.28915, -0.0127734, -0.0965853, 0.901837, -0.0373303, -0.207089, -0.386427, 0.192255, 0.375508, 0.116262, 0.0378819, 0.00813324, 0.11664, -0.207882, -0.221502, -0.227853, -0.44146, -0.173057, -0.170157, -0.246414, 0.435124, 0.0427522, -0.127558, 0.254806, 0.325536, -0.179244, 0.243652, 0.567212, 0.419097, 0.216528, -0.255499, 0.051914, 0.701412, -0.0631156, 0.200633, 0.472278, -0.0643734, -0.211372, 0.140808, -0.357747, -0.393436, -0.132604, -0.304458, -0.0606228, 0.129644, -0.183024, -0.189382, 0.304406, -0.20259, -0.0197726, -0.482289, -0.419556, 0.0492693, 0.115581, 0.103882, 0.787058, -0.0882844, -0.0514059, 0.304987, -0.786544, -1.18421, -0.46277, -0.186398, -0.528464, -0.536333, -0.115302, 0.186026, 0.270202, -0.411779, 0.0307157, 0.463527, -0.208807, 0.00396197, 0.170327, 0.769067, -0.559026, -0.181837, -0.00561177, 0.177304, -0.326086, -0.1344, 0.11083, -0.624935, 0.504879, -0.292533, 0.00643004, 0.578146, 0.122995, -0.262474, -0.113743, 0.266966, -0.345457, 0.267097, -0.331771, -0.0961687, 0.427461, -0.58191, 0.120268, 0.316036, 0.288819, 0.216573, 0.167883, -0.00538917, 0.249154, -0.118172, 0.0497379, -0.196843, 0.401287, -0.340515, -0.507906, -0.132369, 0.387982, -0.488237, -0.0332334, 0.379961, 0.182638, -0.128741, 0.457539, -0.254833, 0.294014, -0.233014, 0.0153147, -0.622385, -0.289814, 0.357161, 0.13775, -0.479614, -0.0957734, -0.167145, -0.396281, -0.362688, 0.281954, 0.242209, -0.243211, 0.0267785, 0.592832, -0.0866698, -0.095856, -0.373876, 0.442948, -0.710479, -0.0613029, 0.153968, -0.400718, -0.0292447, 0.574358, 0.13859, 0.114624, 0.0542616, -0.197757, -0.0773991, -0.0547922, 0.278619, 0.0228462, -0.0536139, -0.0974796, -0.359248, -0.15943, -0.0753088, -1.03438, 0.301274, 0.196652, 0.136568, -0.805638, 0.242221, 0.0430824, 0.438929, 0.222832, 0.105958, -0.0586926, 1.03151, -0.398053, 0.155212, 0.0106043, 0.365884, 0.341063, 0.15454, -0.0733491, -0.783026, 0.388042, 0.416281, -0.116497, 0.469564, 0.219342, 0.34017, 0.358728, 0.307605, -0.0313276, -0.583639, -0.102357, 0.0468327, -0.889103, 0.141178, -0.174155, -0.363008, 0.30544, 0.405401, -0.00638376, 0.311388, -0.136938, -0.259833, -0.378038, 0.0827712, -0.0654443, 0.420662, 0.307232, -0.0796653, -0.0832192, -0.399885, -0.58348, 0.0688214, 0.885855, 0.0574731, 0.591612, 0.0648787, 0.316188, 0.540132, -0.152109, 0.204399, -0.0260401, -0.224453, -0.0455777, -0.0571046, -0.0460131, -0.0345351, 0.458406, 0.310207, -0.126221, -0.332923, 0.213879, 0.68082, -0.353046, -0.0263884, -0.141764, 0.409352, -0.182243, -0.355901, 0.245525, -0.0178125, 0.431637, -0.563805, -0.503275, 0.480487, -0.123739, 0.174044, -0.416566, -0.0469907, 0.333909, 0.317895, -0.313349, 0.141582, 0.148553, 0.17251, -0.0702037, -0.0547992, -0.0684371, 0.17675, 0.0856934, -0.0704112, 0.430665, -0.51069, -0.400023, -0.238836, 0.0503779, -0.0476897, 0.801257, -0.59127, -0.0204907, -0.43068, -0.0444556, -0.156147, 0.264469, -0.130582, 0.320759, 0.00689883, -0.00637441, -0.299939, -0.293153, -0.395523, -0.106932, -0.0377873, -0.480319, -0.00989322, -0.158219, -0.193446, -0.09328, 0.134346, -0.254466, 0.769479, 0.0267975, 0.37226, 0.204089, 0.338022, -0.439077, 0.126714, 0.427388, -0.000132524, 0.54792, -0.86984, 0.279952, 0.465649, -0.262054, 0.0339774, 0.244034, -0.13403, -0.0426076, -0.596213, -0.114085, 0.154977, -0.324191, 0.114081, -0.0720958, 0.757085, 0.540006, 0.153095, -0.685069, 0.467525, -0.156418, -0.0989319, -0.0657558, -0.198363, -0.312502, 0.613609, 0.102038, -0.0683449, -0.358979, 0.0175698, -0.340307, -0.271145, -0.313051, 0.374949, 0.216368, 0.154816, 0.509251, 0.349949, -0.00518408, -0.0297698, 0.0532412, 0.422593, 0.652326, 0.181351, -0.0131854, 0.419549, 0.459577, -0.249224, 0.0703881, 0.386584, -0.187373, -0.0565899, -0.0279358, -0.428447, -0.444963, -0.311801, -0.500116, 0.448417, -0.158805, 0.22222, 0.245727, 0.485165, 0.210412, -0.305735, -0.676731, 0.227919, -0.163132, -0.102372, -0.569533, 0.464632, -0.558993, -0.085559, 0.546695, -0.061946, 0.195423, 0.293307, 0.163699, 0.576618, -0.145942, -0.847451, 0.13755, -0.428075, -0.358841, -0.0103899, 0.409721, -0.115982, 0.18641, 0.018877, -0.536192, 0.283854, -0.0798005, 0.69628, 0.0441132, -0.0774402, 0.125649, -0.233264, 0.187037, 0.105795, -0.180508, 0.884963, 0.171104, -0.553761, 0.00473736, -0.481178, -0.0275062, 0.223805, 0.633338, -0.277185, 0.230929, 0.149099, 0.0239358, 0.00716537, -0.258494, -0.22796, 0.0808218, -0.678046, -0.534301, 0.0298969, -0.34896, 0.126821, 0.34777, 0.0421526, 0.0949522, 0.144499, -0.215006, -0.326768, -0.161741, 0.184561, 0.575498, -0.0781144, -0.297422, -0.303102, 0.219205, 0.197837, -0.144971, 0.347118, 0.0801151, -0.247989, 0.46977, -0.559342, 1.02121, 0.233947, 0.023182, -0.550672, 0.512926, 0.0106248, -0.0743525, 0.370748, -0.0886688, 0.258657, 0.237885, 0.535229, -0.105604, -0.346985, 0.252049, -0.230632, -0.169484, 0.0446299, 0.187308, -0.168596, -0.259443, 0.495392, 0.21433, -0.472233, -0.00910289, 0.140156, 0.172722, -0.326349, 0.594457, 0.0395343, -0.349933, 0.379168, 0.344287, -0.013794, -0.356301, 0.134121, -0.254314, -0.445546, 0.27588, 0.535905, 0.152282, -0.47725, 0.143733, -0.316375, 0.0210289, 0.144043, -0.00390869, -0.230515, 0.352344, -0.0605409, -0.32475, 0.273497, -0.671546, -0.0616363, -0.249095, 0.142013, 0.000417333, -0.19889, -0.0580728, -0.472125, -0.483607, 0.0941716, 0.314931, 0.505465, 0.238029, 0.996631, 0.0602845, -0.500122, 0.257824, 0.0842321, 0.190434, -0.322505, 0.0554722, 0.248358, 0.251836, 0.228046, -0.632873, -0.0236494, -0.272698, 0.260166, -0.0971519, -0.289993, 0.00763885, -0.358131, -0.188221, -0.0464697, 0.945113, -0.0208878, 0.484904, -0.44267, 0.308196, -0.498663, -0.239753, -0.206803, 0.309184, -0.519084, 0.0111622, -0.614537, -0.256907, 0.0452138, -0.29381, -0.0710966, 0.0133462, -0.57346, 0.0792938, -0.349536, -0.329892, 0.0741426, 0.125885, 0.331219, -0.0755486, -0.206169, -0.484027, -0.331647, 0.0584054, 0.115911, 0.870586, 0.10889, 0.31948, 0.312656, -0.254606, -0.273205, -0.43005, 0.336083, 0.35282, 0.00337528, 0.180633, 0.184817, -0.0811524, 0.17225, -0.0613435, -0.605342, 0.233114, 0.0648327, 0.0587702, 0.388555, 0.079857, 0.120972, 0.0199888, 0.151665, 0.0435495, 0.557957, 0.158133, -0.371321, 0.395392, -0.0497034, 0.325057, 0.433247, -0.228685, 0.199644, -0.200383, 0.00322301, -0.801146, -0.19799, -0.182095, -0.254528, 0.272474, -0.352654, 0.0571287, -0.0926021, -0.127312, -0.0343002, 0.153233, 0.0597777, -0.0288894, 0.22035, 0.471733, -0.422405, -0.0746295, -0.538507, 0.136543, -0.067407, -0.102736, 0.223854, -0.300097, -0.142994, -0.0842938, 0.199843, 0.576036, -0.10015, -0.519496, -0.05903, -0.0648148, 0.0970853, -0.187805, 0.688483, -0.0351755, 0.200055, 0.266778, -0.385121, -0.0696127, -0.0459133, 0.0162023, 0.11623, 0.0831924, -0.688025, 0.0624153, -0.0129753, -0.40047, -0.149766, 0.219638, -0.209982, 0.0865434, 0.122786, -0.286571, 0.0892226, 0.026027, 0.48825, 0.0521136, -0.321425, 0.266285, -0.304574, 0.57194, -0.267655, -0.274306, -0.224589, 0.583974, 0.626441, 0.571714, 0.289361, -0.393506, -0.010893, -0.115591, -1.04389, 0.171588, -0.159556, -0.316598, 0.146934, -0.123641, 0.515186, 0.0290042, -0.366666, -0.171148, -0.127298, 0.107199, -0.136717, 0.0946977, 0.14645, 0.311833, -0.109402, -0.0740899, -0.395152, -0.382223, 0.0831462, 0.652358, 0.134375, 0.0128564, -0.404841, -0.184147, -0.0214011, 0.359561, 0.248021, 0.0461931, -0.0865723, 0.367532, -0.000754263, 1.01975, 0.109506, -0.250379, -0.44474, 0.286032, 0.048269, 0.332925, 0.218698, -0.122778, 0.330395, -0.0434286, -0.0586672, -0.108097, -0.295855, 0.4547, 0.526382, 0.145333, -0.613461, -0.167885, 0.427895, 0.410991, -0.367292, -0.189586, -0.269144, -0.292774, -0.195281, 0.366675, -0.0816446, 0.323101, 0.0553505, -0.117885, 0.0864987, 0.500845, 0.117328, -0.022056, -0.291665, -0.105912, -0.571398, 0.336335, 0.541948, 0.239882, -0.16432, -0.463454, -0.243503, -0.433462, 0.0438954, -0.200719, -0.4019, -0.190261, -0.102753, 0.112878, -0.446003, -0.0325428, 0.226489, 0.209395, -0.0216858, 0.285602, -0.179617, -0.149717, -0.346341, -0.0345732, -0.442495, 0.0794285, -0.116216, -0.298201, -0.217053, -0.122639, -0.448449, -0.0425538, -0.319653, -0.339886, -0.265597, 0.131454, -0.336219, 0.34862, 0.141476, -1.02726, -0.0662697, 0.566046, -0.0355753, -0.545933, -0.198402, 0.252911, -0.486281, -0.0897967, 0.172577, 0.11859, -0.131977, -0.203953, 0.27342, -0.437524, -0.100615, -0.108305, 0.670884, -0.00164352, -0.0800068, -0.18991, -0.013114, -0.297381, 0.198528, -0.631142, 0.781499, -0.259422, -0.227098, -0.505767, -0.216125, -0.168578, -0.0584213, 0.101727, 0.241602, 0.0383201, -0.258889, -0.441296, -0.362419, -0.154473, 0.15448, 0.603733, -0.261103, 0.0603678, -0.17168, -0.166388, -0.140937, 0.14595, -0.0860986, 0.321436, -0.0397675, 0.299589, 0.303793, -0.015192, 0.37378, -0.158219, -0.493041, 0.377573, 0.0369484, 0.0335753, -0.195126, -0.175831, 0.0242421, -0.208551, -0.410689, 0.602085, -0.112975, -0.122847, 0.0968474, 0.317408, -0.209515, 0.0056926, 0.803795, -0.05467, 0.0325406, -0.0672234, -0.588457, -0.125156, -0.446551, 0.220569, 0.363318, -0.0640302, 0.00674395, -0.395883, 0.000184982, -0.786585, 0.297956, -0.159302, -0.419651, -0.380778, -0.144076, 0.136685, -0.456579, 0.0222935, 0.0782685, 0.0312282, -0.239279, 0.578781, 0.0567073, 0.241193, -0.1182, 0.207927, 0.292326, -0.646403, 0.138071, -0.614704, 0.100867, -0.29177, -0.103754, 0.0503879, 0.129984, -0.173151, 0.110617, -0.316123, -0.0746685, 0.521463, 0.399985, 0.126597, -0.107043, 0.495717, 0.162726, -0.300916, 0.0368298, -0.215933, 0.0570645, 0.495475, -0.188513, 0.307197, 0.305403, 0.309602, -0.274737, 0.409997, 0.186981, 0.201583, -0.102926, -0.281489, -0.198954, 0.0727864, 0.0480636, -0.349266, -0.110435, -0.270888, 0.267904, 0.349212, -0.119577, 0.700053, 0.303414, 0.262907, -0.358202, 0.340985, 0.253768, 0.346271, 0.232161, 0.566945, -0.0163253, -0.0796814, 0.139862, 0.203619, -0.161713, -0.0519943, -0.162721, 0.505482, 0.420114, -0.446734, 0.265423, 0.577817, 0.61278, -0.0998856, -0.437327, 0.680346, 0.58095, -0.185909, -0.147585, -0.21627, -0.122138, 0.482604, -0.150466, 0.367815, 0.490692, -0.0737114, 0.336744, -0.115111, -0.201742, -0.913626, 0.37549, 0.560172, 0.0386277, -0.034228, -0.0648011, 0.333742, 0.717916, -0.0696194, -0.0226046, 0.376879, 0.116799, -0.613889, 0.160121, 0.624205, 0.583668, -0.362196, 0.330762, 0.433627, -0.213495, 0.0690509, -0.0486577, 0.089975, -0.0284186, 0.358335, -0.212051, 0.100515, -0.393778, -0.0662345, 0.164933, 0.324026, -0.104739, 0.365107, 0.291148, -0.0061884, -0.504022, -0.224256, 0.112238, -0.0412282, 0.0842484, 0.0720546, -0.465411, -0.191879, 0.175271, -0.234886, 0.539368, 0.565048, 0.0112444, 0.264296, 0.115058, -0.235325, -0.0211548, 0.224275, 0.0505699, -0.174692, -0.124133, 0.602273, 0.0379388, 0.339235, -0.28905, 0.354049, -0.35951, 0.0447825, 0.481446, 0.118297, 0.220092, 0.190198, -0.183098, -0.126547, 0.296631, -0.385042, -0.0916675, 0.445639, 0.0875189, -0.251162, 0.400966, 0.419199, 0.46757, -0.103541, 0.505827, -0.201926, 0.118731, 0.294254, -0.265451, -0.0661777, 0.0351243, -0.265949, 0.138651, 0.16653, -0.248269, 0.131686, 0.0385462, 0.0277128, -0.543951, -0.386515, -0.173553, 0.209566, 0.353762, 0.0696275, 0.199447, -0.0247658, 0.0591445, 0.313652, -0.0967332, 0.141391, 0.410497, 0.303121, 0.158173, -0.0735885, -0.466059, -0.141703, -0.145154, 0.0517605, -0.0813453, 0.349601, 0.240366, -0.448115, -0.0541342, -0.195535, -0.435841, -0.053328, -0.583139, -0.00850854, -1.04513, 0.196226, 0.0712889, 0.106812, -0.0986599, -0.640541, -0.015561, 0.430985, -0.466787, -0.0615939, 0.339538, 0.0433652, 0.562411, 0.145311, -0.563483, 0.340269, -0.391082, 0.263524, -0.266853, -0.000870322, 0.821135, -0.715412, -0.182721, 0.100623, 0.143506, -0.347695, 0.653924, -0.141386, -0.0183593, -0.311472, 0.349278, 0.218409, -0.639566, 0.237276, 0.141908, -0.47121, 0.188966, -0.196655, -0.398452, -0.100225, 0.272581, 0.220089, 0.087334, -0.129504, 0.199118, 0.134872, -0.693046, 0.399835, -0.0851224, -0.162256, -0.581804, 0.255412, 0.756684, -0.558845, -0.0427833, -0.324383, -0.203085, 0.233457, 0.316557, -0.169941, -0.120631, -0.118302, 0.189896, -0.0131307, 0.0495176, -0.045131, 0.198021, -0.0710511, 0.519193, 0.388596, -0.130895, 0.239635, 0.517429, 0.0178258, -0.261975, 0.342075, -0.0588757, 0.343561, 0.51806, -0.223854, -0.197908, 0.0289448, 0.355235, 0.161228, -0.170133, 0.210016, -0.0488897, -0.0132302, 0.149436, -0.14402, -0.192999, 0.242736, 0.428489, 0.0962978, 0.51667, 0.23644, 0.560614, 0.0609251, 0.105098, 0.766604, -0.182285, 0.0873965, 0.152189, 0.0786191, 0.324207, 0.0441631, -0.727441, -0.127481, -0.0378585, -0.0467286, 0.314015, 0.32135, 0.339198, -0.522963, 0.253211, -0.244602, 0.596419, -0.0321291, -0.499728, 0.637278, 0.490642, -0.615565, 0.124988, -0.350253, -0.266797, 0.537213, 0.259845, -0.0445558, 0.185689, -0.122306, 0.0464937, -0.189551, -0.041341, -0.6646, 0.476133, -0.0210108, -0.13336, -0.202542, -0.289079, 0.380936, 0.688572, 0.383986, 0.0603201, 0.57152, -0.25868, -0.965868, -0.176048, -0.250479, 0.181315, -0.651331, 0.343896, -0.226925, -0.285874, -0.13279, -0.361082, -0.172124, -0.169199, 0.470227, 0.185385, 0.122122, -0.600535, 0.0297169, -0.187924, 0.649851, 0.246923, 0.354505, 0.274271, -0.414199, -0.501144, 0.337559, 0.165554, 0.193406, 0.0519611, 0.096701, -0.0803898, 0.266379, 0.52574, -0.26171, -0.299431, -0.527858, 0.174402, -0.0691224, 0.0140398, -0.985958, -0.00366163, 0.515508, -0.446197, -0.0822853, -0.0584298, 0.595809, 0.274934, -0.320138, -0.790461, 0.769779, -0.263145, -0.169038, -0.264425, -0.388884, 0.0992588, 0.378717, -0.157671, 0.478655, -0.187638, -0.297542, -0.447954, 0.623052, 0.263785, -0.340777, 0.0440005, -0.133259, 0.764855, 0.314287, -0.166864, -0.0382486, -0.105062, 0.0681523, 0.00869969, -0.605517, -0.108928, -0.572249, 0.0599547, 0.520637, -0.647296, 0.615274, -0.294754, -0.501029, 0.0496217, 0.325365, 0.0396911, 0.331947, -0.296165, 0.615834, -0.0420034, 0.111703, 0.0270888, 0.352101, -0.298058, 0.2765, 0.0163516, -0.132471, 0.0391355, -0.388497, -0.0494743, -0.501091, 0.500623, -0.00661901, 0.0167554, 0.426737, -0.16824, 0.0373005, -0.0565646, 0.0234793, -0.201921, 0.238381, 0.00923724, -0.0680735, 0.388894, 0.222223, 0.222526, -0.369206, 0.325592, -0.431531, 0.363652, 0.54457, -0.22177, -0.544816, -0.135585, -0.426766, 0.516289, -0.287792, -0.599125, 0.104444, 0.0275806, 0.0298183, -0.139205, 0.112101, 0.614582, -0.00803255, 0.0432226, -0.271249, -0.241256, 0.00472747, -0.121021, 0.0161254, 0.347575, -0.146875, 0.698575, -0.56036, -0.205079, 0.138358, -0.642655, -0.326962, -0.242592, 0.111342, -0.213915, -0.110942, -0.0777625, -0.394195, 0.107572, -0.36101, 0.0925403, -0.608032, -0.0783721, -0.687483, 0.126039, -0.122569, -0.415562, -0.620645, -0.0976841, -0.0170127, 0.0564373, 0.0631168, 0.0863314, 0.0098887, -0.739702, -0.0791143, -0.0353823, -0.638985, 0.468258, -0.011909, -0.0554639, 0.274936, -0.135179, 0.124183, 0.315745, 0.262735, 0.507403, -0.313108, 0.217601, -0.223399, 0.0135065, -0.227718, 0.139046, -0.603111, 0.111922, -0.100162, -0.274341, 0.172701, -0.0398499, -0.476399, -0.341241, 0.250354, -0.474293, -0.152562, -0.134757, 0.210843, 0.0331966, 0.179083, 0.223235, -0.104963, 0.257558, 0.024599, -0.150692, -0.0217857, 0.0691543, -0.328052, -0.259294, -0.280184, -0.641094, 0.262601, 0.725067, -0.0774879, 0.399551, 0.455093, 0.0397602, 0.543366, 0.244314, 0.464175, -0.104292, 0.028165, -0.328451, -0.396961, -0.172828, -0.0653797, 0.0903578, -0.130053, -0.323246, 0.0919329, 0.876517, 0.282271, 0.193178, -0.236316, -0.187015, -0.0958962, 0.0747613, 0.197428, -0.121938, -0.36936, 0.136687, -0.065299, -0.287204, 0.736457, -0.292288, 0.29862, 0.356059, 0.0697644, -0.0324482, 1.1535, 0.226546, -0.396175, -0.285363, 0.164433, -0.227388, 0.00110405, 0.0845432, 0.245006, -0.128495, -0.283266, 0.19682, -0.0821155, -0.493188, 0.247424, 0.164544, 0.00877896, -0.492055, -0.300226, -0.455733, -0.167748, -0.0436642, 0.146227, -0.125783, 0.383441, 0.215874, 0.120205, -0.496322, -0.269722, 0.00491308, 0.165381, 0.848252, -0.0637669, 0.471264, -0.208623, 0.0920175, 0.0825827, 0.102682], "bias": [0.26711, -0.133379, 0.452402, -0.827948, -0.081609, -0.160116, -0.244575, -0.124586, -0.511763, -0.705565, -0.86552, 0.848802, 0.00289129, -0.374992, 0.27458, -0.114763, -0.324494, -0.201363, -0.736362, -0.499866, -0.0530519, -0.0459376, 0.390485, 0.294221, 0.265523, 0.0439985, -0.25584, -0.414099, -0.832488, -0.60546, -0.491246, -0.556098, -0.15292, -0.235464, 0.0931881, -0.617697, 0.176711, -0.177976, -0.0595101, -0.42615, 0.385693, 0.055342, -0.0877333, 0.0631258, 0.812579, 0.668587, 0.401941, 0.404421, -0.518173, -0.217102, 0.143941, 0.258694, -0.409094, 0.0794632, 0.838617, 0.168466, 0.128215, 0.537077, 0.0750928, 0.34467, -0.0137133, -0.507958, -0.690397, -0.0522275, 5.6731], "internal": []}, "subsample_level_2": {"input": [0.11923, -0.0250584, 0.247658, 0.0565785, -0.0538404, -0.086881, 0.216501, -0.100552, -0.0995597, 0.303692, -0.402999, 0.235534, -0.383986, 0.161239, 0.0578583, -0.236046, 0.364631, -0.344156, 0.150758, 0.0456574, -0.318174, 0.36982, -0.41815, -0.233299, -0.306357, -0.0973736, 0.302966, 0.100912, -0.184731, 0.256902, -0.0186021, -0.114183, -0.0862672, -0.981103, -0.166789, 0.246266, -0.208036, -0.00494869, -0.0594071, 0.15689, 0.0206347, 0.2624, 0.340544, 0.140671, 0.0450166, -0.842907, 0.285426, 0.275653, -0.400526, 0.365445, 0.699578, 0.100438, 0.231031, 0.0422636, 0.304859, 0.10009, 0.462777, -0.115626, 0.170708, -0.340459, -0.214311, 0.1066, 0.164243, -0.109825, 0.408779, 0.0516762, -0.310476, 0.287092, 0.433086, 0.254283, 0.0509485, -0.139587, 0.0591802, -0.0395107, 0.0237639, -0.304378, 0.359768, 0.323949, 0.533955, -0.291081, -0.0757778, 0.0349292, -0.304951, 0.0325698, -0.46564, 0.230159, 0.114706, 0.117393, -0.146802, 0.0242068, 0.552781, 0.0261036, -0.355325, 0.180663, -0.0120965, -0.00733368, 0.120569, 0.141326, -0.26906, -0.266367, 0.0491187, -0.02838, -0.0157669, 0.167757, -0.101167, -0.107734, -0.182352, -0.0222115, 0.169356, 0.0274512, -0.142947, -0.308849, -0.135589, -0.231702, -0.337168, -0.136483, -0.50363, 0.113061, 0.309801, -0.133426, 0.119473, 0.135144, -0.470378, -0.0512676, 0.129557, 0.068225, -0.180894, -0.0156861, 0.0751741, 0.0290113, -0.650979, 0.0947025, -0.62085, 0.255315, 0.0523917, -0.230913, -0.165532, 0.338913, 0.380736, 0.289607, -0.39598, -0.267285, -0.388585, -0.00432834, -0.286668, 0.0727766, 0.207553, 0.0806819, -0.291941, 0.194451, 0.216933, 0.249762, -0.0258706, -0.130211, 0.18357, 0.235987, 0.170229, 0.195738, -0.200453, 0.501437, -0.0574493, 0.0829604, 0.218026, 0.399691, 0.130333, -0.280987, -0.381852, -0.180142, -0.184391, -0.319242, -0.200631, 0.10552, 0.100191, 0.109074, 0.252738, -0.504688, -0.204579, -0.13629, 0.54615, 0.25475, -0.172126, 0.0252574, 0.274275, -0.294908, 0.713422, 0.0806274, 0.11204, 0.441658, 0.333163, -0.326842, -0.0833222, -0.29852, -0.0685627, 0.129989, -0.0275724, 0.010198, 0.352049, -0.281407, -0.0258727, 0.299253, -0.176345, -0.102394, 0.333689, 0.373446, -0.292175, 0.348033, 0.254477, 0.283193, -0.302118, -0.017507, -0.766205, 0.283451, -0.0290652, -0.0419766, -0.221519, -0.190605, -0.43677, -0.495696, 0.13478, -0.125408, 0.36604, 0.126795, 0.220653, 0.218368, -0.241079, -0.00618439, -0.0878347, -0.208388, -0.174515, 0.0700804, -0.0897352, 0.0244577, -0.169175, 0.244157, 0.186047, -0.0777672, -0.041832, 0.112551, -0.420556, -0.0980729, -0.0273337, 0.000378721, -0.547162, 0.116143, 0.331475, 0.416791, 0.285915, 0.0822924, 0.231624, -0.524323, -0.167768, -0.0452359, 0.174534, -0.15655, -0.0753476, 0.0961121, 0.369752, -0.105957, -0.148037, 0.290451, -0.195041, 0.202312, -0.0904953, -0.238027, -0.346685, 0.131525, -0.386942, 0.0420219, -0.307371, -0.221524, -0.0986589, 0.254555, -0.0261, -0.117523, 0.316055, 0.0332059, -0.0204798, -0.0575944, 0.089252, 0.155687, 0.21925, 0.0503984, -0.34878, 0.100322, -0.118046, 0.217905, -0.147331, -0.392198, 0.122952, 0.599264, 0.018905, 0.483627, 0.12405, -0.0379598, 0.270078, 0.295418, 0.188639, 0.0812081, 0.291207, 0.0259074, 0.0119827, 0.16664, -0.082287, -0.304568, -0.313109, 0.155759, 0.353886, -0.144214, 0.184228, -0.186048, -0.0980369, 0.036484, 0.2797, 0.117301, -0.511992, -0.0846362, -0.0930765, 0.0825981, 0.13675, -0.0526818, 0.493249, 0.293386, 0.0175546, 0.633336, -0.0385837, 0.277098, 0.0180256, -0.302736, 0.187414, 0.08499, 0.0792347, 0.376035, -0.64337, 0.174602, 0.0234404, 0.410394, -0.322964, 0.375123, 0.170873, -0.0367012, 0.106429, -0.134434, -0.00989133, -0.616236, -0.0319731, 0.616591, 0.405756, -0.0590344, 0.27206, 0.292269, 0.0700656, -0.541007, 0.208958, 0.389492, -0.0228239, 0.226493, 0.452095, 0.112005, 0.677536, -0.405497, 0.0455181, -0.316867, 0.00796329, -0.276124, -0.344454, 0.0685016, 0.0935822, -0.439289, 0.469425, -0.182779, -0.0611185, -0.0644097, -0.448987, 0.00775399, 0.372141, -0.164879, 0.216004, 0.125269, 0.522501, 0.00654214, -0.139694, 0.924869, 0.114637, -0.259465, 0.0296807, 0.445573, -0.019089, 0.144124, 0.0281896, -0.240111, -0.0498142, -0.200585, 0.458837, 0.388608, -0.345743, 0.479122, -0.162572, -0.066064, -0.0856146, -0.14548, 0.168241, -0.329025, 0.23277, -0.150121, -0.311597, 0.130796, -0.304839, -0.175989, 0.338397, -0.185345, 0.0892777, -0.261514, -0.0540257, -0.164764, 0.00641893, 0.258784, 0.159009, -0.111973, 0.210942, 0.505356, 0.311639, -0.182631, 0.246135, -0.152846, -0.219603, 0.0205287, -0.315807, -0.427983, -0.0313662, 0.191995, 0.58749, -0.0606907, -0.355277, -0.116895, 0.076807, 0.300144, 0.339861, 0.125523, -0.288194, -0.456617, -0.383938, -0.196136, -0.546546, -0.0752638, 0.120179, -0.0745922, -0.0747584, 0.190151, 0.0833061, 0.0813617, -0.258399, -0.127311, 0.467523, 0.491468, 0.362744, 0.212206, 0.00448297, 0.37333, -0.174514, 0.697613, 0.188502, 0.0846806, 0.0125024, -0.320026, 0.0720565, 0.514882, 0.357445, 0.415638, -0.385804, 0.099868, -0.125398, 0.145069, 0.222474, 0.0577112, 0.692868, 0.122149, -0.202707, -0.142817, -0.290404, -0.127118, 0.126567, 0.167232, 0.113492, -0.291966, -0.158879, 0.317096, -0.272642, 0.140567, 0.193644, 0.2965, 0.159341, 0.456833, -0.572416, -0.152828, 0.0229341, 0.138957, -0.197859, -0.172749, -0.489667, 0.416305, 0.0944585, 0.138362, -0.0577186, 0.32115, -0.296267, 0.109811, 0.268918, -0.174965, -0.11363, 0.0130138, -0.022328, -0.127397, -0.0933768, 0.188169, 0.426606, -0.0170034, 0.399156, -0.00280147, -0.312406, 0.280215, 0.243547, -0.154492, 0.0232752, -0.396519, 0.502159, 0.564805, -0.220846, -0.278476, 0.0208514, 0.230842, -0.161602, -0.233402, 0.297671, 0.00124629, 0.00883849, -0.634486, 0.102551, -0.192813, 0.343745, 0.408238, 0.479905, -0.158868, 0.332876, -0.441819, 0.0743024, -0.307943, 0.158112, -0.059908, 0.332642, 0.248356, 0.598756, 0.0210495, 0.228799, -0.0994509, 0.0458911, -0.110723, -0.302188, 0.231939, -0.422714, -0.00251442, -0.339371, 0.14885, -0.381106, -0.00945951, 0.335449, 0.016171, -0.0161824, 0.500786, -0.697797, 0.0266923, -0.335139, -0.805441, -0.209507, -0.164626, 0.214622, 0.0913901, 0.168261, 0.286599, -0.261887, -0.0892766, 0.0668952, 0.064027, 0.00973592, -0.178678, -0.325176, 0.463135, -0.0173944, 0.0496872, 0.030447, -0.180353, -0.324199, 0.48563, 0.233301, -0.0901151, 0.236444, -0.202376, -0.314342, 0.0898548, -0.0460191, -0.273852, -0.101198, 0.0455395, 0.359918, -0.232624, -0.189366, -0.169278, 0.326448, -0.369166, -0.254947, -0.0776096, -0.192661, -0.128954, -0.131382, -0.197328, -0.0676948, 0.781441, -0.00311703, 0.341493, 0.33072, -0.245695, -0.0544678, -0.211014, -0.324734, -0.182794, 0.00932381, 0.238527, -0.134749, 0.269709, 0.0177008, -0.402575, 0.162131, -0.113056, -0.551924, 0.00440063, 0.141252, -0.341285, 0.059679, 0.0151384, 0.549367, -0.0844271, -0.155322, -0.387637, 0.232844, 0.0684306, 0.282246, 0.10887, 0.113903, -0.00869427, -0.299425, 0.160382, -0.0618925, -0.367456, 0.169476, -0.185814, -0.0883348, -0.556266, -0.107939, 0.0976235, 0.200738, 0.287158, 0.0125877, 0.0855926, 0.0573394, 0.315983, -0.102163, -0.231635, 0.265517, 0.258178, 0.13653, 0.102433, 0.151885, 0.0225282, 0.0130333, 0.025696, -0.269771, 0.0760954, -0.395206, -0.411524, -0.134473, 0.143168, -0.274602, 0.0267108, 0.460225, -0.126216, 0.165827, -0.0904929, 0.311754, -0.00601505, -0.0326515, 0.337413, 0.34703, 0.168366, -0.135053, 0.0713907, 0.489123, -0.059324, 0.338436, -0.167097, -0.0888566, 0.00227176, 0.0477206, -0.143161, 0.496295, 0.0105085, -0.0636756, 0.420562, -0.307937, -0.126756, -0.147919, 0.318151, 0.0740485, -0.188557, 0.649926, 0.0351106, 0.288396, -0.302819, 0.0399891, -0.259087, 0.275466, 0.0801738, -0.00359833, 0.285746, -0.0687709, -0.422062, 0.376371, -0.0534621, 0.0589917, -0.558531, -0.0334631, -0.384434, -0.41948, -0.186364, -0.670259, -0.277312, -0.313182, -0.085004, -0.132176, 0.0547114, -0.182736, -0.262044, -0.750004, -0.224394, 0.338746, 0.14326, 0.27786, -0.0401844, 0.323254, 0.220647, 0.262965, 0.0497594, 0.538142, -0.0667177, -0.155403, 0.181099, 0.211915, -0.0873608, -0.327822, -0.0415122, -0.0558415, 0.368465, -0.192384, 0.24752, 0.0430458, -0.12144, -0.272736, 0.674556, 0.0276468, -0.839607, -0.0146461, 0.129254, 0.222329, 0.0633749, -0.0577546, 0.0545299, 0.254429, 0.161477, 0.136767, 0.674062, -0.100098, 0.12236, -0.0228874, 0.216257, -0.0411249, -0.212768, -0.021093, 0.167547, -0.237143, -0.261568, 0.352273, 0.0746234, 0.188587, 0.801053, 0.0275031, 0.0382772, 0.394985, 0.0511812, 0.269726, 0.074367, -0.240227, -0.429285, 0.0411616, 0.171853, 0.24665, 0.118357, 0.0712705, -0.293359, 0.212837, -0.0186315, -0.223223, -0.569351, -0.41663, -0.21505, 0.0684964, -0.0028519, 0.00183118, -0.00447683, 0.00819576, 0.135791, -0.235367, 0.142255, 0.552514, -0.0413248, -0.148377, -0.237339, -0.0130949, 0.227468, -0.0319449, 0.188597, -0.62948, 0.211994, 0.636962, -0.121383, 0.223533, -0.277279, -0.364628, -0.0540018, -0.120908, 0.0527175, -0.398281, 0.237113, 0.00385331, 0.373229, -0.12206, 0.511624, 0.0629191, -0.0122828, 0.603586, -0.156301, 0.102622, -0.0251754, 0.0810466, 0.0585774, 0.40998, 0.486705, -0.414152, -0.622642, -0.313288, -0.342576, 0.458147, 0.149607, 1.02943, 0.0714875, 0.109099, -0.318167, -0.336153, -0.131046, 0.759733, -0.0224602, 0.400353, 0.117431, -0.261704, 0.15486, -0.0520757, 0.0897316, 0.214748, -0.0328321, -0.0299619, -0.340294, -0.472249, 0.110276, 0.273911, -0.623791, -0.157816, 0.28586, 0.437956, -0.0935836, -0.216463, 0.0569302, -0.291822, 0.242576, -0.292883, -0.143281, 0.0162664, -0.549496, 0.0395954, -0.1837, -0.228413, 0.268835, -0.274966, -0.165609, 0.134046, -0.055599, -0.0828268, -0.183476, -0.330804, -0.266985, -0.170489, 0.0654631, -0.0724053, -0.226233, 0.262994, 0.357805, -0.248876, -0.0758749, 0.369686, -0.0481228, -0.205958, -0.320876, 0.0435112, 0.326679, 0.114505, 0.0231307, -0.162689, 0.379054, 0.271995, -0.121847, 0.0330087, 0.223885, -0.179307, -0.646201, 0.26555, -0.11767, -0.476743, -0.212074, -0.0624401, 0.502525, -0.0235953, 0.205145, 0.228989, 0.228246, 0.396849, -0.657548, 0.485807, -0.0416737, 