{
    "layers": [
        {
            "name": "input",
            "type": "input",
            "size": 12
        },
        {
            "name": "blstm_level_0",
            "type": "blstm",
            "size": 128,
            "bias": 1
        },
        {
            "name": "subsample_level_1",
            "type": "feedforward_tanh",
            "size": 64,
            "bias": 1
        },
        {
            "name": "blstm_level_1",
            "type": "blstm",
            "size": 128,
            "bias": 1
        },
        {
            "name": "subsample_level_2",
            "type": "feedforward_tanh",
            "size": 128,
            "bias": 1
        },
        {
            "name": "output",
            "type": "softmax",
            "size": 65,
            "bias": 1
        },
        {
            "name": "postoutput",
            "type": "multiclass_classification",
            "size": 65
        }
    ],
    "weights": {
        "blstm_level_0": {
            "input": [
                -0.809807,
                -0.0115197,
                -0.0180529,
                -0.212868,
                -1.07044,
                -0.0172332,
                -0.0514992,
                -0.363915,
                0.235623,
                -0.0203689,
                0.0348883,
                1.28411,
                0.74905,
                0.0138111,
                -0.012818,
                -0.00158236,
                1.58874,
                0.00520424,
                -0.0473883,
                0.960593,
                0.907982,
                -0.0071979,
                0.00406219,
                -0.715805,
                -0.0707914,
                -0.0721527,
                -0.0510399,
                0.175721,
                0.696271,
                0.261561,
                -0.0277941,
                0.738103,
                0.509343,
                0.00304722,
                0.00764801,
                -0.225649,
                0.0682831,
                0.00580039,
                0.066474,
                0.0525748,
                -1.00103,
                0.114326,
                -0.0101514,
                -0.789693,
                -0.174094,
                -0.00936099,
                0.0180617,
                0.620454,
                -0.0859131,
                0.0698973,
                -0.0104935,
                0.109059,
                0.409349,
                0.0259487,
                0.196025,
                0.554235,
                1.51039,
                -0.666112,
                0.060466,
                0.857276,
                -1.11532,
                -0.0206996,
                0.0358042,
                0.150613,
                1.48377,
                -0.129735,
                -0.067506,
                2.38222,
                0.757669,
                -0.0170892,
                0.0103251,
                -0.683133,
                0.658325,
                -0.0238413,
                0.0174674,
                0.154581,
                1.14148,
                -0.345223,
                0.052667,
                0.509455,
                1.01528,
                -0.0167515,
                -0.031431,
                -0.142759,
                0.621751,
                -0.0220007,
                0.0148144,
                0.0442701,
                0.980127,
                -0.0365069,
                0.00545368,
                0.346523,
                -0.19428,
                0.0407796,
                -0.00182159,
                -1.10599,
                -0.48241,
                0.125913,
                0.00547862,
                0.0815665,
                -0.256501,
                0.523221,
                -0.10314,
                0.20058,
                1.09212,
                0.129509,
                0.0337565,
                1.30524,
                -0.214576,
                0.117931,
                -0.0695187,
                0.101956,
                0.501893,
                1.01234,
                -0.176959,
                0.688658,
                -0.53421,
                -0.0771336,
                0.0276704,
                -1.14872,
                0.44304,
                -0.180155,
                -0.0592125,
                -1.45578,
                0.503,
                1.73078,
                -0.00996489,
                0.190816,
                0.110341,
                0.0777941,
                -0.110049,
                -0.62351,
                -0.521074,
                -0.835735,
                -0.0230627,
                -0.063922,
                -0.0305685,
                -0.666542,
                0.102397,
                0.544697,
                0.124633,
                0.0602712,
                0.0468001,
                0.0417845,
                -0.791551,
                0.0921944,
                0.0069821,
                -0.0664842,
                -0.269306,
                -0.291411,
                -0.0052129,
                0.528137,
                -0.507413,
                -0.40347,
                0.00485535,
                -0.285806,
                0.80941,
                -0.014718,
                -0.0918461,
                0.164848,
                2.24539,
                -0.550317,
                0.0888108,
                1.53717,
                1.08462,
                0.00809959,
                0.0064478,
                -1.14308,
                -1.18925,
                -0.362306,
                0.00164426,
                0.143266,
                1.37934,
                0.0593233,
                -0.196664,
                2.70381,
                0.576338,
                0.0248652,
                -0.0110277,
                -0.804666,
                -0.117783,
                -0.0273829,
                0.0156607,
                -0.138939,
                -0.270975,
                3.55161,
                -0.0405468,
                -0.0900098,
                -0.225631,
                -0.11444,
                0.0506584,
                0.124902,
                -0.249366,
                0.00396309,
                0.0156091,
                -0.063848,
                0.841979,
                -0.00174922,
                0.0191015,
                1.17417,
                0.553148,
                0.0213626,
                0.0108145,
                -0.283372,
                0.0790223,
                0.0212924,
                0.0166873,
                0.0318591,
                0.972937,
                0.198292,
                0.115052,
                1.07967,
                0.348894,
                -0.012594,
                0.00016498,
                -0.494558,
                -0.223392,
                0.067578,
                -0.0618084,
                0.0948592,
                -0.114625,
                -0.181372,
                0.141992,
                0.184919,
                0.08589,
                -0.0917581,
                0.0081728,
                0.0201015,
                -0.552889,
                0.101451,
                -0.0674195,
                -0.0546955,
                0.438929,
                0.000535073,
                0.167279,
                0.990755,
                0.08562,
                -0.037573,
                -0.0172241,
                -0.316634,
                0.200016,
                0.0576487,
                0.00630481,
                -0.017043,
                1.41807,
                0.0722541,
                -0.0140426,
                1.18107,
                0.758119,
                0.0207579,
                -0.0216352,
                -0.696194,
                0.148152,
                -0.199887,
                -0.0199122,
                0.217163,
                -1.02296,
                0.271471,
                -0.0208025,
                -1.28795,
                -0.776776,
                0.090954,
                -0.0341731,
                0.620351,
                -0.0682575,
                -0.000990856,
                0.0383243,
                -0.0379783,
                -0.486231,
                -0.107079,
                -0.437054,
                -0.848301,
                -0.177783,
                -0.483447,
                -0.0446804,
                0.655753,
                -0.335192,
                0.0513867,
                0.0274096,
                -0.124278,
                -0.254518,
                -0.733567,
                -0.00721655,
                -0.0277612,
                -0.923401,
                -0.120319,
                0.0190623,
                -0.392988,
                0.514059,
                0.0734124,
                -0.0466073,
                -0.139845,
                0.167424,
                -1.31449,
                -0.0809965,
                -0.0100782,
                0.22464,
                -0.00969102,
                -0.0305888,
                -0.200577,
                0.315392,
                -0.157488,
                -0.0120923,
                -0.033231,
                -0.869406,
                0.120165,
                -0.0297703,
                -1.33277,
                -0.0188643,
                0.145193,
                -0.00503449,
                0.949898,
                -0.679814,
                -0.0118133,
                0.010189,
                -0.433677,
                -0.944537,
                0.101818,
                0.00382196,
                -0.550809,
                -0.990984,
                -0.143868,
                -0.00209938,
                0.0571043,
                0.255429,
                -0.00350424,
                0.00734653,
                0.0825593,
                0.727614,
                0.170681,
                -0.491286,
                0.565363,
                0.0722462,
                -0.361934,
                -0.00395352,
                -0.457547,
                0.0785218,
                -0.133172,
                -0.0214931,
                -0.148122,
                0.0884764,
                0.528219,
                2.49484,
                -0.0694094,
                0.109212,
                -0.0974055,
                -0.0132732,
                -0.0265701,
                -0.63653,
                0.0460746,
                0.00766934,
                -0.371956,
                -0.936409,
                0.00217183,
                -0.0128864,
                -0.407223,
                -0.530756,
                -0.0897367,
                -0.0300055,
                0.495531,
                -0.391261,
                0.0690705,
                0.0727659,
                -0.196309,
                -1.10098,
                -0.212827,
                0.0729682,
                -0.610713,
                -0.527683,
                -0.0191495,
                -0.00670843,
                0.499051,
                0.216217,
                0.0120863,
                -0.0306505,
                0.199063,
                1.17399,
                0.0652725,
                -0.0036461,
                0.825265,
                1.0126,
                0.00455972,
                0.0136852,
                -0.318969,
                -0.563004,
                -0.0658533,
                0.0217148,
                0.18966,
                -0.539952,
                0.401518,
                0.0769604,
                -0.0401117,
                0.0298715,
                -0.192848,
                -0.0214542,
                0.653254,
                0.914719,
                -0.0487562,
                -0.0241221,
                0.149835,
                1.039,
                0.202932,
                -0.0306646,
                0.144218,
                0.622822,
                -0.00889431,
                0.0244449,
                -0.689447,
                0.197041,
                -0.0296642,
                0.00534491,
                0.244705,
                1.07251,
                -0.0964474,
                -0.0117331,
                0.973335,
                0.848636,
                -0.0414607,
                -0.0591417,
                -0.286402,
                0.0607339,
                0.243311,
                -0.074577,
                -0.0713058,
                -1.51801,
                -0.232328,
                0.119046,
                -1.5554,
                -0.770084,
                -0.0318663,
                0.000916886,
                0.782485,
                0.716377,
                -0.0392004,
                -0.00446542,
                0.444024,
                1.44647,
                0.21007,
                -0.0112303,
                1.01994,
                1.03036,
                -0.0269212,
                0.0369631,
                -0.818326,
                -0.343675,
                -0.00227924,
                -0.0688572,
                -0.122519,
                1.10866,
                -0.0406925,
                0.089916,
                1.5589,
                0.443988,
                -0.0288525,
                -0.0153425,
                -0.616863,
                -0.194808,
                0.0755537,
                -0.00833514,
                0.079159,
                -0.236849,
                -3.24381,
                0.0614571,
                0.055271,
                0.279421,
                0.0111812,
                0.0263791,
                0.0987041,
                -0.098832,
                0.0313491,
                -0.0158626,
                -0.0714574,
                0.81525,
                0.582422,
                -0.0233098,
                0.896924,
                0.365694,
                0.0918481,
                -0.00441317,
                -0.6056,
                -0.467434,
                -0.18738,
                0.107936,
                -0.274352,
                0.0723757,
                -0.0535016,
                -0.112058,
                0.684539,
                0.122337,
                0.0464197,
                -0.0242871,
                -0.0599212,
                0.6082,
                0.0270284,
                -0.000968283,
                -0.203019,
                1.58542,
                0.00739295,
                -0.00360333,
                0.750699,
                0.916585,
                0.0571113,
                -0.00618398,
                -0.342682,
                -0.346225,
                0.0909194,
                -0.0845343,
                0.457168,
                -0.515279,
                -0.142887,
                -0.011208,
                -0.30959,
                -0.350381,
                0.0422779,
                -0.0158617,
                0.0919375,
                -0.579515,
                -0.0879008,
                -0.00655322,
                0.288783,
                0.722975,
                0.795915,
                -0.0275664,
                1.47715,
                0.425211,
                -0.140465,
                0.0335746,
                -0.202302,
                0.024843,
                -0.00658505,
                -0.0290392,
                -0.166547,
                -0.312131,
                1.99783,
                0.0152497,
                -0.517651,
                -0.285725,
                -0.0146634,
                -0.0143802,
                0.112016,
                -0.165809,
                -0.267471,
                -0.0710045,
                0.0695362,
                -0.714803,
                -0.462727,
                -0.0215096,
                -0.645517,
                -0.331719,
                -0.010685,
                -0.0175027,
                0.461712,
                -0.340753,
                0.21518,
                -0.0350868,
                0.339486,
                -0.304408,
                -0.356782,
                0.307324,
                0.494083,
                -0.054491,
                0.0172877,
                -0.0827638,
                0.090134,
                0.843987,
                -0.000208324,
                -0.0138761,
                0.112398,
                1.409,
                -0.215142,
                0.054248,
                0.434473,
                -0.106132,
                0.0141074,
                -0.0431707,
                -1.58851,
                0.209691,
                0.219496,
                -0.0285273,
                0.120968,
                1.24982,
                0.132903,
                0.00291746,
                1.06025,
                0.611818,
                -0.0344936,
                0.01435,
                -0.384557,
                -0.567209,
                -0.0192987,
                0.00742012,
                0.0491616,
                0.323081,
                -0.439557,
                1.41709,
                0.946737,
                0.295848,
                -0.18377,
                -0.00493111,
                0.0680095,
                -0.42974,
                -0.00384295,
                -0.0523871,
                -0.221255,
                -0.775489,
                -0.0230023,
                -0.0209405,
                -0.488227,
                -0.617079,
                -0.0517359,
                0.00200416,
                0.338384,
                -0.647932,
                -0.0303007,
                -0.0428998,
                0.0575033,
                -0.366714,
                -0.240401,
                -0.0482843,
                0.234633,
                -0.355406,
                0.143375,
                0.000750661,
                0.237707,
                -0.0877477,
                -0.120362,
                -0.0266297,
                -0.00136359,
                -0.790016,
                0.00890358,
                0.06318,
                -1.02908,
                0.929839,
                -0.0850782,
                0.030265,
                1.6466,
                0.21139,
                0.349981,
                -0.0947912,
                0.387276,
                -0.145901,
                -0.596957,
                -0.074498,
                -0.163959,
                0.0836457,
                0.0138284,
                -0.0404047,
                0.143181,
                -0.775393,
                0.0341611,
                0.00277297,
                -0.014198,
                -1.573,
                -0.0111351,
                0.103851,
                -0.756705,
                2.09829,
                -0.949872,
                0.180398,
                3.5874,
                0.304592,
                0.0684046,
                -0.056714,
                -0.162349,
                0.968298,
                0.36149,
                -0.00727201,
                0.549413,
                0.115537,
                -0.0477261,
                -0.0476228,
                -0.753976,
                -2.30034,
                -0.10771,
                -0.00177863,
                -0.12454,
                0.183317,
                0.195777,
                -0.253307,
                2.44616,
                2.87673,
                -0.357313,
                0.068683,
                2.66276,
                0.0319111,
                0.0419214,
                0.0492294,
                -0.0288188,
                -1.54618,
                0.258741,
                0.015314,
                -1.43043,
                -0.82412,
                0.00314714,
                -0.00635461,
                0.515814,
                0.548306,
                0.0170422,
                -0.139295,
                -0.0835684,
                0.340767,
                -1.70946,
                0.366816,
                -0.13766,
                -0.147231,
                -0.951153,
                -0.00782205,
                -0.574984,
                0.202133,
                -0.294222,
                0.0141381,
                0.062864,
                -0.0722982,
                -0.0232998,
                -0.0488056,
                -0.465867,
                0.221957,
                0.184736,
                -0.0459873,
                0.243532,
                1.6205,
                -0.15121,
                0.0291056,
                0.0187145,
                -0.188151,
                0.295401,
                -0.561156,
                -1.67365,
                -1.98831,
                -0.00228262,
                0.0610895,
                -1.82324,
                0.525212,
                -0.0152374,
                0.0180918,
                0.0535852,
                1.61123,
                -0.748595,
                0.125971,
                0.845977,
                -2.07812,
                0.435114,
                -0.021746,
                -3.58639,
                0.842041,
                -0.0231644,
                -0.022648,
                -0.0118573,
                1.20406,
                0.946743,
                -0.033426,
                0.332911,
                -0.379573,
                0.00376121,
                -0.042912,
                -1.4861,
                -0.323776,
                0.0172779,
                -0.056131,
                -0.0600558,
                -0.976521,
                0.0113961,
                -0.0270145,
                -0.593424,
                -0.740778,
                -0.00477192,
                -0.012506,
                0.131122,
                0.197655,
                0.0267289,
                0.018061,
                0.135953,
                -0.767337,
                -0.26266,
                -0.0134776,
                -0.914665,
                0.104228,
                0.212505,
                -0.0293196,
                0.850418,
                0.182306,
                0.072405,
                -0.0480201,
                0.0602005,
                0.752891,
                0.103028,
                0.136515,
                0.240813,
                -0.0432535,
                0.160778,
                0.0414532,
                -0.807499,
                0.582329,
                -0.0463184,
                0.00844807,
                -0.0315849,
                1.36713,
                -0.0971728,
                -0.0543605,
                0.606017,
                0.466224,
                0.00955636,
                0.0191239,
                -0.825884,
                -0.30676,
                -0.00176043,
                0.0395909,
                0.0952398,
                -0.909201,
                -0.663134,
                0.113778,
                -0.696683,
                0.344587,
                -0.00300105,
                0.00241623,
                1.27423,
                -1.37599,
                0.0451714,
                0.0481752,
                0.190867,
                -0.568608,
                0.240778,
                0.00338595,
                0.715485,
                0.046593,
                -0.0156408,
                -0.0463856,
                0.591281,
                -0.542966,
                -0.23452,
                0.0661431,
                0.111451,
                -0.220322,
                0.216306,
                -0.523766,
                0.335767,
                0.0822656,
                0.000372853,
                -0.0340417,
                -0.00436673,
                -0.697816,
                0.00352915,
                -0.00868916,
                0.00267712,
                -1.35878,
                0.22677,
                -0.00109314,
                -0.730276,
                -1.16437,
                0.0301366,
                0.0111628,
                0.0888992,
                1.55005,
                -0.0714956,
                -0.0278051,
                0.0451592,
                -0.988609,
                0.186859,
                -0.0721731,
                -2.88796,
                -0.626419,
                0.0256931,
                0.000676082,
                0.4216,
                -0.462055,
                0.153421,
                -0.0067622,
                0.0657187,
                -0.46257,
                -0.0644935,
                0.0724963,
                -0.221719,
                -0.4511,
                -0.0934344,
                -0.0405035,
                0.0264314,
                -0.900057,
                0.0122706,
                -0.0115508,
                -0.0066027,
                -0.205293,
                -0.189727,
                -0.0152005,
                0.767403,
                0.858613,
                -0.0603458,
                0.0163159,
                0.775219,
                0.342056,
                0.00989369,
                -0.0495868,
                0.0696237,
                0.807903,
                0.00563638,
                0.0739044,
                0.571153,
                -0.236059,
                -0.00218202,
                -0.0271164,
                -1.05537,
                0.396696,
                -0.700972,
                0.0531767,
                0.378556,
                0.200278,
                -0.0745723,
                -0.0466843,
                -0.123336,
                -0.225569,
                0.202338,
                0.00425214,
                -0.480322,
                -0.978964,
                -0.0114325,
                -0.000602768,
                -0.0432452,
                -1.46257,
                0.174929,
                -0.00207558,
                -0.49842,
                -0.358494,
                0.0488432,
                0.0138895,
                0.933158,
                -0.0742075,
                1.39593,
                -0.0499547,
                -0.191036,
                -0.814745,
                -0.440154,
                -0.081007,
                -0.629021,
                -0.618614,
                -0.104516,
                0.00842198,
                0.134061,
                0.173757,
                0.152581,
                0.062071,
                -0.0488701,
                0.104827,
                1.91843,
                -0.0794208,
                -0.0451163,
                0.374623,
                -0.554836,
                -0.0198763,
                0.332328,
                -1.53138,
                0.485301,
                -0.0265298,
                -0.235906,
                1.08666,
                -0.227083,
                -0.0215818,
                2.49298,
                0.448952,
                0.0121101,
                -0.000775642,
                -0.38971,
                -0.653639,
                0.0925755,
                -0.00329485,
                -0.0134365,
                -1.18013,
                -0.126829,
                0.04407,
                -0.326223,
                -0.778849,
                -0.00550461,
                -0.0380806,
                0.354069,
                0.278519,
                -0.00525213,
                -0.0334987,
                -0.0257849,
                -1.34686,
                0.64815,
                -0.0317072,
                -1.58587,
                -1.00378,
                -0.0938034,
                0.0603187,
                0.573426,
                -0.903811,
                0.0920481,
                0.0172449,
                0.0488437,
                0.192197,
                -0.960645,
                0.0756848,
                0.836119,
                -0.166719,
                -0.0107115,
                -0.0182417,
                -0.18208,
                1.44629,
                0.111365,
                -0.0147477,
                -0.0293374,
                0.735219,
                -0.00741307,
                0.025116,
                -0.486331,
                0.584137,
                -0.0272151,
                -0.0069657,
                -0.275477,
                -0.833196,
                -0.0826568,
                -0.0471336,
                0.101195,
                -0.90411,
                0.0793862,
                -0.103994,
                -0.141607,
                -0.653751,
                0.161652,
                -0.0190133,
                0.34959,
                -0.239606,
                0.168863,
                0.00820805,
                -0.0112439,
                -0.519398,
                0.850388,
                -0.184661,
                -0.39621,
                -0.344657,
                -0.569634,
                0.00687313,
                0.330747,
                -0.0835619,
                0.143856,
                -0.0217581,
                -0.0450487,
                -0.23981,
                -0.0717839,
                -0.0424374,
                -0.173898,
                -1.28731,
                -0.119124,
                0.0104231,
                -0.969845,
                0.772486,
                0.0190215,
                -0.00916453,
                0.0944824,
                -0.525852,
                0.190338,
                -0.0248654,
                -1.37129,
                0.316587,
                0.0316296,
                -0.0393284,
                0.581494,
                -0.864933,
                0.231118,
                0.0582118,
                0.33776,
                0.838718,
                -1.45524,
                -0.0238958,
                1.62855,
                0.627824,
                -0.0466268,
                0.0420531,
                -0.327873,
                0.992823,
                -0.261698,
                0.0115687,
                -0.167167,
                -0.01601,
                -0.771772,
                0.0159306,
                -1.11702,
                0.429021,
                0.0232605,
                -0.00340614,
                0.23938,
                -0.325414,
                -0.00404861,
                0.0168887,
                0.0295416,
                -0.823048,
                0.104456,
                -0.197921,
                -0.69203,
                0.647901,
                -0.040004,
                -0.0486364,
                1.43503,
                0.146986,
                -0.12267,
                0.0110675,
                -0.0224189,
                0.0266993,
                0.234259,
                0.286635,
                0.0937563,
                -0.746295,
                -0.0631856,
                0.0456046,
                -1.0843,
                0.799244,
                -0.00801604,
                -0.0210026,
                0.0212372,
                1.66838,
                0.34886,
                -0.0585711,
                0.756902,
                -0.660067,
                -0.021564,
                -0.00764722,
                -2.21803,
                0.972438,
                -0.0150423,
                0.00733618,
                -0.00866501,
                1.80566,
                -0.00217982,
                0.0295043,
                0.832934,
                0.887181,
                -0.00971901,
                0.0204019,
                -0.763734,
                -0.470829,
                0.0370254,
                -0.00616833,
                0.0734548,
                -0.780941,
                -0.387628,
                0.00172795,
                -0.222113,
                -0.0553825,
                0.0507946,
                0.0629497,
                0.661741,
                -1.66834,
                -0.0885498,
                -0.0134553,
                -0.124315,
                -1.03748,
                -0.00556341,
                0.0403247,
                0.662252,
                -0.539694,
                -0.00969137,
                -0.00982333,
                0.262158,
                0.216429,
                0.140314,
                -0.00148663,
                0.00330803,
                -0.269027,
                -0.0414773,
                2.06727,
                -0.134592,
                -0.0820829,
                0.0335843,
                -0.00220407,
                -0.0846363,
                0.468384,
                0.00524215,
                0.0142497,
                0.0423731,
                0.914793,
                0.0124012,
                -0.0116932,
                0.544604,
                0.46037,
                0.00846469,
                -0.0173393,
                -0.413399,
                -0.711685,
                -0.0450156,
                -0.0342054,
                0.106744,
                -0.379509,
                -0.247085,
                -0.352709,
                0.154218,
                0.330619,
                0.0181874,
                0.0331001,
                0.76473,
                -0.544945,
                0.013685,
                -0.0292486,
                -0.00783791,
                -1.2143,
                -0.463804,
                0.0389566,
                -0.452578,
                -0.101808,
                -0.0349037,
                0.021885,
                0.969175,
                0.205013,
                -0.0117439,
                -0.0538612,
                -0.258139,
                -0.862621,
                -0.0110723,
                -0.0172865,
                -1.192,
                -0.441979,
                0.000820427,
                -0.0296192,
                0.657196,
                1.97477,
                0.270083,
                0.0123943,
                -0.0953944,
                -1.56949,
                -0.618387,
                0.178995,
                -3.39195,
                -0.895379,
                0.0298971,
                0.0330789,
                0.832558,
                1.20352,
                -0.329394,
                0.0424061,
                0.322907,
                0.32756,
                0.00303046,
                0.0303353,
                -0.845191,
                -0.073945,
                -0.00303293,
                0.0175865,
                -0.435884,
                0.0687057,
                -0.162248,
                -1.98174,
                -0.0857426,
                0.0229716,
                0.0561612,
                0.0303091,
                -0.182039,
                -0.0298899,
                -0.0319151,
                0.0013561,
                -0.0420005,
                -1.17849,
                -0.141203,
                -0.0387124,
                0.0414835,
                -1.33713,
                -0.42476,
                0.0786511,
                -0.118912,
                -0.653377,
                -0.0249302,
                -0.00295799,
                0.578726,
                0.91872,
                0.529834,
                -0.0248473,
                -0.00803321,
                1.10022,
                0.0193654,
                0.0293599,
                -0.0173395,
                0.870165,
                -0.0078134,
                -0.0685517,
                -0.3645,
                -0.711662,
                0.0629078,
                0.0106883,
                0.0316824,
                -1.32078,
                0.437797,
                -0.160989,
                -0.661029,
                0.681388,
                -0.312239,
                -0.0567051,
                1.92125,
                -0.533796,
                0.124548,
                -0.0487842,
                -0.0737894,
                -1.2777,
                0.0338907,
                -0.0575538,
                -0.688765,
                -0.47845,
                0.0932099,
                0.120301,
                1.16904,
                -1.26714,
                0.25195,
                -0.0269671,
                -0.0509864,
                -2.34487,
                0.30923,
                -0.0807906,
                -1.49652,
                -1.55477,
                -0.0539905,
                -0.0267816,
                0.71523,
                -1.95517,
                -0.295055,
                -0.016117,
                0.0647978,
                -0.314833,
                0.0941792,
                0.102222,
                1.58515,
                0.967092,
                0.203748,
                -0.0263431,
                1.28519,
                -0.224896,
                -0.058009,
                0.0854134,
                -0.0994077,
                0.0961824,
                1.70151,
                -0.0464134,
                0.422533,
                0.138997,
                -0.11673,
                0.0827385,
                0.0547778,
                0.221238,
                -0.00147294,
                -0.026974,
                0.0598393,
                0.552171,
                -0.131735,
                -0.00586272,
                0.460985,
                1.01334,
                -0.210074,
                -0.0182275,
                0.67475,
                -0.720955,
                -0.181856,
                0.0388007,
                -0.0196006,
                -0.432024,
                0.0073687,
                0.0479402,
                0.364351,
                -0.190263,
                0.108253,
                0.0146442,
                0.10617,
                -0.0542009,
                -0.122522,
                0.0142952,
                0.0660649,
                0.0793162,
                -0.108405,
                -0.00997892,
                -0.117049,
                -0.536364,
                0.0791425,
                -0.111396,
                -0.730846,
                0.12987,
                0.154357,
                -0.0353442,
                -0.0840424,
                -0.556664,
                1.14912,
                -0.0262332,
                -0.442659,
                0.154764,
                0.0569821,
                0.0363904,
                0.538118,
                -1.27776,
                -0.0282027,
                0.0302704,
                -0.109307,
                -1.33717,
                -0.00358793,
                0.00141838,
                0.26716,
                -0.510184,
                0.00450897,
                -0.0313782,
                0.329939,
                -1.71284,
                0.50285,
                -0.0214694,
                0.112373,
                1.20871,
                -0.195402,
                0.0560309,
                2.89803,
                0.747835,
                -0.098348,
                0.00808936,
                -0.369318,
                2.70339,
                0.37694,
                -0.0743829,
                -0.0888787,
                0.204858,
                -0.0303835,
                -0.0232707,
                -2.29531,
                -2.07265,
                -0.0182163,
                0.0112764,
                -2.09071,
                -0.461945,
                -0.341314,
                0.0323179,
                0.208061,
                1.03102,
                0.6002,
                0.0832071,
                1.51851,
                0.467415,
                0.020983,
                0.023351,
                -0.509366,
                -0.0082878,
                0.013461,
                0.0376795,
                0.0401839,
                1.00188,
                -0.105668,
                0.0880938,
                0.736091,
                0.664111,
                0.0566702,
                -0.00621353,
                0.118329,
                -0.249297,
                0.0177575,
                -0.000598389,
                -0.0757783,
                -0.77482,
                -0.191087,
                0.1682,
                -0.565572,
                0.914129,
                0.302066,
                0.00165712,
                1.77488,
                0.191804,
                0.261044,
                -0.0190255,
                -0.0526318,
                1.13325,
                0.272954,
                -0.0651717,
                1.12868,
                0.327682,
                -0.132793,
                0.0915948,
                -0.905783,
                -0.616516,
                -0.0283692,
                -0.0149248,
                -0.0250213,
                -0.880525,
                0.0307892,
                0.00870869,
                -0.604778,
                0.161418,
                0.222062,
                0.0471899,
                1.05747,
                0.672471,
                -0.021545,
                0.0111009,
                -0.0256087,
                0.630052,
                -0.173923,
                -0.0803657,
                0.200339,
                -0.113262,
                0.00166943,
                0.0270694,
                -0.899433,
                0.478377,
                -0.0823759,
                0.0595374,
                -0.0176345,
                0.944973,
                -0.161642,
                -0.00382782,
                0.573438,
                0.579445,
                0.0305422,
                0.0382384,
                -0.377722,
                0.0796809,
                0.077606,
                0.00897648,
                -0.0435675,
                0.0963185,
                3.67983,
                -0.054553,
                -0.146824,
                -0.0747418,
                -0.0161601,
                -0.0135029,
                -0.131372,
                -1.26515,
                0.315162,
                -0.0408151,
                -0.247932,
                -0.528167,
                0.0398393,
                -0.0431937,
                0.54561,
                -0.243186,
                0.0295131,
                0.0552844,
                0.249146,
                0.939009,
                -0.950499,
                0.992037,
                -0.289748,
                -0.666213,
                0.0132461,
                -0.0755943,
                -1.41971,
                -0.2473,
                -0.024651,
                0.0110008,
                0.213038,
                0.255446,
                -0.0116317,
                -0.0664411,
                -0.0184466,
                0.503957,
                0.000692652,
                0.0600088,
                0.62997,
                0.143923,
                0.0365628,
                -0.095415,
                -0.506377,
                0.00703342,
                0.00966935,
                0.0568693,
                -0.112249,
                0.284089,
                -0.451199,
                -0.0729656,
                0.0560404,
                1.15956,
                0.0379317,
                -0.10029,
                1.13596,
                -0.37178,
                0.140691,
                -0.0939932,
                0.212925,
                -0.286575,
                0.0564076,
                0.0663137,
                0.27668,
                -0.341807,
                -0.00538747,
                -0.0583442,
                0.00596541,
                -1.02656,
                0.0618189,
                0.0748192,
                0.00717587,
                -0.241909,
                0.155615,
                0.0123666,
                0.772682,
                0.0198034,
                0.152793,
                -0.0288295,
                0.0496962,
                0.183995,
                -0.0182918,
                0.0867179,
                0.0857349,
                0.494227,
                -0.134002,
                -0.0668653,
                0.319338,
                -0.400572,
                -0.526562,
                0.0937576,
                -0.976155,
                0.188587,
                0.00569873,
                0.0302499,
                -0.0247373,
                0.752595,
                -1.10206,
                -0.011246,
                0.514288,
                0.276793,
                0.0394425,
                0.0113551,
                -0.213038,
                0.241474,
                0.00727821,
                0.0182094,
                -0.0904667,
                0.554181,
                -0.296047,
                0.0818179,
                0.163886,
                0.133529,
                -0.0290817,
                -0.00263957,
                -0.229539,
                -0.0953631,
                -0.00414827,
                -0.0994673,
                0.0675998,
                -0.409596,
                0.206345,
                0.0411423,
                -0.206222,
                0.379769,
                0.185177,
                -0.0506682,
                0.606343,
                -0.221368,
                0.0699403,
                0.0515523,
                -0.116802,
                -0.285603,
                -0.109535,
                -0.177596,
                -0.0516474,
                0.516309,
                -0.155834,
                0.153541,
                0.994842,
                0.339197,
                -0.24796,
                -0.013006,
                0.0539385,
                -0.0474129,
                -1.47037,
                -0.290074,
                -0.043345,
                -0.397456,
                0.0898717,
                -0.0985944,
                -0.210661,
                0.410186,
                -0.423011,
                -0.121564,
                0.113237,
                -0.204948,
                -0.926856,
                0.000855398,
                -0.544514,
                -0.139043,
                -0.195569,
                -0.0469009,
                -0.00969148,
                0.115256,
                -0.471223,
                0.0350647,
                0.229013,
                0.222303,
                0.279087,
                -0.0272447,
                -0.134872,
                0.0698042,
                0.327631,
                -0.0651548,
                -0.19103,
                -0.232113,
                0.00615828,
                -0.0461607,
                -0.0985546,
                0.373185,
                -0.296199,
                0.0296194,
                0.499498,
                -0.108123,
                -0.420624,
                -0.11959,
                -0.277662,
                -0.555965,
                -0.0107874,
                -0.0639097,
                -0.02781,
                -0.303616,
                -0.709925,
                0.213717,
                0.115122,
                -0.478939,
                0.00960208,
                0.0814658,
                -0.143204,
                -0.00826807,
                -0.0779377,
                0.421109,
                0.129578,
                -0.0948795,
                0.0309627,
                -0.114303,
                -0.0859545,
                -0.203345,
                -0.0604151,
                -0.0416647,
                -0.0498067,
                -0.366113,
                0.248448,
                0.00665437,
                0.0585827,
                -0.0847044,
                -2.07307,
                1.39684,
                0.195204,
                0.0808087,
                0.541177,
                -0.089609,
                -0.0286586,
                0.233594,
                0.0303538,
                0.482256,
                -0.234144,
                -0.177837,
                0.0326556,
                0.058125,
                -0.578813,
                -0.126481,
                0.0114075,
                -0.0632794,
                0.00867712,
                -1.0422,
                -0.0803044,
                0.0461352,
                -0.266914,
                0.168797,
                0.142997,
                0.0113359,
                1.0102,
                0.259069,
                -0.0263696,
                -0.0446873,
                0.151176,
                -0.167765,
                0.0137625,
                0.0404915,
                -0.368129,
                0.394513,
                -0.158935,
                0.193059,
                0.430882,
                0.231591,
                -0.106607,
                -0.00768259,
                -0.0563536,
                -0.69385,
                0.138628,
                -0.0689273,
                0.0437465,
                0.0202602,
                0.0418964,
                0.0200942,
                0.342175,
                0.0817118,
                0.199071,
                -0.0559488,
                0.0716533,
                -0.142816,
                -0.268684,
                0.0199816,
                0.204589,
                -0.670912,
                -0.379467,
                -0.00731024,
                -0.607414,
                -0.344735,
                -0.00287068,
                -0.0021624,
                0.361005,
                -0.625107,
                -0.196465,
                0.0021357,
                -0.311866,
                -0.19628,
                -0.0446782,
                -0.11279,
                0.500116,
                0.148498,
                -0.0815145,
                0.00851717,
                0.443984,
                -0.0569218,
                -0.00264819,
                0.00703573,
                0.0946476,
                -0.125963,
                0.120179,
                -0.177535,
                0.227117,
                -0.048434,
                -0.0499384,
                0.0396938,
                0.0895804,
                0.300763,
                -0.381912,
                0.142674,
                0.183662,
                0.0852609,
                -0.839508,
                -0.181245,
                -0.252074,
                0.417665,
                -0.173222,
                -0.00961513,
                0.413426,
                0.292749,
                0.127142,
                -0.0973051,
                -0.138639,
                0.0872335,
                0.100118,
                0.330827,
                -0.323352,
                -0.00512576,
                0.171161,
                -0.0609571,
                0.0610475,
                -0.446429,
                -0.128672,
                0.0484083,
                -0.00340435,
                -1.01489,
                0.30429,
                0.0683495,
                -0.622442,
                -0.244204,
                -0.187195,
                -0.0687364,
                0.362263,
                -0.477339,
                0.128787,
                0.0300698,
                0.190119,
                -0.410802,
                -0.939478,
                0.0103098,
                -0.0548715,
                -0.24889,
                -0.326357,
                0.00306685,
                0.0558398,
                -0.489846,
                0.163515,
                -0.0507101,
                0.105615,
                -0.295765,
                0.722133,
                -0.458282,
                0.0597086,
                0.0809056,
                0.713333,
                -0.0412614,
                0.326056,
                0.148205,
                -0.174998,
                0.123027,
                -0.218222,
                -0.0415316,
                -0.821513,
                -1.03425,
                -0.0639269,
                0.0346541,
                -0.308234,
                0.00470832,
                0.218643,
                -0.211275,
                -0.0074891,
                -0.0637909,
                -0.11712,
                -0.47082,
                -0.00482704,
                0.0157392,
                0.0267473,
                -0.140059,
                -0.217789,
                -0.015117,
                0.125207,
                0.243971,
                -0.0351593,
                -0.0102861,
                0.129998,
                0.265304,
                -0.092313,
                0.140338,
                -0.022506,
                -0.123113,
                -0.223487,
                -0.0698072,
                -0.105082,
                -0.0986466,
                0.0475712,
                0.031182,
                -0.143001,
                0.351882,
                0.163328,
                -0.198059,
                0.580148,
                0.383905,
                0.0674644,
                -0.0268183,
                0.00130402,
                0.559387,
                -0.124902,
                -0.0366477,
                -0.0653986,
                0.182896,
                -0.647619,
                -0.111076,
                -0.422542,
                -0.0854106,
                -0.11456,
                -0.0436779,
                -0.502003,
                -0.192138,
                -0.0852161,
                -0.0582696,
                -0.123059,
                -0.279363,
                -0.0437045,
                0.165313,
                -0.288771,
                -0.197929,
                -0.00613239,
                0.0247995,
                -0.0100414,
                -0.381948,
                -0.0297756,
                -0.0918929,
                0.359317,
                -0.920933,
                -0.0590936,
                0.0580135,
                -0.211071,
                -0.650604,
                0.0153528,
                -0.00600709,
                0.39155,
                0.282905,
                0.0645594,
                -0.0345676,
                0.219203,
                0.606278,
                -0.308549,
                -0.0403519,
                0.260482,
                0.566973,
                -0.0882108,
                0.0290133,
                0.0268448,
                0.254657,
                -0.0239024,
                -0.0394445,
                -0.163013,
                0.482045,
                -0.21644,
                0.08439,
                0.442785,
                0.304008,
                -0.107551,
                0.0333529,
                -0.0890431,
                -0.36366,
                0.00640259,
                0.0679678,
                0.161519,
                0.825906,
                -0.170868,
                -0.0635457,
                0.972935,
                0.493776,
                -0.0984056,
                -0.00435926,
                -0.243044,
                -0.0556705,
                0.540843,
                0.0813081,
                -0.0958072,
                0.419639,
                0.859019,
                1.30982,
                0.372043,
                0.114687,
                0.00856761,
                0.0082687,
                -0.26066,
                0.103313,
                0.011996,
                0.0411869,
                0.271302,
                0.339925,
                -0.0321408,
                0.0599831,
                0.368286,
                0.0815475,
                -0.0263467,
                0.0712091,
                -0.3385,
                -0.38685,
                -0.11786,
                0.00238482,
                0.384775,
                0.00841343,
                -0.140309,
                6.3004e-06,
                0.399818,
                -0.0386012,
                0.0616225,
                -0.00302677,
                0.169219,
                -0.446515,
                0.124915,
                0.0275264,
                0.0666162,
                -0.347974,
                0.956815,
                -0.100948,
                0.0485994,
                -0.0891403,
                -0.0918089,
                0.0259984,
                0.24548,
                0.58152,
                -0.174021,
                0.126076,
                0.139259,
                0.481269,
                -0.333047,
                -0.014606,
                -0.112418,
                0.410733,
                -0.0826548,
                -0.118371,
                0.0472238,
                0.0924869,
                0.0472793,
                0.101718,
                0.164977,
                0.670616,
                0.0109368,
                -0.0388181,
                0.76487,
                -0.0385376,
                0.0370038,
                -0.0375314,
                -0.844098,
                0.0911138,
                0.0569518,
                0.0542867,
                0.0491406,
                -0.0776853,
                0.183754,
                3.6134,
                -0.0387235,
                -0.0483335,
                -0.0355546,
                0.0425024,
                -0.00545634,
                0.277804,
                -0.251431,
                -0.0270735,
                -0.132629,
                0.502343,
                -0.66088,
                -0.0634263,
                0.189571,
                -0.0689795,
                0.0167327,
                0.0193971,
                -0.251327,
                0.392955,
                0.0841607,
                -0.00139842,
                -0.135581,
                0.163494,
                0.116296,
                -0.0215272,
                -0.322371,
                -0.0625035,
                -0.00789488,
                -0.0897074,
                -0.0110536,
                0.27688,
                0.350682,
                0.0649722,
                -0.0299895,
                0.676647,
                -0.500737,
                0.323985,
                0.668595,
                0.386368,
                -0.0317265,
                0.0279351,
                -0.430905,
                0.45377,
                -0.203256,
                0.10465,
                0.249712,
                0.521902,
                -0.504557,
                -0.0210631,
                0.346994,
                0.272573,
                0.138016,
                0.0211448,
                -0.647763,
                -0.137951,
                0.124431,
                0.0268727,
                -0.170605,
                0.343002,
                0.403137,
                -1.45812,
                0.377464,
                0.0374358,
                -0.243241,
                0.00350545,
                -0.185773,
                -0.233809,
                0.0297886,
                0.0603178,
                0.127834,
                0.17965,
                0.0206283,
                0.225749,
                0.0360561,
                -0.142375,
                0.032647,
                0.00634575,
                -0.225961,
                0.207191,
                -0.0688522,
                0.00523935,
                0.0838456,
                -0.227057,
                -0.0780406,
                0.00257854,
                -0.34448,
                -0.192383,
                0.105194,
                -0.0333287,
                0.0977667,
                0.101767,
                -0.0839041,
                0.0819915,
                0.0110684,
                1.13084,
                0.0114554,
                -0.103191,
                0.789843,
                0.090252,
                0.0114308,
                0.017434,
                -0.89004,
                0.0540078,
                -0.00336605,
                0.13445,
                -0.717715,
                -0.0517116,
                0.225339,
                0.0267187,
                0.137293,
                -0.0905887,
                0.0164025,
                0.0412894,
                0.0795264,
                -0.501397,
                -0.0393,
                -0.0841848,
                0.146607,
                -1.21472,
                0.24542,
                0.44746,
                -0.490753,
                0.736427,
                -0.902656,
                -0.131694,
                2.00261,
                -0.139459,
                0.0762702,
                0.0396468,
                -0.412303,
                -0.177937,
                -0.310159,
                0.000944501,
                -0.340907,
                -0.157191,
                -0.118185,
                -0.0360781,
                0.413018,
                0.379291,
                0.0247673,
                0.273139,
                -0.0512366,
                0.095908,
                -0.107945,
                -0.0770637,
                -0.402983,
                -0.189424,
                -0.0808076,
                -0.0136349,
                -0.234037,
                -0.00932885,
                0.0543101,
                -0.0297512,
                -0.0196383,
                0.141953,
                -0.761109,
                -0.0138637,
                0.269315,
                -0.0513983,
                0.047656,
                -0.0555067,
                -0.167317,
                0.165942,
                0.290426,
                0.0957722,
                -0.0302739,
                0.169904,
                -0.748991,
                -0.471207,
                0.284424,
                0.257264,
                -1.12441,
                0.118023,
                0.0388049,
                0.287692,
                0.0590183,
                0.0780821,
                0.0316056,
                0.131673,
                -0.600818,
                -0.196857,
                -0.259696,
                0.311929,
                -0.040728,
                -0.0208568,
                0.293681,
                -0.633997,
                -0.0525532,
                0.0951561,
                0.205735,
                0.164928,
                -0.156312,
                -0.088911,
                0.690771,
                0.532611,
                -0.0263861,
                -0.0117392,
                0.599598,
                0.207333,
                -0.0204231,
                0.0198446,
                -0.0883814,
                0.13481,
                -0.949572,
                1.00411,
                -0.122784,
                -0.608185,
                0.170594,
                -0.103979,
                -0.642803,
                -0.0255254,
                -0.0262515,
                0.0352357,
                0.0471062,
                0.0401974,
                -0.3499,
                0.135931,
                0.0650326,
                0.12153,
                -0.0617674,
                -0.0300047,
                -0.0665211,
                -0.235805,
                0.232084,
                0.0201454,
                0.126089,
                -0.799539,
                0.369203,
                0.0863609,
                -0.71867,
                0.264845,
                0.116128,
                0.0612943,
                0.861394,
                0.608233,
                0.0125022,
                0.048287,
                -0.116275,
                0.826662,
                0.542713,
                -0.0549362,
                0.522285,
                0.415258,
                -0.199305,
                -0.0342746,
                -0.372048,
                0.0251835,
                -0.0921773,
                0.0436311,
                0.00872135,
                0.0290817,
                -0.0559841,
                -0.0469036,
                0.0290267,
                0.976248,
                -0.0121991,
                -0.103995,
                0.926508,
                0.035103,
                0.153359,
                -0.0999897,
                -0.223487,
                0.358892,
                -0.109016,
                0.110641,
                0.224,
                0.217803,
                -0.00479874,
                -0.0363671,
                -0.0444363,
                0.342665,
                -0.00677699,
                0.0514184,
                -0.10783,
                0.66392,
                -0.13306,
                0.0960304,
                0.358142,
                0.37936,
                0.307388,
                0.00271688,
                -0.183092,
                -0.16827,
                0.00913518,
                0.0687225,
                -0.149132,
                0.342485,
                -0.481743,
                0.0357631,
                0.458013,
                0.142895,
                0.0289301,
                0.0433141,
                -0.417549,
                0.408437,
                0.286119,
                -0.126222,
                -0.173139,
                0.0360473,
                -0.0920896,
                -0.343373,
                -0.483931,
                0.0496971,
                -0.00693445,
                -0.0104771,
                -0.0308753,
                -0.179327,
                0.0576336,
                -0.00623464,
                -0.077408,
                -0.681742,
                -0.189325,
                0.18282,
                -0.394059,
                -0.0300597,
                0.022386,
                -0.0466294,
                0.389242,
                -0.477223,
                -0.0578458,
                0.112896,
                0.566324,
                0.660833,
                0.0354945,
                0.193035,
                0.668283,
                0.478145,
                -0.0276276,
                0.0055429,
                -0.213758,
                -0.280105,
                0.0303606,
                0.0169596,
                0.169196,
                -0.157311,
                -0.0352756,
                0.103574,
                0.11204,
                0.331392,
                0.0802779,
                -0.0787432,
                0.380408,
                0.0376559,
                -0.0875781,
                -0.007091,
                -0.0585419,
                -0.391807,
                -0.137403,
                0.0089648,
                -0.404833,
                -0.467496,
                0.0128877,
                0.0417314,
                -0.00174785,
                -0.147275,
                -0.0008728,
                0.0450757,
                -0.0415809,
                -0.175185,
                0.485982,
                -0.162073,
                -0.303575,
                -0.714059,
                0.0722329,
                0.0712813,
                -0.552636,
                -0.50256,
                -0.0742853,
                -0.00855594,
                -0.152942,
                0.350062,
                0.0184985,
                0.085735,
                0.604801,
                0.00283356,
                0.0638677,
                -0.116467,
                -0.398268,
                0.0703998,
                -0.243756,
                0.105372,
                0.0505248,
                -0.18586,
                -0.190744,
                0.30468,
                -0.272487,
                -0.0136647,
                -0.0272913,
                -0.0485698,
                0.221406,
                -0.813545,
                -1.85557,
                -0.120199,
                0.202754,
                -0.789528,
                0.294113,
                -0.139813,
                0.148993,
                -0.359514,
                -0.0977103,
                -0.0801079,
                0.463165,
                0.184858,
                0.0588693,
                -0.0646665,
                0.0195186,
                0.180147,
                0.806903,
                -0.128693,
                0.0247678,
                -0.076289,
                0.368369,
                0.0708367,
                -0.150013,
                -0.278797,
                -0.0977058,
                -0.0294044,
                -0.340444,
                0.93581,
                -0.283049,
                0.104203,
                1.33939,
                0.536298,
                -0.00137566,
                0.0444464,
                -0.518013,
                -0.0785007,
                -0.105014,
                0.0905409,
                0.0290129,
                0.227757,
                -0.245708,
                0.243537,
                0.536737,
                0.267504,
                0.0182178,
                -0.0713284,
                -0.206688,
                0.807003,
                0.0950344,
                -0.0231703,
                -0.0970409,
                -0.359091,
                -0.0132343,
                0.231957,
                -1.17729,
                0.178141,
                0.0177274,
                0.141341,
                0.383127,
                0.351262,
                0.0812753,
                -0.0733107,
                0.039896,
                0.607031,
                -1.85663,
                -0.0689566,
                0.217136,
                0.0218356,
                0.0253334,
                -0.00769411,
                -0.520312,
                0.853369,
                -0.298001,
                0.0431983,
                -0.0144458,
                0.336636,
                -0.553418,
                -0.0215699,
                -0.434903,
                0.269139,
                -0.0620295,
                0.0466095,
                -0.229114,
                0.448204,
                0.0798459,
                0.034086,
                -0.0232856,
                0.501186,
                -0.457807,
                0.122371,
                0.0214383,
                -0.0608316,
                -0.170887,
                0.0205645,
                -0.310484,
                0.0466695,
                -0.0334448,
                0.0472807,
                0.0680125,
                -0.107667,
                -0.641154,
                0.00309011,
                -0.250137,
                0.0187624,
                0.515079,
                0.0919901,
                -0.0498377,
                -0.0725264,
                0.0400935,
                -0.147262,
                -0.070339,
                -0.12796,
                0.00363161,
                -0.0487021,
                -0.00305971,
                -0.0202741,
                -0.153107,
                0.094979,
                -0.116652,
                0.0506909,
                0.142491,
                0.00127151,
                -0.0624644,
                -0.590888,
                -0.665668,
                -0.0321891,
                -0.866477,
                -0.434681,
                0.00281194,
                -0.0160218,
                -0.0375031,
                -0.286018,
                0.181296,
                -0.0545175,
                -0.118174,
                -0.463681,
                0.462346,
                0.291399,
                -0.312565,
                -0.223521,
                -0.00494556,
                0.0560015,
                0.0895359,
                -0.22371,
                0.113132,
                -0.0726286,
                -0.122344,
                0.545648,
                -0.197368,
                -0.10155,
                0.79196,
                0.305967,
                0.00643525,
                0.0619505,
                -0.375672,
                0.340569,
                0.051912,
                0.0601876,
                0.0873856,
                -0.225444,
                -0.31091,
                -0.662125,
                -0.365783,
                -0.0805162,
                -0.00534374,
                0.0826931,
                -0.269442,
                -0.16272,
                0.0375836,
                -0.0160227,
                -0.164005,
                -0.578027,
                -0.0325048,
                -0.0513584,
                -0.505197,
                -0.481256,
                -0.0855263,
                -0.0223564,
                0.0645012,
                -0.162606,
                0.0664683,
                0.0446832,
                -0.0349366,
                -0.107313,
                -0.950004,
                -0.139858,
                0.143591,
                0.0359679,
                0.0648763,
                0.00357624,
                0.169929,
                0.108644,
                0.0288534,
                -0.0283891,
                0.0316873,
                0.569691,
                0.297411,
                0.0761335,
                0.557925,
                0.0655673,
                0.0118061,
                -0.0550778,
                -0.555276,
                0.0563897,
                -0.0343999,
                0.0440086,
                -0.0151059,
                0.62211,
                0.0768164,
                -0.0317695,
                0.117198,
                -0.0539889,
                0.10777,
                -0.00700007,
                -0.461623,
                -0.58458,
                -0.464718,
                0.0831786,
                -0.113724,
                -0.158258,
                -0.0388801,
                -0.0222111,
                0.193526,
                0.162235,
                -0.0194577,
                -0.0700981,
                0.0998748,
                -0.287197,
                0.0328782,
                -0.0777223,
                -0.0183593,
                -0.564942,
                0.118947,
                -0.152752,
                -0.0970828,
                -0.269893,
                -0.0589497,
                0.00838761,
                0.249556,
                0.228262,
                0.0279976,
                -0.0686509,
                0.042272,
                0.525443,
                0.173484,
                0.0479207,
                0.264795,
                0.0809421,
                0.00488638,
                -0.0150319,
                -0.384275,
                0.113997,
                0.0601716,
                0.0343325,
                -0.10301,
                0.0854125,
                -0.230331,
                -0.468765,
                -0.143969,
                0.216998,
                0.389816,
                -0.0516673,
                0.24629,
                0.0432306,
                -0.0144017,
                -0.0197,
                0.00935588,
                0.36117,
                0.0378551,
                -0.0231259,
                0.284209,
                -0.863282,
                0.00974374,
                0.0648726,
                -0.870967,
                -0.294101,
                0.022265,
                0.0735228,
                -0.0149689,
                -0.0203702,
                -0.0234671,
                0.305555,
                0.38111,
                -0.0505673,
                -0.0196728,
                -0.0270468,
                -0.00142621,
                0.385673,
                0.170351,
                -0.00553884,
                0.0535647,
                -0.664845,
                -1.00452,
                -0.0975869,
                -1.21943,
                -0.554874,
                -0.0254592,
                0.0276532,
                -0.0306567,
                -0.465691,
                0.0727085,
                0.0105031,
                -0.00218518,
                0.389504,
                -0.0354596,
                -0.0343312,
                0.666225,
                0.460743,
                -0.0170486,
                -0.0630474,
                0.158783,
                0.510616,
                -0.915841,
                -0.608871,
                0.0776391,
                -0.155225,
                -0.220865,
                0.287627,
                -0.399472,
                0.00144828,
                -0.00426838,
                0.0435112,
                0.22416,
                0.315655,
                -0.0495576,
                0.0954849,
                0.131487,
                0.798139,
                0.329954,
                0.331241,
                0.577046,
                0.0635815,
                0.0413975,
                0.0363,
                -0.616308,
                0.13438,
                0.19173,
                0.00520589,
                0.375785,
                -0.0777405,
                0.0612443,
                -0.102607,
                -0.0169387,
                -0.190358,
                0.158405,
                0.0836387,
                -0.275374,
                -0.321684,
                -0.0296003,
                -0.030043,
                0.0935851,
                -0.715871,
                0.0685764,
                0.0603631,
                -0.425069,
                0.260236,
                -0.133577,
                -0.0717806,
                0.765817,
                0.261513,
                0.134578,
                -0.0241665,
                0.0561545,
                0.513421,
                0.161348,
                0.106725,
                0.284272,
                0.269552,
                -0.102658,
                0.0791409,
                -0.339555,
                -0.029258,
                -0.0583538,
                -0.0600777,
                0.0740934,
                -0.480811,
                0.398087,
                0.261497,
                -0.280619,
                -0.611932,
                0.0560145,
                -0.0420474,
                -0.0777257,
                -0.1303,
                -0.223936,
                -0.0536649,
                -0.0286787,
                0.238386,
                0.108185,
                0.0095477,
                0.472208,
                0.509729,
                0.0319522,
                -0.0893342,
                0.262475,
                -0.32289,
                0.0372944,
                0.138803,
                0.104745,
                -0.0122696,
                -0.0725743,
                0.598558,
                0.187031,
                0.0111546,
                0.193724,
                0.035535,
                -0.0219774,
                -0.0845665,
                0.00646757,
                0.00488729,
                0.0426829,
                -0.270173,
                -0.324611,
                0.0461621,
                -0.0124442,
                -0.354285,
                -0.257105,
                0.0700201,
                -0.210196,
                0.447731,
                0.163871,
                0.0376595,
                -0.167401,
                0.140717,
                0.467225,
                -0.0601171,
                -0.313023,
                0.324464,
                -0.259757,
                0.0484359,
                0.205404,
                0.138992,
                0.0135709,
                -0.0190009,
                -0.028836,
                0.195451,
                0.0520291,
                0.0627289,
                0.126586,
                0.69564,
                -0.11726,
                0.00783338,
                0.276058,
                -0.113466,
                -0.0767315,
                -0.049724,
                -0.141149,
                -0.23721,
                -0.149516,
                -0.0800813,
                -0.188334,
                0.00754049,
                -0.0569097,
                -0.0424766,
                0.368453,
                1.00401,
                -0.0544857,
                0.0069732,
                0.159611,
                0.688292,
                0.177882,
                -0.0241419,
                -0.381624,
                0.0394874,
                -0.0501272,
                -0.0221456,
                -0.317851,
                1.95571,
                -0.725257,
                -0.103687,
                0.0852516,
                -0.820666,
                0.857452,
                -0.010004,
                -2.72911,
                -0.346595,
                -0.0673731,
                0.0168964,
                0.565017,
                -0.0113564,
                -0.122364,
                -0.030595,
                0.0210482,
                -0.0855753,
                -0.276391,
                -0.14845,
                0.0711217,
                -0.168441,
                0.0118759,
                0.00237999,
                -0.24653,
                0.598742,
                0.245758,
                -0.0141942,
                -0.0199362,
                1.13933,
                -0.518504,
                0.0869627,
                0.494207,
                0.419483,
                0.0212378,
                -3.51177e-05,
                -0.437036,
                0.512104,
                -0.0104424,
                -0.0626219,
                -0.172374,
                1.11822,
                -0.287486,
                0.00128431,
                0.285169,
                0.655887,
                -0.215747,
                0.041671,
                -0.416919,
                -0.116865,
                -0.0668214,
                -0.0494982,
                0.101788,
                -0.148571,
                0.317637,
                0.547897,
                0.128005,
                -0.539899,
                0.287258,
                -0.0168172,
                -0.208091,
                -0.518988,
                -0.300971,
                -0.0584031,
                -0.316358,
                -0.600975,
                -0.528121,
                0.082277,
                -0.218548,
                0.00764157,
                0.0335102,
                -0.0296146,
                0.602485,
                -0.0526525,
                -0.0282477,
                0.00867907,
                -0.0593392,
                -0.153892,
                0.0109497,
                0.0548725,
                -0.0453123,
                0.256377,
                0.00111662,
                0.280947,
                0.160178,
                0.165297,
                0.0295122,
                0.087978,
                0.113066,
                -0.496476,
                -0.0757695,
                0.0249811,
                -0.973628,
                -0.0300608,
                0.089834,
                0.0266559,
                0.688733,
                -0.00651964,
                0.0548231,
                0.0128197,
                -0.0746041,
                -0.484185,
                0.0574366,
                0.0770934,
                -0.366938,
                -0.203417,
                0.0362083,
                -0.0138758,
                0.161152,
                -0.0500332,
                0.343226,
                0.014504,
                -0.0526825,
                -0.226381,
                -0.649293,
                0.965529,
                -0.22863,
                0.0352348,
                0.0466374,
                0.0183022,
                0.280001,
                -0.325199,
                0.352068,
                0.0274788,
                -0.135091,
                0.590627,
                0.0292091,
                -0.0745379,
                0.803616,
                0.347188,
                -0.00872524,
                -0.036948,
                0.00732432,
                0.388192,
                0.224937,
                -0.839766,
                -0.857849,
                -0.0386631,
                0.235794,
                0.132257,
                -0.625737,
                -0.0907593,
                0.10396,
                0.0174307,
                0.0244621,
                0.0898706,
                -0.0787948,
                0.0218145,
                0.386044,
                -0.331525,
                -0.202604,
                0.0590473,
                -0.542726,
                -0.156629,
                -0.125795,
                -0.014684,
                0.128973,
                0.110019,
                0.139647,
                0.129835,
                0.0450404,
                -0.116976,
                -0.165142,
                -0.323679,
                -0.385906,
                0.256029,
                -0.0026299,
                -0.0405921,
                0.516222,
                0.287861,
                0.202062,
                -0.0394529,
                -0.324168,
                -0.29043,
                -0.0553482,
                0.166292,
                -0.241633,
                -0.211076,
                -0.0543211,
                -0.043529,
                -0.124967,
                0.580947,
                -0.177048,
                -0.518574,
                -0.127469,
                0.0767502,
                -0.45717,
                -0.0454256,
                -0.365706,
                -0.162421,
                0.0188287,
                0.032431,
                -0.096768,
                -0.361055,
                -0.255034,
                0.0467363,
                -0.336234,
                -0.758814,
                -0.010203,
                -0.0140185,
                -0.424347,
                -0.287561,
                0.136385,
                -0.0226755,
                0.368976,
                -0.180398,
                -0.613812,
                0.0150365,
                -0.212049,
                0.308259,
                0.826016,
                -0.50714,
                0.55561,
                0.235696,
                0.0422616,
                0.0334743,
                -0.123569,
                0.112952,
                -0.11609,
                -0.0825134,
                0.0316261,
                0.262978,
                0.317034,
                0.0152991,
                0.271381,
                -0.0424183,
                0.0249835,
                -0.175437,
                -0.0280791,
                -0.0639931,
                -0.0183705,
                -0.0394435,
                -0.217265,
                0.150661,
                -0.187455,
                -0.106306,
                0.331971,
                0.259468,
                -0.0351913,
                -0.053549,
                0.0539016,
                -0.0258266,
                -0.0428697,
                0.0239544,
                0.17266,
                0.512978,
                0.0359257,
                -0.0416486,
                0.41659,
                0.108311,
                0.00778909,
                -0.0823223,
                -0.589377,
                -0.0347442,
                -0.590677,
                -0.0160066,
                0.307323,
                0.287497,
                0.140401,
                0.018232,
                0.17459,
                -0.280356,
                -0.180578,
                -0.00220404,
                -0.561767,
                0.118274,
                0.274842,
                -0.0289013,
                -0.0377565,
                0.0346339,
                0.0264562,
                -0.00549729,
                0.0290068,
                0.128487,
                0.0708313,
                -0.0774121,
                -0.0201427,
                -0.291608,
                -0.211377,
                -0.149317,
                -0.444718,
                -0.125405,
                0.278074,
                -0.103559,
                0.268463,
                0.0624696,
                0.064984,
                -0.0805291,
                0.0656054,
                -0.33293,
                -0.0138146,
                -0.16017,
                -0.364281,
                -0.238859,
                -0.0640189,
                0.128267,
                -0.136807,
                -0.343025,
                -0.00420108,
                -0.174525,
                0.116907,
                0.114605,
                -0.164276,
                -0.017335,
                -0.216702,
                0.100404,
                0.415557,
                -0.135682,
                0.0630373,
                -0.0181959,
                0.0307484,
                0.00635471,
                -0.171512,
                -0.108735,
                -0.227019,
                0.0887683,
                0.4526,
                -0.0924788,
                -0.304209,
                -0.0772177,
                -0.182067,
                -0.144505,
                -0.029789,
                -0.0488719,
                0.185862,
                -0.155039,
                -0.888403,
                -0.0225743,
                0.492749,
                0.189955,
                1.31461,
                -0.716151,
                0.0959947,
                0.0527265,
                0.162506,
                -0.0269956,
                0.0645609,
                -0.362159,
                -0.0428469,
                -0.123238,
                0.39015,
                0.207154,
                0.0132418,
                0.031107,
                0.494843,
                -0.0387199,
                -0.0162247,
                -0.107496,
                -0.0385584,
                0.288684,
                -0.18274,
                -0.0406682,
                0.304396,
                -0.203034,
                -0.0153724,
                -0.0496303,
                -0.121208,
                0.0773837,
                -0.0368115,
                -0.0218575,
                0.0661405,
                -0.0613405,
                0.129991,
                -0.302185,
                -0.0104233,
                0.0328667,
                -0.0588826,
                0.267447,
                0.164766,
                0.0267888,
                -0.00792172,
                0.138881,
                -0.102381,
                0.438395,
                0.550996,
                -0.00103572,
                -0.190059,
                0.153014,
                -0.316675,
                0.195504,
                -0.173823,
                0.18012,
                0.0339461,
                -0.0508205,
                -0.126742,
                -0.339806,
                0.0982641,
                0.151091,
                -0.149893,
                0.173477,
                -0.00485351,
                -0.0101341,
                0.409451,
                0.0221671,
                0.0315109,
                -0.0727194,
                0.102744,
                0.513149,
                -0.346117,
                -0.289203,
                0.0968785,
                -0.141521,
                0.312739,
                0.0570574,
                -0.437794,
                0.098765,
                -0.144558,
                -0.0560099,
                0.185961,
                -0.108065,
                0.0802685,
                -0.269641,
                -0.321361,
                0.363141,
                0.505633,
                -0.0262626,
                0.364541,
                0.126557,
                -0.142399,
                0.0981919,
                -0.0316818,
                0.0339082,
                0.321553,
                0.11248,
                0.136837,
                0.347622,
                0.0548426,
                -0.155672,
                0.30498,
                0.187089,
                0.00242611,
                0.0131111,
                -0.234388,
                -0.256372,
                -0.320202,
                -0.0903791,
                -0.139204,
                -0.0676342,
                -1.77667,
                0.266592,
                0.0638687,
                -0.137936,
                -0.0248994,
                0.177376,
                -0.0375182,
                0.222391,
                -0.926512,
                -0.147241,
                0.0682445,
                0.317386,
                -0.0806342,
                -0.0542106,
                0.228164,
                0.0519213,
                0.0245283,
                -0.0689054,
                -0.384429,
                -0.200514,
                -0.181386,
                0.0384128,
                -0.357119,
                -0.0235368,
                0.173608,
                -0.0390768,
                0.0519657,
                -0.501052,
                0.0361019,
                -0.0951891,
                -0.113487,
                -0.170711,
                -0.0268075,
                -0.0912651,
                -0.12695,
                0.178079,
                0.066887,
                0.290601,
                0.252609,
                0.212458,
                -0.0427368,
                0.10145,
                0.194034,
                0.175532,
                0.42474,
                -0.0104487,
                -0.0673487,
                -0.149412,
                0.563599,
                1.41051,
                -0.200603,
                0.0817639,
                0.409659,
                -0.121912,
                -0.00757078,
                -0.0489755,
                0.080179,
                -0.0581071,
                -0.0237099,
                0.143908,
                -0.300473,
                -0.0932972,
                0.0676316,
                -0.236402,
                -0.13963,
                -0.0298528,
                0.0663367,
                0.350645,
                -0.166334,
                -0.0639287,
                0.064565,
                -0.0606455,
                0.641784,
                0.132177,
                -0.425976,
                0.175256,
                -0.100922,
                -0.0307333,
                0.327092,
                0.442357,
                -0.0155249,
                0.053586,
                0.199848,
                0.230861,
                -0.108271,
                -0.10748,
                -0.15611,
                -0.0904444,
                -0.0538366,
                -0.0220623,
                -0.258764,
                -0.0392882,
                0.126868,
                -0.0567778,
                -0.434895,
                0.325295,
                -0.00465006,
                0.0312676,
                0.356876,
                0.0799179,
                -0.13685,
                0.0591802,
                -0.394363,
                0.57984,
                0.0241643,
                -0.205147,
                -0.0955564,
                0.208571,
                -0.0260396,
                -0.00976434,
                -0.105086,
                0.191767,
                0.0120736,
                0.0121383,
                0.0290294,
                0.482004,
                0.146199,
                0.0227092,
                0.0230387,
                -0.733795,
                -0.00745387,
                0.152076,
                -0.923542,
                -0.586814,
                0.15898,
                0.0203658,
                0.122719,
                -0.321003,
                -0.0586547,
                0.0881488,
                0.402839,
                0.325805,
                0.307075,
                -0.0187083,
                0.451774,
                0.357514,
                -0.0755235,
                0.0121626,
                -0.0182845,
                0.836859,
                0.0262825,
                -0.0276328,
                -0.116151,
                -0.107171,
                -0.458022,
                -0.124289,
                -1.05226,
                -0.0762304,
                -0.0185819,
                0.109169,
                0.16147,
                -0.232443,
                -0.045469,
                -0.00184479,
                -0.91426,
                -0.0731252,
                0.0688528,
                0.0151211,
                0.454808,
                0.146583,
                -0.0865993,
                0.0316867,
                0.0694958,
                0.155886,
                0.603091,
                -0.123618,
                -0.228495,
                -0.0138564,
                -0.411858,
                -0.304074,
                0.167591,
                -0.00340052,
                0.624224,
                -0.0411467,
                -0.177675,
                0.662093,
                -0.116808,
                -0.0739383,
                0.144581,
                -0.169242,
                -0.436905,
                0.0973258,
                -0.802117,
                -0.0659093,
                -0.234611,
                -0.0537232,
                0.216239,
                0.261623,
                -0.108367,
                -0.0347958,
                0.180271,
                0.194002,
                -0.0715887,
                -0.156591,
                -0.0420353,
                0.181898,
                0.167846,
                -0.10408,
                -0.0198963,
                -0.280446,
                0.0265859,
                0.081086,
                0.0797744,
                -0.13722,
                -0.811999,
                -0.149187,
                0.312394,
                -0.121615,
                -0.0605503,
                0.0987294,
                0.0517254,
                -0.0409176,
                0.458547,
                -0.171833,
                -0.36475,
                0.218953,
                0.178396,
                -0.010149,
                0.15878,
                -0.0457758,
                0.248796,
                -0.137191,
                -0.34319,
                -0.0592458,
                -0.408636,
                -0.267935,
                0.367588,
                0.133007,
                0.260038,
                -0.0220251,
                0.0579654,
                0.0512626,
                -0.196235,
                -0.0458014,
                -0.283252,
                -0.245871,
                -0.566984,
                -0.0168926,
                -0.0501789,
                -0.0904239,
                -0.080884,
                -0.866599,
                0.148491,
                -0.0943028,
                0.0336424,
                0.0727426,
                0.10829,
                0.139924,
                0.373455,
                -0.129613,
                -0.360695,
                0.168443,
                -0.698892,
                -0.611859,
                -0.0779927,
                0.0105689,
                -0.209311,
                0.19036,
                -0.408957,
                0.120284,
                -0.137043,
                -0.196608,
                -0.311158,
                0.134783,
                -0.120889,
                0.172917,
                -0.222093,
                -0.0250111,
                -0.123976,
                0.0328689,
                0.0767783,
                0.429843,
                0.11637,
                -0.0109472,
                -0.189619,
                0.498938,
                -0.139037,
                -0.0150957,
                -0.156294,
                0.126038,
                0.0848811,
                -0.00105562,
                -0.365579,
                -0.236551,
                -0.0652712,
                -0.0564246,
                -0.206502,
                0.268847,
                0.0809343,
                -0.00828456,
                0.590402,
                -0.00495136,
                0.118041,
                0.0856417,
                -0.138536,
                -0.486595,
                -0.480873,
                -0.169018,
                -0.0802523,
                0.411955,
                0.790546,
                0.124869,
                0.747464,
                0.302965,
                0.231007,
                -0.0409971,
                -0.177167,
                0.11528,
                -0.0421104,
                -0.0555217,
                0.439192,
                0.0325991,
                0.119466,
                0.171665,
                -0.15241,
                0.231479,
                -0.056178,
