{"layers": [{"type": "input", "name": "input", "size": 12}, {"bias": 1, "type": "blstm", "name": "blstm_level_0", "size": 128}, {"bias": 1, "type": "feedforward_tanh", "name": "subsample_level_1", "size": 64}, {"bias": 1, "type": "blstm", "name": "blstm_level_1", "size": 128}, {"bias": 1, "type": "feedforward_tanh", "name": "subsample_level_2", "size": 128}, {"bias": 1, "type": "softmax", "name": "output", "size": 65}, {"type": "multiclass_classification", "name": "postoutput", "size": 65}], "meta": {"section": "template"}, "weights": {"output": {"input": [0.0437527, 0.350626, -0.763424, -0.813042, -0.0955877, -0.245917, -0.145129, 0.104595, 0.322607, -0.362518, -0.491474, 0.213653, 0.322125, -0.272158, 0.589451, -0.122258, 0.614598, 0.145777, 0.167594, 0.714545, 0.210544, 0.0511176, -0.283544, -0.5524, -0.118928, -0.0471349, -0.387652, 0.112741, -0.139008, -0.335436, -0.124066, 0.0350304, -0.390594, 0.0853713, 0.442622, 0.0938001, -0.831822, 0.278294, -0.369183, 0.210428, -0.0362859, -0.015819, 0.215674, -0.117482, 0.0777695, 0.0524913, 0.171292, -0.0157896, -0.132483, -0.319571, 0.272282, -0.00417473, 0.317703, 0.027021, 0.317085, -0.0881996, -0.481886, 0.536116, -0.268924, 0.113846, -0.2401, 0.00964082, 0.260095, 0.372263, -0.361399, 0.0688886, 0.850549, 0.266023, 0.21375, -0.118043, -0.216542, -0.466377, -0.158304, 0.131483, 0.213193, -0.117134, -0.171777, -0.475079, 0.398935, 0.200726, -0.444794, -0.753223, 0.156381, 0.163784, 0.462035, 0.567756, 0.0766047, 0.230943, -0.380419, -0.325592, 0.566105, -0.460937, -0.0532077, -0.0995412, -0.120306, -0.353279, -0.259629, 0.710647, 0.159637, -0.331697, 0.318303, -0.297155, 0.0466023, 0.221841, -0.173301, -0.926187, 0.358329, -0.314222, -0.729253, 0.1628, -0.997609, -0.248712, 0.107437, 0.190348, -0.112129, -0.0905445, -0.168547, -0.569655, 0.182731, 0.00809351, -0.450486, -0.380199, 0.5488, -0.110698, 0.131981, 0.262455, 0.529503, 0.026276, 0.364956, 0.265273, 0.26594, -0.00559577, -0.340231, 0.748022, -0.0705222, 0.314324, -0.692957, -0.443524, -0.0174006, 0.370072, -0.0866323, -0.499663, -0.243341, -0.0895313, 0.224461, 0.477638, 0.435278, 0.537934, 0.39423, -0.0993876, -0.042028, 0.254081, 0.652261, 0.0284741, 0.102136, 0.0876241, -0.469188, 0.501253, -0.0619876, 0.10819, -0.182975, -0.920799, 0.249956, -0.111889, 0.425139, 0.186429, -0.0527261, 0.792891, -0.0445479, -0.00132437, -0.189607, 0.0659908, 0.251967, -1.06109, 0.0915959, -0.0777865, -0.301796, -0.301913, -0.193738, -0.199467, 0.801093, -0.74126, 0.160966, 0.274937, -0.312505, 0.216286, 0.17365, 0.182648, 0.0262259, -0.285132, -0.00409238, 0.0190272, -0.509264, 0.106774, -0.293578, -0.369116, 1.08569, -0.352455, -0.396023, 0.251227, 0.201162, -0.143994, -0.494566, -0.104242, -0.372596, 0.108486, -0.104712, 0.729818, 0.171208, -1.12401, 0.393955, -0.498793, -0.467963, 0.396138, -0.13427, -0.263721, 0.182049, 0.535415, 0.218045, -0.425076, 0.435142, -0.530719, 0.333073, 0.258435, 0.100427, -0.259054, 0.0401323, 0.452583, -0.149268, -0.479882, -0.0764688, 0.561358, -0.295634, -0.350308, -0.31178, -0.182658, -0.368649, -0.315661, 0.243004, -0.33711, 0.453297, 0.079889, 0.163677, -0.065939, 0.471346, 0.0712764, -0.409887, -0.282662, -0.624257, 0.41432, 0.341696, 0.477034, 0.302037, 0.207502, 0.25199, -0.056503, 0.203998, 0.154958, -0.301608, -0.119425, 0.113866, -0.158974, 0.0762344, 0.165683, 0.88537, 0.457701, 0.249169, 0.0107837, 0.320114, -0.0846466, 0.414214, 0.289885, -0.00569049, 0.119114, -0.262078, 0.209936, 0.398738, 0.112996, -0.370483, -0.139989, -0.627015, -0.199467, -0.420802, 0.328968, -0.132839, 0.403817, -0.298527, 0.0703377, -0.125119, -0.0293313, 0.46011, 0.170698, -0.362673, 0.295969, -0.508248, 0.157326, -0.204352, 0.132979, -0.43215, -0.164124, 0.541555, 0.519255, -0.144657, -0.305966, -0.168788, -0.198839, 0.386361, 0.228669, 0.215563, 0.202941, -0.030108, 0.671904, -0.439626, 0.105898, -0.439923, -0.0399395, 0.161892, -0.680006, 0.360132, 0.41557, -0.59333, -0.30705, 0.395897, -0.470616, -0.241859, -0.347308, -0.363838, -0.398713, 0.165816, 0.32393, 0.0911214, -0.0777103, 0.200961, -0.66369, 0.393048, -0.123307, -0.567967, -0.67006, 0.0950511, -0.169539, 0.284427, 0.20445, 0.285238, 0.00706884, -0.35847, 0.903524, 0.272408, 0.00758003, -0.374046, 0.0361926, 0.127608, -0.00369383, -0.127898, -0.429781, -0.100949, -0.424473, -0.600916, -0.185524, 0.614603, -0.325218, 0.210886, -0.786804, 0.0452416, 0.0014912, 0.348524, -0.147897, -1.1135, -0.456685, -0.441637, -0.349904, 0.225759, 0.437081, 0.0507769, -0.623972, -0.137077, 0.433285, -0.00587575, -0.107922, 0.0579155, 0.0693973, 0.101095, 0.21404, 0.208246, -0.197019, 0.259291, 0.468128, -0.364271, 0.203929, 0.0219703, 0.791788, -0.0669533, -0.130394, -0.510803, -0.505159, 0.60782, 0.186237, 0.062035, -0.327467, 0.215286, -0.0166004, -0.0837134, 0.113814, 0.598275, 0.198553, 0.04093, -0.100525, 0.0608636, 0.0787517, -0.00891409, 0.0618085, 0.355251, -0.226964, -0.0119259, 0.772509, -0.0210282, 0.025725, -0.706795, 0.154306, 0.0324154, 0.145501, 0.316822, 0.332947, 0.323812, -0.107133, 0.0198122, -0.62374, -0.0527578, 0.504009, 0.109754, -0.172464, -0.528336, -0.116624, -0.38868, -0.133805, 0.199856, -0.0522894, 0.613695, 0.345462, -0.0236573, 0.40606, -0.132324, 0.035346, -0.469109, 0.00795433, 0.384278, -0.359821, -0.0709778, -0.266915, -0.184554, -0.0168414, 0.079807, 0.0469438, 0.245623, 0.177141, -0.219674, -0.133399, 0.237977, -0.0138215, -0.340609, -0.184584, 0.00958419, 0.101849, 0.28322, 0.429402, 0.280808, -0.0887345, 0.469005, -0.525337, 0.405245, 0.380682, 0.0572827, -0.0193284, -0.147325, -0.189908, -1.22951, 0.0486258, 0.360935, -0.472799, 0.352193, 0.436752, -0.0850478, -0.510106, 0.289744, -0.993947, -0.00525444, -0.400025, 0.259508, 0.00685106, -0.0470515, -0.074227, -0.474209, 0.339156, -0.539999, -0.139283, 0.498787, 0.121128, 0.468119, -0.263373, -0.177067, 0.641324, 0.17194, -0.488427, -0.358798, -0.211683, -0.0664003, 0.1797, 0.182039, -0.0885655, -0.0892927, -0.805537, 0.815842, -0.104012, 0.196017, 0.145382, -0.0692104, -0.646883, 0.335951, 1.11552, -0.201801, -0.533552, 0.488018, 1.31697, -0.358541, 0.384331, 0.0406604, -0.697396, -0.256058, -0.317191, 0.109112, 0.241892, 0.0957745, -0.0455987, 0.32566, -0.495632, -0.168198, 0.773911, 0.298708, -0.109096, 0.0873437, -0.0506958, -0.0411553, -0.411598, 0.342666, 0.058966, -0.358308, 0.283342, 0.115105, -0.631597, 0.371116, 0.102637, -0.115445, 0.422558, -0.4404, -0.0396574, 0.568361, 0.162029, 0.703668, -0.440046, 0.127552, 0.136467, -0.224493, -0.125624, -0.325364, 0.241832, 0.282354, 0.43429, 0.215692, 0.292616, 0.167302, -0.11393, -0.235128, -0.760985, -1.36983, -0.473915, 0.104687, 0.187701, 0.217048, -0.0898747, -0.279, 0.0751259, 0.232167, 0.879409, 0.0562433, -0.494249, 0.181058, 0.152008, -0.617567, -0.285902, -0.00792501, 0.411765, -0.258157, -0.344741, 0.509197, 0.253033, -0.628355, 0.597269, 0.167995, 0.0960244, 0.0654218, -0.318804, -0.56115, 0.888088, 0.437968, -0.473009, 0.628095, 0.491408, 0.241744, 1.05552, -0.412786, 0.186503, -0.197235, -0.181544, -0.0779776, 0.715114, 0.221221, -0.386923, 0.823716, -0.0704416, 0.173549, -0.606232, 0.16224, -0.112258, -0.0699723, -0.15548, 0.397216, 0.136612, 0.192652, 0.130024, -0.109962, -0.305933, 0.279569, 0.174072, -0.65618, 0.833188, -0.0772184, -0.842959, 0.424741, 0.543288, -0.149293, 0.330802, 0.73071, -0.780795, -0.0221376, -0.0440808, 0.338512, 0.628927, 0.182036, -0.16232, -0.164189, -0.166221, -0.118283, 0.959657, -0.750158, -0.487471, -0.217941, -0.203206, 0.195699, -0.0261118, 0.0419937, -0.0964589, 0.232271, 0.0657036, 0.228206, 0.241369, 0.412556, 0.00460528, -0.406131, 0.024233, -0.613903, 0.338402, 0.0697602, -0.0617352, 0.21038, -0.102599, 0.323894, 0.0862602, 0.0898164, 0.177258, -0.26964, -0.216578, 0.105255, -0.252391, -0.556316, 0.499909, -0.360141, 0.631973, 0.240946, 0.242265, -0.354992, -0.220998, -0.297238, 0.302648, 0.743215, 0.678538, -0.142364, 0.478024, -0.168483, -0.733741, -0.537068, -1.20879, 0.127913, 0.412962, -0.1779, -0.508251, 0.300239, 0.40179, -0.271158, -0.343766, -0.968671, -0.246159, 0.0522669, -0.293679, 0.688301, -0.680403, -0.405433, 0.143381, -0.634411, 0.0710833, 0.228047, -0.492392, 0.255286, 0.237932, -0.739611, -0.206464, -0.60902, 0.186341, 0.0964861, -0.295116, 0.855609, 0.151543, -0.206713, 0.206518, 0.274843, -0.150863, -0.343595, -0.088358, 0.785834, 0.0545939, -0.0143885, 0.504202, -0.208154, -0.386006, 0.468433, -0.0590038, 0.158074, -0.30338, 0.355878, 0.000211121, 0.431995, 0.0459761, -0.120933, -0.415698, -0.0376295, -0.0463798, 0.254067, 0.177661, -0.0339949, -0.268069, 0.0123422, -0.0561309, 0.464366, 0.608464, 0.518162, -0.184765, 0.662529, 0.148557, -0.539678, 0.255116, 0.877327, 0.186384, 0.116415, 0.182099, -0.0601333, 0.97944, -0.271376, 0.02572, 0.425185, 0.316577, -0.323324, 0.221597, -0.0215328, -0.937562, -0.477432, -0.215123, 0.339879, -0.167275, 0.336765, -0.551001, 0.197727, -0.908995, -0.106227, 0.195776, 0.417052, 0.0182517, 0.0591754, -0.162678, -0.120586, 0.0572856, -0.109612, -0.941873, 0.521309, 0.145462, -0.20668, -0.151897, 0.0481574, -0.0156616, 0.233778, -0.458468, -0.0905392, 0.496197, -0.298092, 0.0854434, 0.621535, 0.0204884, 0.196908, 0.299532, 0.0146591, 0.797107, -0.181656, 0.172808, 0.357999, 0.828122, 0.572565, -1.38478, -0.384623, -0.323987, -0.332498, -0.668236, -0.57216, -0.373948, -0.202693, 0.0747365, -0.120179, 0.652542, -0.645892, -0.112419, -0.0417425, -0.0901228, -0.287459, 0.000330704, 0.0376296, -0.209836, -0.377196, 0.624855, -0.202864, 0.319833, -0.0442432, -0.488067, 0.455191, 0.00315006, -0.0876723, 1.0727, -0.0616958, 0.40585, 0.291161, -0.679164, -0.447073, 0.148601, 0.234231, 0.516579, 0.790984, 0.0955037, 0.102884, 1.09182, -0.636243, -0.204321, 0.345065, -0.496079, 0.313845, -0.006593, 0.0186475, 0.185556, 0.336563, 0.260781, -0.0147835, -0.261377, -0.155436, 0.292371, 0.545466, -0.0723509, -0.526312, -0.337018, 0.257083, -0.0720146, 0.411407, -0.135761, 0.210336, 0.454198, -0.348359, 0.371253, 0.558318, -0.421284, 0.25295, 0.178481, 0.055693, -0.415711, 0.210913, -0.34339, 0.122631, -0.146244, 0.565529, 0.385841, -0.161386, -0.403371, 0.231213, -0.428086, 0.0724575, 0.42154, 0.145869, -0.510884, -0.0419682, -0.327722, -0.261518, -0.00571972, 0.265332, -0.517234, 1.08472, 0.289845, -0.816566, -0.0232797, 0.128275, 0.466953, 0.430715, 0.719833, 0.582704, 0.330723, -0.0949297, -0.564969, 0.501731, 0.317966, -0.438529, -0.0474343, 0.135003, 0.21911, 0.464361, -0.230601, -0.259669, 0.285623, -0.128655, 0.103616, 0.0992765, 0.0116003, -0.331669, 0.355031, -0.25342, -0.470546, 0.192678, 0.351505, 0.0429729, 0.265925, 0.189907, -0.504766, 0.243352, 0.441209, -0.209424, 0.142531, 0.788886, 0.0810339, 0.0196228, -0.729203, 0.197127, 0.0946866, -0.700688, 0.557371, 0.362518, -0.447126, -0.707693, 0.179768, 0.467445, 0.0777518, -0.522803, -0.144319, -0.366106, -0.160002, -0.0305689, -0.600216, 0.122681, 0.0792235, -0.268817, 0.0527625, -0.0953368, 0.598611, 0.0898135, 0.186939, -0.227819, -0.319202, 0.379676, 0.225117, 0.570491, -0.564569, -0.245607, -0.684972, -0.241959, 0.367086, -0.0755098, -0.0106998, 0.732209, -0.0512158, -0.670597, -0.579563, 0.0439147, 0.479641, -0.314371, -0.352547, 0.2334, 0.431323, -0.0469104, 0.245284, -0.396807, 0.204929, 0.578544, 0.23713, 0.373522, -0.496534, -0.411786, -0.393803, 0.131673, -0.238671, -0.163766, 0.259675, 0.522863, 0.130664, 0.025062, -0.91894, 0.192625, 0.454147, -0.385246, 0.279664, 0.213694, -0.077607, -0.00746996, -0.806634, 0.40161, 0.156532, 0.286673, -0.412626, -0.467224, -0.181518, 0.526957, 0.551318, -0.18708, 0.261656, 0.335122, 0.348763, -0.0553709, 0.0664944, 0.309976, -0.20703, 0.141139, 0.441262, 0.781457, 0.354664, 0.0280948, -0.676196, -0.146617, 0.427869, 0.203986, 0.435867, 0.761624, -0.025747, -0.755008, 0.0291636, 0.583692, -0.144344, -0.0956457, 0.0617695, -0.117703, -0.750314, -0.0400009, 0.00174465, -0.505934, -0.144898, -0.0830206, -0.303039, 0.588477, 0.420285, 0.218015, -0.0830161, -0.241114, 0.272982, 0.423558, 0.0424386, 0.0140954, -0.389665, -0.140067, 0.364571, -0.568001, 0.409161, -0.359138, 0.0854435, 0.28644, -0.216946, 0.187344, -0.108427, 0.00747039, -0.201233, -0.161543, 0.462473, -0.327572, -0.227468, -0.0164691, 0.0492618, 0.358067, -0.509407, -0.325498, -0.618206, 0.0233373, -0.507573, -0.368673, 0.54939, 0.141964, 0.0674875, -0.0974789, -0.30889, 0.352995, 0.344568, -0.277181, 0.465813, 0.241811, 0.0992718, 0.00748924, -0.0822138, -0.251655, 0.155264, 0.557983, -0.441962, 0.307958, 0.430322, -0.41886, 0.0455831, 0.245014, -0.067397, 0.0265215, -0.207318, 0.000931683, -0.31768, -0.046305, 0.352444, 0.150064, -0.158127, -0.475123, -0.487903, -0.100655, -0.597006, -0.163466, 0.258571, 0.641402, 0.682142, 0.397549, 0.445507, 0.00123186, -0.0753896, 0.0486293, 0.50567, -0.321853, 0.135084, 0.501295, 0.779354, -0.176689, -0.472251, -0.41356, -0.302247, -0.249365, 0.442928, -0.197272, 0.929473, -0.226521, 0.504847, 0.101663, -0.187771, 0.367378, 0.154381, 0.202828, 0.28947, 0.0159601, -0.153472, -0.0429189, -0.061986, -0.171836, -0.362861, -0.739568, 0.249679, -0.236326, 0.174404, 0.43204, -0.333523, -0.381667, 0.281349, -0.0892363, 0.220897, -0.782973, 0.11779, -0.290335, -0.284367, -0.362404, 0.00462681, -0.0304811, -0.690594, 0.0718504, -0.104185, -0.327936, 0.00644835, -0.262501, 0.273091, -0.300722, -0.163912, 0.0427854, 0.0419994, 0.380377, -0.0502917, 0.112253, -0.0541154, -0.150167, -0.172428, 0.153779, -0.106749, -0.437192, -0.130337, -0.51344, -0.131819, -0.705647, 0.196773, -0.0403852, -0.572658, 0.0432451, -0.409416, 0.126926, 0.0844006, -0.549642, -0.00758104, 0.588058, -0.133897, 0.0616944, -0.840449, -0.505537, -0.406051, -0.105468, 0.128499, 0.543746, -0.52559, -0.301771, 0.176078, 0.0725619, -0.142255, 0.27764, 0.528033, -0.0153873, 0.318809, -0.5065, -0.0674025, -0.248434, -0.0946733, 0.369826, -0.488625, 0.130819, -0.118354, -0.183672, 0.308822, 0.66294, -0.145585, -0.36516, -0.453898, -0.138613, 0.465004, 0.0213716, 0.255665, -0.336734, -0.521424, 0.247716, -0.6575, -0.474315, 0.656717, -0.195385, -0.116468, 0.161547, 0.244541, 0.203088, -0.151166, 0.607973, 0.217011, -0.00478873, 0.633532, 0.157231, -0.0218929, 0.0291689, -0.412224, -0.222578, 0.0925916, 0.535214, 0.429312, -0.141668, -0.372449, -0.639342, -0.149806, 0.295203, 0.598282, 0.330536, -0.29576, 0.302199, 0.205487, 0.147308, -0.175202, 0.063657, -0.633744, 0.342384, 0.447901, 0.585807, 0.329741, -0.430651, -0.0452539, 0.230308, 0.0644528, -0.143599, 0.0586591, 0.176225, -0.260311, -0.410438, 0.662088, 0.351641, 0.367478, 0.0630646, -0.0748715, -0.188435, 0.311511, 0.256598, 0.247238, -0.451498, 0.0595468, -0.21165, 0.128075, 0.656044, 0.451032, 0.278127, -0.210991, 0.138161, 0.468607, -0.176726, 0.170568, -0.362992, 0.101373, 0.333036, -0.279333, 0.0938597, 0.144395, -0.781016, 0.292294, -0.177381, -0.365224, -0.783912, -0.269227, 0.0266359, 0.139928, -0.0553252, 0.273626, -0.444808, -0.123246, 0.311173, -0.562485, -0.233755, -0.813162, 0.396637, -0.129639, -0.273919, -0.526558, 0.0406523, 0.468879, 0.0511251, -0.137809, -0.229427, 0.56267, 0.135132, 0.214809, -0.140312, 0.76169, 0.244865, -0.0020379, -0.186429, 0.0305603, -0.647945, -0.165427, 0.0269352, -0.416658, 0.120865, 0.0188425, -0.255993, 0.115124, -0.375127, -0.294713, 0.13442, 0.362975, -0.489226, 0.170935, 0.0330322, 0.23246, -0.121783, -0.262971, -0.499527, 0.353564, -0.0301614, 0.0768783, -0.14954, 0.0724259, -0.056245, -0.281561, 0.327028, 0.239018, 0.0646509, -0.436984, -0.208085, 0.368628, -0.142854, -0.316593, -0.415211, 0.277095, -0.514508, 0.53979, 0.041018, 0.428213, -0.17311, -0.33734, -0.178047, 0.259429, -0.251226, 0.175622, -0.0973716, 0.582102, 0.505361, 0.295217, -0.0220754, 0.15053, -0.171153, -0.115886, -0.0659155, -0.324163, 0.222166, -0.0259105, -0.154322, 0.546416, -0.668414, -0.358213, -0.0922153, 0.559843, 0.474572, 0.236758, 0.228276, 0.600834, -0.224285, 0.125587, -0.321507, -0.679047, -0.00972762, 0.24591, -0.013546, -0.233308, -0.726103, 0.265537, -0.0453707, -0.224307, -0.225993, 0.24376, 0.148766, 0.57913, -0.294503, 0.337766, 0.203505, -0.427704, -0.628474, -0.19616, 0.309414, -0.49503, -0.201611, -0.0710323, -0.607617, -0.18438, -0.108171, -0.00388624, 0.240206, -0.179343, -0.564079, -0.0156345, -0.39375, -0.133221, -0.173541, 0.290445, -0.0707599, -0.563692, 0.137427, -0.8279, 0.0967642, -0.426238, 0.389848, 0.029747, 0.293347, 0.398857, 0.437604, -0.0538788, -0.0585059, 0.338334, 0.12812, 0.0555478, 0.333247, 0.181797, 0.470222, -0.124779, 0.172856, -0.228344, -0.180569, -0.369345, -0.0457418, -0.0322564, 0.0328783, -0.234463, -0.287056, 0.541314, -0.123134, 0.229356, -0.86673, 0.137408, 0.0621972, 0.677181, 0.150049, -0.53847, -0.0377435, 0.167947, 0.26625, -0.419247, -0.0976956, -0.0526921, -0.358367, -0.161172, -0.0376436, -0.0159575, -0.149048, -0.363831, -0.0155901, 0.458557, -0.245077, 0.23325, -0.245686, -0.423124, -0.142549, -0.737515, -0.494299, 0.0170233, 0.119596, -0.290401, 0.350143, -0.000658229, -0.181325, -0.120935, -0.22771, -0.210444, -0.167346, -0.503904, -0.174117, 0.187845, 0.387885, -0.244326, -0.126452, -0.359397, -0.998173, 0.485322, 0.387352, 0.00816549, -0.343968, 0.206368, 0.364042, 0.195913, 0.316467, 0.00460988, -0.272861, 0.307141, 0.628348, -0.682132, -0.017697, 0.122142, 0.273055, -0.280097, 0.139557, 0.315635, -0.110148, 0.243913, 0.248453, -0.127866, -1.49223, -0.509315, -0.201636, 0.373283, 0.10216, 0.820478, 0.734032, 0.169112, 0.139518, 0.256049, 0.491176, -0.0390875, -0.250456, 0.383451, -0.0455694, 0.335904, 0.0883575, -0.465681, 0.118816, -0.277809, 0.172198, 0.375429, -0.15739, 0.581584, -0.305633, 0.0869643, -0.236859, 0.149803, -0.0317103, -1.02843, 0.216308, -0.102486, 0.320106, 0.229228, -0.045174, 0.0465412, 0.527416, -0.215692, 0.330281, 0.389988, -0.376795, -0.251827, -0.661227, 0.135882, -0.0758914, 0.103875, 0.130046, 0.500768, -0.222055, 1.29444, 0.272787, -0.0589502, -0.225634, -0.0714533, -0.29225, 0.0823049, -0.00358856, -0.434232, 0.173652, 0.970634, 0.136691, 0.0587421, 0.437127, -0.171769, 0.0195535, 0.257403, 0.252847, -0.114594, -0.495362, -0.398801, 0.800165, -0.103183, 0.792273, 0.0650271, -0.496887, -0.161157, 0.409491, 0.150889, -0.0929801, -0.0734689, 0.20237, -0.225231, -0.015625, 0.131706, -0.370764, -0.0663189, 0.0661968, -0.908722, 0.543566, 0.196404, 0.567868, -0.178448, -0.119322, -0.0125629, -0.522117, -0.267861, -0.129311, -0.110512, 0.232091, -0.0400471, 0.462804, -0.733738, 0.0025147, -0.156688, 0.240939, 0.29579, 0.408933, -0.673006, 0.850817, -0.838966, 0.341047, -0.020577, 0.00367087, 0.367108, -0.708773, 0.123289, 0.32129, -0.193208, -0.547764, -0.417016, -0.862446, 0.455183, -0.561249, 0.242268, -0.0654415, 0.640863, 0.361254, 0.427224, 0.899899, -0.0217376, -0.135934, -0.424605, 0.2741, 0.349731, -0.561431, 0.223735, 0.382172, -0.137936, -0.137804, -0.281575, -0.145488, 0.0729528, -0.173433, 0.940296, -0.391405, 0.132051, -0.365541, -0.376108, 0.560937, 0.733913, 0.409273, -0.403311, 0.207819, 0.374871, -0.264511, 0.435025, -0.114856, -0.00304619, 0.569912, 0.123171, 0.501596, 0.158176, -0.541808, 0.0194583, 0.371086, 0.0386469, -0.0294446, 0.170976, 0.542574, 0.0645534, -0.0326886, -0.0218862, -0.530216, 0.0801039, 0.722414, 0.425413, -0.0682083, 0.125442, -0.648452, 0.380736, 0.382011, -0.444601, 0.202135, 0.226107, -0.368854, 0.222287, 0.824654, -1.01206, -0.227732, -0.424189, -0.13971, 0.745796, 0.39562, 0.0207459, 0.755076, -0.263168, 0.156034, -0.139639, 0.246485, -0.0948094, 0.137221, -0.321726, 0.414702, -0.0427069, 0.596702, -0.446208, 0.404864, -0.161587, -0.774066, 0.405064, -0.340198, -0.00899614, -0.347461, -0.319867, -0.192427, 0.222697, 0.302976, -0.579329, 0.555391, -0.115754, 0.0435674, -0.200611, -0.407999, -0.0919535, 0.33704, -0.165538, -0.0200613, 0.0740558, 0.317441, -0.23887, 0.259029, -0.846151, -0.550834, 0.355987, 0.228332, 0.295524, 0.168572, 0.369587, -0.0485363, 0.295521, 0.107357, -0.0709671, -0.490384, 0.362443, 0.488427, -0.195063, 0.0937419, -0.00112963, 0.218328, 0.0928066, -0.294346, 0.449359, 0.0916075, -0.00342787, 0.375726, -0.100054, -1.21884, 0.404406, 0.251692, -0.0489422, 0.237474, 0.788795, 0.637565, 0.0466522, 0.634738, -0.118133, 0.533324, -0.0483076, 0.308894, 0.058367, 0.119614, 0.223933, 0.152302, -0.55611, -0.198549, 0.242418, 0.259379, 0.869407, 0.135183, 0.226517, 0.120035, 0.291166, -0.348412, 0.165954, -0.0329766, -0.810614, 0.132397, -0.168681, 0.636405, 0.117078, -0.470496, -0.0844702, 0.325862, -0.226162, -0.207938, 0.342285, -0.267251, -0.511956, -0.751414, -0.221122, -0.457214, -0.593425, 0.0238068, 0.102109, -0.334388, 1.17386, 0.325796, 0.429139, -0.576635, -0.148241, -0.695368, -0.48679, -0.173902, -0.025548, 0.303826, -0.363803, -0.0771318, -0.116578, -0.0821433, -0.211745, -0.360264, 0.555052, 0.752843, 0.314646, -0.411871, -0.175338, 0.466764, -0.317133, 0.531304, -0.0972555, -0.119546, -0.175668, 0.412634, 0.0955563, 0.35232, 0.446339, -0.170919, 0.421266, -0.0351016, 0.214747, 0.132388, -0.264404, -0.21516, 0.197302, 0.459965, 0.00768915, 0.171519, -0.514566, -0.291722, -0.562651, -0.469189, -0.548879, -0.217492, 0.180876, 0.375159, -0.00507882, -0.139721, 0.00887476, -0.635746, -0.334891, 0.492715, 0.155443, -0.601562, 0.0697153, 0.805209, 0.00946964, 0.953878, 0.222559, 0.260434, 0.0136097, -0.073057, 0.308972, 0.132276, -0.0399538, -0.539945, -0.220531, 0.00661356, -0.210203, 0.057631, -0.276331, -0.206056, -0.178789, 0.129914, 0.148636, 0.59293, -0.104934, -0.225804, 0.0497928, 0.294257, 0.432091, 0.378403, 0.125513, 0.132057, 0.209786, 1.01331, 0.253249, 0.208036, -0.040639, 0.267158, 0.52794, -0.180106, 0.126122, -0.24779, -0.0309557, 0.305371, 0.389146, -0.0368363, -0.629707, 0.29377, 0.186465, -0.468681, 0.0231926, 0.370332, -0.428075, -0.0473342, -0.242257, 0.104696, 0.64344, -0.470289, -0.601475, 0.173408, 0.1595, -0.242734, 0.119526, -0.467788, -0.359906, -0.0343786, -0.130737, -0.616309, -0.385484, -0.197163, 0.234175, 0.041575, 0.0301564, 0.225858, 0.371057, 0.00659663, -1.5403, 0.462257, 0.441402, -0.0498756, -0.0833341, 1.01132, 0.0939742, 0.231311, 0.34185, 0.745509, 0.648533, -0.255279, 0.0719909, 0.592093, 0.210937, -0.133847, 0.116062, 0.0436575, -0.29199, -0.218549, 0.0754326, 0.279832, -0.224563, 0.78169, -0.194457, 0.16781, -0.280753, -0.642677, 0.228463, 0.305962, -0.188051, 0.420142, -0.0557081, 0.335976, 0.103657, -0.24476, 0.233663, -0.469141, 0.564785, 0.152444, -0.127788, -0.0575777, 0.679148, 0.28431, -0.383468, -0.63987, -0.821087, -0.31776, 0.188999, 0.0967213, 0.0473536, -0.275842, -0.404469, -0.0844702, -0.188111, -0.0437386, 0.326663, -0.335814, -0.377595, -0.281715, -0.580104, -0.0538286, -0.573363, -0.596608, -0.00741826, -0.466689, 0.274114, -0.0495492, -0.48535, 0.112697, -0.162879, 0.141398, 0.287343, -0.366937, -0.00923577, 0.371507, -0.284338, 0.00717096, -0.0289119, 0.26782, 0.0394389, 0.0446079, 0.223518, 0.234939, 0.48991, -0.0139301, 0.0220069, -0.763251, -0.0613258, 0.190345, -0.211011, -0.100326, 0.131999, 0.0627349, 0.135968, 0.462338, 0.080372, -0.138515, -0.0563243, -0.203019, 0.317501, 0.363125, 0.139095, -0.150574, 0.6676, -0.523875, 0.263713, -0.76724, 0.0881711, 0.657414, -0.269857, 0.233372, -0.452519, -0.140403, -0.0544866, -0.264155, -0.0109253, -0.0194622, -0.993538, -0.674728, 0.00775426, -0.209942, 0.199633, 0.492093, -0.17012, -0.449907, 0.546007, -0.0259703, -0.299665, 0.0187956, 0.660569, 0.459599, -0.79964, -0.091236, -0.0551217, 0.0459402, 0.234954, -0.101041, 0.191546, 0.136292, -0.0222207, -0.757826, -0.0058527, 0.070533, 0.361653, -0.952181, -0.791236, 0.082718, 0.271425, 0.353612, 0.464256, -0.365556, -0.0134515, 0.0565472, -0.144279, -0.511645, -0.174531, 0.244093, -0.356958, -0.798002, -0.109184, -0.0874198, 0.500115, -0.340157, -0.206757, -0.661298, 0.581467, -0.0638896, 0.172608, -0.465121, -0.0497561, 0.249543, 0.0787669, -0.115886, -0.404546, 0.366786, 0.79665, 0.17007, 0.524689, -0.358052, -0.372669, 0.284, -0.950371, -0.610606, 0.150972, -0.313091, -0.225616, 0.221505, -0.876302, -0.592376, -0.489033, -0.122718, -0.377313, -0.219447, 0.110429, 0.0738806, 0.182337, -0.269057, -0.0096382, 0.095361, 0.102016, -0.687413, 0.0104797, 0.336489, 0.248965, -0.60558, 0.345043, 0.299002, -0.436135, -0.253639, 0.197135, -0.0329214, 0.466503, -0.28037, -0.253043, 0.278165, 0.329985, -0.20502, -0.305068, 0.0450696, 0.200203, 0.0196849, 0.269497, 0.207164, 0.128687, -0.0715625, -0.321957, 0.49789, 0.0651861, 0.156799, -0.297578, -0.191841, 0.357248, -0.198862, 0.325696, -0.131434, 0.693367, 0.0120845, 0.340118, -0.576158, -0.235618, -0.444951, 0.163556, -0.192311, 0.972351, 0.412518, -0.0555181, -0.680473, -0.211627, -0.0982773, -0.0126587, -0.263292, -0.237179, 0.198015, 0.217443, 0.195052, -0.0530039, -0.304361, 0.141909, 0.206783, 0.320669, -0.056318, 0.266899, -0.203139, 0.293706, -0.198892, -0.350144, -0.035896, 0.570814, -0.0603071, -0.197415, 0.0186324, 0.110415, -0.541452, -0.0859981, -0.329844, 0.0895674, -0.363339, 0.296743, 0.0407619, 0.0313639, -0.00557312, -0.39275, -0.432131, 0.403318, 0.268816, -0.164095, -0.0605924, -0.385911, -0.051189, -0.36794, -0.891967, 0.45557, -0.307187, -0.171869, 0.170978, 0.113184, 0.0250975, 0.320394, -0.29643, -0.111931, -0.287701, -0.391649, -0.0171829, -0.349466, 0.1077, 0.332989, 0.188408, -0.0607302, 0.698513, -0.414251, -0.431849, 0.15044, 0.171733, -0.156472, -0.109293, -0.473392, 0.129448, -0.473285, -0.370017, -0.467884, -0.359191, -0.00721502, 0.582362, -0.216878, 0.539486, 0.0448467, 0.020821, 0.2098, -0.609579, -0.304788, 0.380938, 0.0858991, -0.0300318, 0.296704, 0.00671346, -0.639946, -0.0696451, -0.289961, 0.29103, 0.243535, 0.523565, -0.519798, -0.679531, 0.276621, 0.30594, -0.210651, -0.0593133, 0.0793336, -0.0653434, -0.0564298, -0.411667, -0.174565, 0.217761, 0.0233979, -0.109862, 0.136796, 0.23356, 0.142536, -0.0817971, 0.711636, -0.396719, -0.0809481, -0.540847, -0.0464765, 0.533738, -0.492966, 0.161558, 0.10643, 0.449404, -0.139644, -0.503731, -0.146695, -0.0853155, -0.381161, -0.452832, 0.00855178, 0.455884, 0.185324, 0.176151, -0.0818701, -0.2737, 0.318094, -0.203314, -0.18347, 0.0205688, 0.586024, 0.131505, -0.445243, 0.0859104, 0.125808, 0.219819, 0.121752, -0.244308, -0.123951, -0.532969, -0.205341, -0.452857, -0.0146023, 0.331167, 0.554436, -0.453513, -0.0806141, 0.00358593, -0.443945, 0.523094, 0.311761, -0.0900095, 0.257936, -0.203966, 0.0105588, -0.490294, -0.1908, 0.236729, -0.626126, -0.149132, -0.671616, 0.080853, 0.81649, -0.547614, -0.122065, -0.0398152, 0.066229, 0.597144, 0.124787, -0.183583, 0.35982, 0.111357, -0.198025, -0.643291, -0.0955155, -0.128659, -0.325334, 0.124017, 0.0189613, -0.0709311, -0.414327, -0.35732, -0.561373, -0.142715, 0.390104, -0.09133, -0.0320003, 0.333022, -0.704274, -0.451613, 0.380866, -0.374658, -0.0538077, -0.0740768, 0.384197, 0.149545, 0.430605, 0.0701913, 0.324665, 0.0484456, -0.755553, -0.0195569, -0.174722, 0.814233, 0.442599, -0.226078, -0.426544, 0.208976, -0.299617, 0.121783, -0.276638, 0.0355799, 0.655151, 0.143967, 0.00395696, 0.316242, 0.29289, 0.141503, -0.155995, 0.0924113, -0.230682, 0.0425721, -0.0663708, 0.0868292, 0.621357, 0.33556, -0.320727, 0.0206733, -0.181282, -0.0417557, -0.846369, 0.204553, 0.740769, 0.200462, 0.370095, -0.0734944, 0.162495, 0.608268, -0.349279, 0.631658, -0.45422, 0.0596008, -0.266823, -0.260647, 0.000912107, -0.605569, -0.0545736, 0.275357, -0.263733, 0.0337157, 0.104797, -0.281378, -0.393705, 0.423712, -0.177371, 0.175407, -0.246324, -0.367048, 0.249238, -0.191844, -0.131328, -0.108294, 0.269851, 0.303714, 0.518184, -0.601656, 0.118824, 0.0448092, 0.20491, -0.137221, 0.268767, -0.208134, 0.198521, -0.0299034, -0.489321, 0.222013, 0.351361, -0.223441, 0.419792, -0.312118, -0.829842, -0.286394, -0.163585, -0.579866, -0.567838, 0.384567, -0.272585, 0.788162, -0.289487, -0.0487539, 0.0730849, 0.376087, 0.200416, 0.355083, 0.782049, 0.472075, -0.190942, -0.773144, -0.396057, -0.264558, -0.228042, -0.111519, 0.0102548, 0.603694, -0.267396, -0.311683, 0.319224, -0.144747, -0.499508, -0.228522, -0.121708, -0.178522, -0.0893677, 0.05378, -0.314814, -0.0696863, -0.20066, -0.243525, -0.714399, 0.838279, -0.508527, 0.358875, 0.156903, 0.197487, -0.442044, 0.454186, 0.00440406, -0.861132, 0.0379272, -0.612276, 0.573705, 0.0149661, 0.356977, -0.280483, -0.336312, -0.132165, -0.264527, -0.209273, -0.614, -0.665575, -0.111695, 0.377544, 0.296972, -0.33638, 0.0333676, -0.11238, -0.250619, 0.542582, 0.522023, 0.353491, -0.106037, 0.118129, -0.528694, 0.279591, 0.00609168, -0.40141, 0.513281, 0.144372, 0.542099, 0.50617, -0.403634, -0.122077, 0.225169, 0.0166508, 0.370523, -0.258559, -0.325314, 0.0529304, -0.320061, 0.102554, -0.543, -0.143821, -0.476104, -0.4166, 0.0408376, -0.338887, 0.725586, -0.390576, -0.375407, 0.267092, 0.345896, 0.470443, 0.175344, -0.561197, -0.156303, -0.542764, 0.489576, 0.481299, -0.0860861, -0.447324, 0.123701, 0.215967, -0.499804, -0.390527, -0.126906, -0.205644, 0.0350279, 0.268024, 0.303016, 0.121742, 0.279191, 0.230077, -0.303172, 1.05562, -0.0881943, -0.116808, -0.430265, -0.329409, -0.110036, -0.573467, 0.12786, 0.0590672, -0.779933, -0.322346, 0.00954941, 0.304151, 0.112562, -0.311062, -0.0438427, 0.7972, 0.403689, 0.89038, -0.390137, 0.268865, -0.282498, -0.114082, -0.673697, -0.229272, 0.364458, 0.108556, 0.445385, 0.165762, -0.217153, 0.235702, -0.00139411, -0.00203806, -0.0426243, 0.292336, -0.803653, 0.0548743, -0.518519, 0.312163, -0.125982, -0.524984, 0.116801, -0.0224654, 0.589006, 0.367481, 0.271562, 0.411237, -0.0768432, -0.0322012, -0.163191, -0.293211, 0.0789292, -0.0937785, -0.544353, 0.178865, -0.637935, 0.63703, -0.24457, -0.627757, 0.317625, 0.110318, -0.123393, -0.123646, 1.11161, -0.415132, -0.0504358, 0.34626, 0.119866, 0.527135, -0.665748, -0.0711666, -0.393926, 0.0273155, 0.14251, -0.0207666, 0.111937, -0.683186, -0.208978, 0.596564, 0.0732665, -0.0716201, 0.160171, 0.316512, 0.713802, 0.315219, 0.270688, 0.0050571, -0.107447, 0.0862061, 0.680376, 0.281407, 0.379356, 0.0604624, -0.205073, 0.173519, 0.48275, 0.241182, -0.0308838, 0.0446611, -0.0193176, 0.0695889, 0.183072, -0.50025, -0.430471, 0.896844, -0.210015, -0.483757, -0.0801102, -0.364283, 0.78528, 0.388709, 0.326027, -0.0674938, -0.426006, -0.178377, -0.184276, 0.0432766, -0.182697, -0.0280959, -0.241653, 0.395351, 0.204888, 0.371037, -0.158653, 0.0940931, -0.0932404, 0.529642, -0.294075, 0.408437, 0.0729173, -0.329374, -0.0872641, -0.395795, -0.231841, -0.73296, -0.185175, -0.573962, 0.0341942, 0.0709294, -0.0548821, -0.0807904, -0.0070352, -0.297437, 0.135769, -0.0418581, -0.337152, 0.51137, -0.62428, 0.0276309, -0.0709307, -0.443148, -0.307271, -0.208828, -0.172536, 0.0455707, 0.0114129, 0.116355, -0.318259, 0.243567, -0.424793, -0.122653, -0.0445754, 0.119927, -0.0513665, -0.104455, 0.16948, 0.0107655, 0.0647321, 0.393166, 0.212416, -0.0100129, 0.0431794, 0.111622, -0.157735, 0.106954, 0.0553553, 0.317515, -0.151064, 0.129001, -0.329072, -1.1816, -0.558195, -0.815663, 1.165, -0.163329, 0.461123, 0.297802, -0.391282, -0.588571, -0.56543, -0.031848, -0.558897, 0.364646, -0.289378, -0.102193, 0.369674, 0.162527, -0.203808, 0.0926609, -0.0418856, 0.177236, 0.179593, -0.22272, 0.808291, 0.0565113, -0.577617, -0.788058, 0.168114, -0.213104, 0.69337, 0.431306, 0.636847, 0.85898, -0.383618, 0.238359, -0.0950953, 0.377775, 0.567292, 0.06718, 0.632689, -0.0494672, 0.0426522, 0.216478, 0.201606, 0.0445202, -0.373906, -0.0461458, 0.515318, -0.461317, 0.197724, -0.307876, -0.527714, 0.612742, 0.518261, 0.490067, 0.593442, -0.412535, 0.343871, -0.340256, 0.568799, 0.476974, -0.263587, -0.00938045, -0.225168, 0.180435, -0.298628, -0.105876, 0.250281, -0.450907, -0.331098, -0.0106043, -0.15091, 0.578756, 0.339982, -0.00745319, 0.138663, 0.362576, -0.234089, -0.0807371, -0.0741027, -0.0754906, -0.363085, -0.70541, 0.485985, -0.572343, -0.333519, 0.27987, 0.0822619, 0.299108, -0.334407, -0.192295, 0.520218, 0.0533233, 0.726568, -0.392243, -0.34023, -0.174857, 0.139075, -0.921493, -0.961746, 0.0613655, 0.118504, 0.0836036, 0.192517, -0.382634, 0.0475457, -0.772545, -0.0650644, 0.0104019, -0.0819438, -0.00542682, -0.243024, -0.410783, -0.266845, 0.47547, 0.0219473, -0.708114, -0.212004, 0.122436, 0.481861, 0.370801, 0.247736, 0.370024, -0.584683, -0.685545, 0.0150887, 0.397616, 0.157162, 0.364461, -0.465686, -0.193595, 1.15347, 0.19169, 0.0987209, -0.401441, -0.361004, -0.284483, -0.848184, 0.163496, 0.125466, -0.515626, -0.386738, 0.611742, 0.540462, -0.20582, 1.05923, 0.115314, -0.131031, 0.145776, -0.0115693, 0.650492, 0.245556, 0.061148, 0.14758, 0.351156, 0.400123, -0.0638656, 0.190049, -0.389279, -0.170111, -0.0378494, -0.0633149, 0.413974, 0.103271, -0.167428, 0.203886, -0.221283, 0.31767, 0.393601, -0.0337002, -0.293989, 0.322651, -0.121129, -0.241762, 0.129401, -0.19401, -0.232578, -0.136171, -0.399151, -0.209125, 0.766098, -0.133745, -0.227492, 0.461947, 0.243263, 0.281716, 0.113993, -0.781167, -0.0703095, -0.327618, -0.45664, 0.449569, 0.632116, -0.525194, 0.330344, 0.011475, -0.00276103, 0.10648, -0.0302383, 0.0500566, -0.0668976, 0.152464, -0.0125856, 0.668552, 0.320291, -0.393231, 0.145835, -0.247885, -0.352987, -0.226672, 0.121625, 0.0559795, -0.642495, 1.12749, 0.959078, -0.444918, -0.335639, -0.343384, 0.264987, 0.146377, -0.394818, -0.137464, -0.819243, -0.0843451, 0.299102, -0.132943, -0.0132218, 0.0560754, 0.325268, 0.00406184, -0.530623, -0.600733, 0.0924062, 0.0812618, 0.0893835, -0.265689, -0.0481709, -0.516242, -0.174681, 0.0339089, 0.135612, 0.121187, 0.102229, -0.13523, 0.266757, -0.46884, -0.107641, 0.318256, -0.0366633, -0.351512, -0.801052, -0.17849, 0.651732, 0.193045, 0.334755, 0.363103, -0.672079, 0.21061, -0.0377889, 0.210372, 0.504722, -0.266581, 0.399192, -0.0671038, -0.0433704, -0.219569, 0.0335407, -0.0533486, 0.130252, -0.433711, 0.125415, -0.0460148, -0.785258, 0.126108, -0.870985, 0.0119739, -0.328175, 0.183925, 0.334504, 0.346152, -0.107978, -0.179128, 0.0424569, -0.27714, 0.367882, -0.0960615, 0.278381, 0.15529, 0.23035, 0.58407, -0.564382, 0.187691, -0.880066, -0.00819922, 0.145447, 0.25646, -0.232253, 0.259574, -0.141263, 0.120613, -0.511441, -0.195057, -0.34617, -0.0854166, -0.31553, 0.107462, -0.180385, 0.272733, -0.277399, 0.303054, -0.00920229, 0.0629928, 0.035756, 0.0190044, -0.0481963, 0.1082, 0.226035, -0.154526, -0.248601, 0.12048, 0.506291, -0.170548, -0.21038, 0.0314234, -0.0246469, 0.267111, -0.111423, -0.0363541, -0.405667, 0.00231078, -0.30519, -0.417968, -0.00192098, -0.215112, -0.304435, 0.0677704, -0.310964, 0.0142556, 0.330698, 0.536555, -0.663687, -0.197132, 0.294414, 0.356409, -0.956659, -0.0877173, 0.242784, -0.0157351, -0.403606, -0.765425, -0.294418, 0.267261, -0.309486, 0.539011, 0.0163768, -0.0386517, -0.398716, -0.375413, -0.65449, -0.682253, 0.053871, -0.0317433, 0.0811358, 0.359284, 0.109058, -0.499724, -0.358011, -0.0139971, -0.255861, -0.0501483, 0.235897, -0.604468, 0.624505, -0.163049, 0.00699037, -0.257609, -0.698594, 0.389168, 0.137535, 0.277052, 0.0884712, -0.737039, 0.298374, 0.192128, 0.531819, -0.0767543, 0.120833, 0.104316, 0.233622, 0.173039, -0.229642, 0.0433799, -0.590379, -0.484494, 0.265824, 0.200619, -0.270997, 0.157599, -0.209024, -0.173062, -0.250532, 0.0769185, -0.222376, 0.0674048, -0.106143, 0.21258, -0.0427656, 0.4493, 0.0818092, -0.166292, 0.447171, -0.127657, -0.0562388, 0.299267, 0.282491, 0.224814, -0.0727485, 0.185367, 0.0468817, -0.0259757, -0.155958, 0.559845, 0.390256, 0.326857, -0.256135, -0.149489, -0.557962, 0.436124, 0.0187311, 1.05771, -0.158855, 0.341553, -0.0636667, 0.203929, -0.0133287, -0.302033, -0.390725, 0.17665, 0.176662, 0.213834, 0.233105, -0.000266263, 0.146254, 0.477933, 0.454657, 0.289431, -0.258737, 0.0748697, -0.11963, 0.13558, 0.360685, -0.0100397, -0.277417, 0.00602951, 0.0851597, -0.807975, 0.337013, 0.293365, 0.0895931, -0.030547, 0.00528261, 0.594807, -0.150225, -0.00532397, -0.202731, 0.551636, -0.410832, -0.494341, -0.61859, 0.523571, 0.754755, 0.28778, -0.308042, -0.0309003, 0.264851, 0.50225, -0.589391, 0.0444771, -0.380834, 0.311477, 0.0851577, 0.286063, -0.354859, 0.0288366, -0.15566, -0.323887, -0.555984, -0.561973, 0.00999851, -0.325352, 0.251143, 0.324209, -0.453497, 0.119364, -0.0482807, 0.304716, -0.272355, 0.0674339, 0.194868, 0.010017, 0.129885, -0.230195, -0.266315, -0.378177, -0.216063, -0.353761, -0.548728, 0.0112614, 0.551172, -0.087129, 0.196209, -0.000796859, -0.51213, 0.397615, -0.0626101, 0.171776, 0.65571, -0.285333, -0.70128, -0.153173, -0.285434, -0.0660403, 0.359891, 0.0525253, -0.41114, -0.360696, 0.581453, -0.225907, -0.409199, -0.0374336, -0.430309, 0.0241737, -0.119307, 0.455953, -0.188732, 0.275746, -0.245225, -0.306752, 0.473339, -0.406279, 0.180803, -0.416326, 0.909902, 0.136853, 0.103717, 0.338513, 0.00929452, 0.0872805, 0.129933, 0.0286826, 0.491996, -0.054498, -0.256219, -0.00639014, -0.0426119, -0.152844, -0.466535, -0.237881, -0.117414, -0.697521, 0.351884, 0.211973, 0.513764, -0.150684, -0.255848, 0.18402, -0.399227, -0.14791, 0.129298, -0.163565, -0.351076, -0.145304, 0.092284, -0.0557528, -0.150712, 0.0934427, 0.286057, 0.479241, -0.331401, -0.287961, -0.0645325, -0.328006, 0.0366972, -0.431595, 0.322254, -0.0783787, -0.239311, -0.312849, -0.156258, -0.0581502, 0.550539, 0.394191, -0.522127, -0.0058578, 0.356565, 0.867129, -0.473678, -0.380859, 0.595061, -0.568776, -0.119319, -0.464677, 0.124219, 0.328258, -0.675666, -0.631424, -0.131942, 0.0217038, 0.00435396, 0.146971, -0.350166, 0.187725, -0.0530536, -0.00456269, -0.263847, -0.552165, -0.686525, 0.468734, 0.429006, 0.180401, 0.0693543, -0.256744, -0.307407, 0.205317, -0.00943471, -0.0568328, -0.103609, -0.331504, -0.491512, 0.12517, -0.0685898, -0.362454, -0.406575, -0.0359868, -0.18711, -0.0318936, 0.438203, 0.629737, -0.00487407, 0.313604, 0.0802492, -0.414609, 0.208257, -0.196171, 1.13976, 0.140519, 0.0444372, -0.398038, -0.538247, -0.0583819, -0.604582, 0.186339, 0.0241202, 0.206685, 0.454662, -0.0267001, 0.177048, -0.0239617, 0.121551, -0.628682, -0.280458, 0.0509286, 0.259453, 0.0427637, -0.0562582, 0.480377, 0.345745, -0.409074, -0.171245, 0.464499, 0.412037, -0.290238, -0.226066, 0.159996, 0.149459, 0.291034, 0.210623, 0.154016, 0.277548, -0.151622, -0.000562045, -0.729856, -0.042522, 0.0685214, -0.186909, 0.290527, 0.0381555, 0.161126, 0.167692, 0.276155, -0.36251, -0.255315, -0.260383, -0.325525, 0.240902, -0.246153, -0.0627719, -0.421372, 0.136507, 0.344612, 0.376415, -0.180025, -0.55555, 0.464749, 0.315022, -0.0184716, -0.490267, 0.216933, -0.401798, -0.666549, 0.401307, 0.692421, 0.0820853, 0.342307, -0.000356124, -0.29552, 0.287361, -0.159152, -0.103321, 0.393719, 0.0871013, -0.377719, -0.895453, -0.279635, -0.479379, 0.141751, 0.405525, 0.695583, -0.165941, -0.0199522, 0.0341042, 0.0790451, -0.417775, 0.092802, -0.23795, 0.183882, 0.320345, -0.108412, -0.465322, 0.473018, -0.165986, -0.457384, -0.768851, 0.275537, -0.0767007, -0.15034, -0.0204078, 1.17438, -0.330965, -0.286863, -0.0017185, 0.199184, 0.802493, -0.268782, 0.312689, 0.428749, -0.288983, 0.493156, -0.396873, -0.0396301, -0.280581, -0.552688, -0.0239999, -0.535012, -0.534903, -0.187304, 0.624139, 0.0821693, 0.243593, -0.301314, -0.047878, -0.288084, -0.527759, -0.3207, 0.0475738, 0.0823405, -0.836825, 0.206952, 0.52681, 0.351104, 0.1877, 0.125477, 0.196601, 0.234459, -0.160304, 0.690849, 0.292596, -0.0483002, 0.025947, -0.423274, 0.33057, -0.353721, -0.0159472, -0.533593, -0.509244, 0.3444, -0.361937, -0.416552, 0.546603, 0.115457, 0.0480828, 0.319376, 0.108427, -0.212687, -0.294777, -0.33311, 0.0480526, 0.564656, -0.108819, 0.245143, 0.134249, -0.370003, 0.310129, -0.21056, 0.0802559, 0.400399, 0.102546, -0.394858, -0.0545322, -0.364931, 0.516361, -0.369871, 0.227842, 0.0276357, 0.205228, -0.214916, -0.127537, -0.756077, -0.26204, -0.410449, 0.319234, -0.234399, 0.463502, -0.169491, -0.0531237, 0.5147, 0.618324, -0.236861, -0.373012, 0.118874, 0.307277, 0.0799932, -0.144358, 0.487033, 0.842387, 0.113388, -0.326023, -0.061853, -0.792023, 0.0784875, -0.257776, -0.136911, -0.282351, -0.199309, 0.602577, 0.362096, 0.197238, 0.217543, -0.156778, 0.541736, -0.161425, 0.00599095, -0.203521, 0.179776, 0.667946, 0.598329, -0.309331, 0.34549, 0.0111342, -0.188956, -0.633101, -0.143491, -0.295957, 0.363617, -0.0978172, 0.547049, -0.108119, 0.108592, -0.10618, -0.431543, -0.203314, -0.292884, -0.488133, 0.508107, -0.846119, 0.443875, -0.40676, 0.0903209, -0.357855, -0.0369065, 0.0311851, -0.292971, -0.103782, 0.433125, -0.309471, 0.150122, 0.111132, -0.380312, 0.108379, 0.146117, -0.286857, -0.734753, 0.203653, -0.412936, -0.622557, -0.191309, 0.291351, -0.117693, -0.114109, 0.147586, 0.193363, -0.0764764, -0.222382, 0.450184, 0.211076, -0.339592, 0.801183, -0.28297, 0.0983385, 0.144055, 0.238634, 0.0923228, 0.63588, 0.195357, -0.210484, -0.538342, -0.103843, 0.545116, -0.0507855, 0.346479, 0.84686, 0.306226, -0.323004, 0.617827, 0.00138149, 0.532817, 0.00805981, 0.383302, 0.163538, -0.425807, 0.277951, -0.488263, -0.173605, 0.337057, -0.177478, -0.794872, -0.462444, -0.321382, -0.0352622, -0.210163, 0.339667, 0.347417, 0.246009, 0.0131404, 0.0897955, -0.152572, -0.0175867, 0.458852, 0.27304, 0.00276282, 0.0112717, -0.384964, -0.409057, 0.208273, 0.27503, -0.171932, -0.225476, -0.211326, -0.204004, -0.0399129, -0.547735, -0.410216, 0.138079, -0.330661, -0.0694239, 0.0945083, -0.442328, 0.0895247, -0.469703, -0.146296, -0.698938, -0.242793, 0.547757, 0.386574, -0.179938, -0.107575, -0.46041, 0.288068, -0.175854, 0.20937, -0.172919, 0.440363, 0.272619, -0.0387404, 0.144332, 0.517093, -0.323959, 0.0911918, -0.358787, -0.601933, -0.432828, -0.333824, -0.0749868, 0.821625, -0.260814, -0.383081, -0.486942, -0.13121, 0.178517, -0.334082, 0.369365, 0.764708, -0.510939, 0.497701, -0.18229, 0.0511876, -0.183015, 0.282328, 0.422579, -0.379485, -0.979241, -0.109926, -0.12695, 0.326747, 0.411248, -0.268152, -0.0869489, -0.0908576, -0.709237, 0.472839, 0.45546, 0.00634409, -0.134615, -0.133706, 0.541717, 0.275491, 0.366089, 0.246858, 0.228399, -0.293342, -0.406128, 0.73122, 0.335736, 0.276977, 0.215476, -0.266157, 0.469073, 0.587834, 0.416217, -0.283357, -0.118285, 0.0734387, -0.0191144, 0.363323, 0.468107, 0.102289, 0.0472336, 0.263742, 0.153315, 0.171682, -0.299005, -0.0219032, -0.0382219, 0.202658, 0.104939, 0.303951, -0.267898, 0.0315751, 0.458264, -0.291963, -0.235848, -0.0113018, 0.0421376, -0.87933, -0.246721, -0.238033, 0.775, -0.173037, -0.0768792, 0.221027, 0.369235, -0.213024, -0.0768805, -0.890768, 0.0313798, -0.142335, 0.24398, -0.0568956, 0.536096, -0.257307, -0.136921, -0.202874, -0.166657, -0.103878, -0.384732, 0.199722, 0.0500632, 0.0436849, -0.101032, 0.804555, 0.406488, -0.0179257, -0.318291, -0.0842573, -0.435668, -0.0219337, -0.367315, 0.017888, 0.00560411, -0.686539, 0.260087, 0.546639, 0.0941369, -0.79332, -0.349549, 0.456692, -0.0445925, 0.133533, -0.0951371, 0.0350227, -0.390658, -0.57228, -0.326335, -0.081017, -0.285639, 0.136914, -0.332123, -0.521359, -0.36047, -0.0252208, -0.240746, 0.991348, 0.239161, -0.145063, -0.150057, 0.242517, 0.431653, -0.440846, 0.0277304, 0.367837, -0.235747, 0.32551, -0.275922, 0.292308, -0.227888, 0.503177, 0.28153, -0.77973, -0.481918, -0.353121, 0.0138358, 0.404598, 0.574237, -0.472834, -0.217986, -0.680533, -0.766075, -0.373332, -0.315516, 0.0254918, -0.939345, -0.305201, -0.0539807, 0.369071, -0.445049, 0.168402, 0.627423, 0.296205, -0.41538, 0.250843, -0.424021, -0.15123, 0.467492, -0.637065, 0.17715, -0.344804, -0.0114126, -0.374453, 0.263648, 0.427115, 0.0461513, -0.0693563, 0.262341, 0.281864, -0.303289, 0.740439, 0.393425, -0.357321, 0.126102, -0.0694535, 0.145098, 0.519524, 0.0284101, 0.643706, 0.0576715, -0.251555, -0.0193866, 0.240232, -0.0230429, -0.0937485, -0.825903, -0.926157, -0.365609, -0.439131, 0.89144, -0.359924, 0.580046, 0.0263966, 0.212823, 0.129007, -0.548046, -0.269, 0.347381, -0.196903, 0.490146, -0.218971, -0.0352845, 0.111578, -0.307102, -0.172543, 0.241305, -0.242767, -0.190215, 0.144349, 0.29293, 0.663599, 0.0947998, 0.443244, -0.178029, -0.197313, -0.343593, 0.639891, -0.107223, -0.119464, -0.0770211, -0.141853, 0.385602, 0.103673, -0.163325, -0.184769, 0.164105, 0.21382, -0.0962707, -0.562512, 0.0725044, -0.0490472, 0.341663, -0.230647, -0.533405, -0.031564, -0.0647359, 0.235884, 0.113686, 0.697318, -0.426551, 0.473773, 0.00980693, -0.0655472, 0.911498, 0.200532, 0.208858, 0.39038, -0.422053, -0.0922576, -0.275661, 0.205743, -0.0839677, -0.196423, 0.143227, 0.46884, 0.647902, 0.591058, -1.17836, 0.044737, 0.142076, -0.265047, 0.196919, -0.0636185, -0.0734203, -0.730772, 0.0881887, 0.31859, -0.0759163, 0.0119708, -0.186752, -0.320098, 0.281637, 0.125666, 0.205972, 0.188085, 0.581958, 0.419739, 0.274663, 0.303972, -0.594729, 0.202005, -0.389602, -0.307539, -0.184978, 0.119873, -0.287983, -0.348598, 0.121368, 0.165802, 0.523797, 0.27971, -0.0725859, 0.186261, 0.475076, 0.278298, 0.135961, -0.279954, -0.0665917, 0.0150617, 0.655622, 0.0254905, -0.490962, -0.4416, 0.390036, 0.11592, -0.209625, -0.421687, -0.555648, 0.0358566, 0.323852, 0.266488, 0.215577, 0.32716, 0.503327, -0.308772, 0.510401, 0.0780339, -0.190795, -0.130263, 0.206739, -0.451743, 0.146448, -0.220535, 0.313003, 0.180267, -0.529687, -0.195828, -0.312906, -0.200041, 0.0025584, 0.0645093, -0.535271, -0.567519, -0.380166, 0.238261, 0.375652, 0.253533, -0.631058, -0.294059, 0.258593, -0.0988585, 0.000615643, -0.0102474, 0.838457, 0.183487, -0.350311, -0.0508689, 0.431528, -0.210062, 0.213441, 0.328824, 0.390304, 0.359531, -0.0927729, 0.360827, 0.584394, -0.422882, 0.27818, 0.460543, -0.470586, 0.425593, 0.393281, -0.118597, -0.426461, -0.407913, 0.247718, 0.464388, 0.29624, 0.332882, 0.655618, -0.36708, 0.194497, 0.0197388, 0.336118, -0.331409, -0.506929, -0.282416, -0.733174, 0.329679, -0.243289, 0.652436, 0.482373, 0.138405, 0.583787, 0.244603, 0.652463, 0.0713399, -0.11584, 0.154245, -0.190308, -0.213803, -0.548039, 0.0944575, 0.419818, -0.128414, 0.089025, -0.155568, -0.771934, -0.469965, 0.38648, -0.116947, 0.290381, -0.119947, -0.0530108, 0.340799, 0.523076, 0.0959018, 0.414497, -0.127454, 0.500297, -0.621837, -0.0168963, 0.407936, -0.394485, -0.399651, -0.301677, -0.0896108, -0.128957, -0.194845, 0.201851, -0.422964, -0.131186, -0.49568, -0.202518, -0.448042, -0.66669, 0.429043, -0.0107881, -0.415125, -0.352033, -0.651232, 0.0541001, 0.0782889, -0.0157406, -0.0383022, -0.658962, -0.652306, -0.131255, -0.0136138, -0.379123, 0.123918, 0.472892, -0.210557, -0.159238, -0.127335, -0.0340461, -0.0756479, 0.348006, 0.624031, 0.437606, -0.209073, -0.262587, 0.452795, -0.0657216, -0.367602, 0.521881, -0.197335, -0.619684, 0.179788, 0.48245, -0.30558, 0.719961, -0.367513, 0.654754, -0.310952, -0.7699, -0.0433501, 0.229802, -1.01777, -0.860755, -0.130596, -0.136072, 0.161277, 0.286676, 0.966892, 0.0353241, -0.818091, 0.176883, 0.247271, -0.459102, -0.19476, 0.285955, 0.629265, 0.229103, 0.172484, 0.224804, 0.449241, -0.18274, 0.209402, -0.971493, 0.156088, -0.230194, 0.112739, 0.206505, 0.285268, 0.0896216, -0.0918573, 0.0118229, 0.456397, -0.266357, -0.621919, 0.179379, -0.0384074, -0.192169, -0.0574824, -0.208232, 0.367331, 0.345085, 0.261541, 0.438843, -0.316542, -0.0520515, 0.414453, -0.562925, 0.291009, 0.600423, -0.166733, -0.227227, 0.210665, -0.00879076, 0.743564, -0.20412, 0.245454, -0.0870075, -0.160413, -0.639361, -0.150998, 0.215904, 0.917097, -0.424292, -0.168739, 0.0380573, 0.208592, 0.14051, -0.212352, -0.115925, -0.278152, -0.582828, -0.15253, -0.333804, -0.00625295, -0.209003, 0.0316682, -0.02601, -0.673651, -0.370408, -0.121235, -0.0814358, 0.378238, 0.101392, -0.00580874, -0.285136, -0.61357, 0.189172, -0.225089, 0.300836, 0.0702055, -0.578963, -0.0324775, 0.598189, -0.0349643, -0.704283, -0.576041, 0.0350835, 0.0416111, -0.348701, -0.371586, -0.329937, 0.00205711, 0.309564, 0.0523692, 0.217885, -0.119157, -0.655773, -0.660211, -0.503369, -0.781928, -0.708598, -0.366597, 0.450489, 0.138914, -0.155031, 0.0889059, 0.548417, -0.00434882, -0.207787, 0.148471, -0.674009, 0.215208, -0.312315, -0.438801, -0.196775, 0.110041, -0.561202, -0.450513, 0.143037, -0.393202, 0.101709, -0.0664342, -0.00452144, -0.0896554, -0.0459824, 0.098, 0.0160277, -0.296281, 0.475941, 0.330312, 0.311243, 0.399382, -0.0515206, -0.273092, -0.233126, -0.0121784, -0.0433623, -0.191579, 0.130148, 0.37749, 0.316417, -0.396953, -0.164205, 0.0312925, 0.192051, 0.61842, 0.497771, 0.292132, -0.161512, -0.22353, 0.329094, -0.495406, -0.05308, -0.320045, -0.134195, 0.00498827, 0.250645, 0.676469, 0.234136, 0.0797129, -0.237865, 0.432028, -0.182735, 0.541062, 0.0532573, 0.336177, -0.373162, -0.357784, 0.159743, -0.580862, 0.0403586, 0.163973, 0.126962, -0.247755, -0.104362, -0.0142923, -0.340859, -0.400506, 0.148057, 0.144274, -0.144673, 0.216013, -0.056532, 0.219903, -0.214047, -0.469604, -0.330813, -0.388348, 0.218731, -0.323907, -0.0705322, -0.00931768, -0.0070976, -0.00601894, -0.28212, -0.165723, 0.0849442, 0.240521, -0.886732, -0.195758, -0.197691, -0.47697, -0.139193, -0.169182, 0.068524, 0.072856, 0.734273, -0.530675, -0.308902, 0.338041, -0.194025, 0.305336, -0.585583, 0.479203, 0.564272, 0.0908652, -0.0541307, -0.449825, -0.394119, 0.0459439, 0.717529, -0.0867252, 0.75629, -0.237278, -0.133809, -0.0661111, 0.0340237, 0.468978, -0.298976, -0.251289, 0.0891593, 0.133784, 0.187111, 0.148, 0.425136, 0.177226, -1.14862, 0.80173, 0.237669, -0.454217, 0.29864, -0.30925, 0.0325052, 0.15449, -0.124516, -0.662975, -0.195894, -0.174745, 0.367722, -0.335883, -0.317161, -0.622233, 0.413518, 0.4373, 0.409722, -0.108234, 0.585407, -0.459633, 0.526772, -0.331612, 0.0129514, 0.269145, -0.630306, 0.143656, -0.205853, 0.154302, -0.236101, 0.332183, -0.00222972, 0.385466, 0.779352, 0.361068, 0.430669, 0.133263, 0.51149, -0.723587, 0.287393, 0.451903, -0.166877, -0.25334, 0.218687, -0.00368564, 0.055817, 0.228728, -0.379404, 0.129174, -0.0954699, -0.259056, 0.37644, 0.239696, -0.465482, -0.891075, 0.166366, -0.510648, -0.15036, 0.677896, 0.506407, -0.0826153, 0.889244, -0.37629, 0.00368808, 0.177164, -0.155509, 0.527998, 0.106557, 0.439016, 0.479773, -0.169666, 0.732193, -0.0839151, -0.494055, -0.67619, -0.0323891, -0.186202, -0.4825, 0.631175, 0.547283, -0.215406, -0.1555, 0.158403, 0.158802, 0.214451, -0.630949, -0.273959, -0.620435, -0.603143, -0.539766, 0.680175, -0.0114737, 0.307701, -0.858536, -0.53072, -0.167133, -0.212625, 0.78051, -0.189688, 0.374103, 0.284429, -0.174788, 0.00754588, -0.799645, 0.0218786, -0.0350269, 1.0163, -0.416967, 0.737497, 0.41149, 0.0772276, 0.161731, 0.141983, 0.547645, 0.00342078, -0.275108, 0.0916911, 0.0724954, -0.0839913, -0.460921, -0.0482104, 0.175479, 0.112407, 0.105733, -0.0052514, 0.17344, 0.534597, 0.0424761, -0.110064, -0.0139095, 0.202322, 0.113022, 0.0779989, 0.0484136, 0.204769, -0.791121, -0.840748, 0.0404917, 0.373285, 0.226681, 0.160249, 0.0888368, 0.546951, -0.147769, -0.433953, 0.313572, 0.0799007, 0.419134, -1.12864, -0.228856, 0.0101947, 0.310305, 0.358248, 0.383034, 0.141212, 0.03245, 0.240551, 0.245984, -0.100739, -0.364975, 0.0397069, 0.540421, -0.143871, 0.22635, -0.396682, 0.79058, 0.123134, -0.0904875, -0.0681549, 0.454578, 0.0571915, 0.503996, -0.290393, -0.0835404, -0.0217108, -0.346887, 0.280279, 0.237317, 0.450682, 0.596958, 0.465119, 0.0143305, -0.0591068, 0.437967, 0.225652, -0.169123, -0.3424, 0.300841, -0.420672, -0.508365, -0.441378, 0.425926, 0.337858, 0.0988087, -0.0110562, -0.632824, 0.180942, -0.237062, -0.134131, -0.687129, -0.352215, -0.0321877, 0.354543, -0.310002, 0.232726, 0.187283, 1.03842, -0.891737, -0.213161, 0.130664, -0.0621006, 0.0859751, -0.265153, -0.157716, -0.0749373, -0.201604, -0.507162, -0.624338, -0.549745, -0.0679533, -0.0656505, -0.674074, 0.677907, -0.696507, 0.24919, 0.16414, 0.571831, 0.0140988, 0.0824885, -0.480918, 0.324287, 0.205723, -0.117235, -0.133717, -0.45316, 0.812213, -0.27579, -0.0343631, 0.512592, 0.269735, -0.340309, 1.2794, -0.119796, 0.821192, 0.5899, -0.0716564, -0.394046, -0.520331, 0.0163982, 0.033303, 0.27697, 0.266652, 0.0636922, 0.58123, 0.176736, 0.16552, 0.18057, -0.0468243, -0.216867, -0.340907, -0.629632, 0.213179, -0.239719, 0.14478, 0.0351589, -0.127368, 0.0714026, 0.331827, 0.263639, -0.0732639, -0.278496, 0.0964886, -0.239094, -0.270541, -0.416646, 0.624693, -0.188536, 0.132412, 0.0433584, -0.0473445, 0.0134284, -0.341213, -0.613815, -1.25657, -0.0476702, -0.371079, 0.155653, -0.218482, 0.502554, 0.220595, 0.231307, 0.525418, 0.244883, -0.141571, 0.36005, 0.110153, 0.0796734, 0.425579, 0.0290988, 0.31904, -0.6611, 0.319711, 0.477665, -0.178231, 0.217317, -0.10273, 0.952625, 0.685254, 0.203847, -0.149994, -0.425996, 0.15756, -0.801426, -0.162066, 0.41868, -0.0781504, 0.072782, -0.298779, 0.030277, -0.00155242, 0.0976702, -0.015207, -0.00601119, 0.144899, 0.826558, -0.0592116, -0.275092, 0.604829, 0.242794, -0.443558, 0.63374, 0.16164, -0.762446, -0.302473, 0.291292, -0.113405, 0.0154857, -0.365481, 0.116318, -0.0418535, 0.319892, -0.327753, 0.457693, -0.70706, -0.252431, -0.0935725, -0.47618, 0.0465866, -0.215949, -0.351712, 0.258331, -0.55103, 0.238244, 0.415881, -0.33526, 0.173392, 0.179927, -0.230915, -0.208518, -0.418608, -0.028081, -0.114724, 1.50382, -0.311428, 0.229769, 0.517627, 0.225949, 0.192595, -0.159567, 0.299237, -0.189599, -0.323447, 0.261402, 0.474553, 0.101262, -0.289983, -0.0813403, 0.500516, -0.0800422, -0.169366, 0.0992113, 0.36954, 0.453431, -0.0534236, -0.356326, 0.556824, 0.589952, -0.16825, -0.105184, 0.0191884, 0.549884, -0.50976, 0.346021, 0.292882, 0.363431, 0.0719583, 0.317098, 0.468245, 0.275615, 0.457281, 0.104444, 0.598101, -0.0147884, 0.590129, -0.545897, 0.197823, 0.09971, 0.309234, -0.0792661, 0.0943977, -0.741222, -0.908202, -0.440957, 0.103601, -0.216167, 0.0802435, 0.516819, 0.219723, 0.0988227, -0.00301179, 0.152042, 0.79058, -0.222643, -0.635564, -0.699341, -0.38793, 0.172546, 0.321946, 0.903375, -0.176049, 0.495317, 0.489606, 0.48514, -0.285884, 0.505487, 0.181932, -0.0161489, -0.0887308, 0.0631919, 0.404109, 0.644519, 0.665496, 0.390605, -0.677789, -0.221526, 0.441851, 0.0217008, -0.102828, -0.0942771, -0.173851, 0.046769, 0.247255, 0.662468, -0.251652, -0.468201, -0.113928, 0.515921, -0.172359, 0.735344, -0.339365, -0.304653, -0.599593, 0.013095, -0.374327, 0.225808, 0.0493461, -0.557988, -0.109638, -0.103033, -0.0204488, 0.878606, -0.385979, 0.0166165, -0.779376, 0.51908, 0.147885, -0.242921, -0.106563, -0.329504, -0.505079, 0.0829928, 0.35218, -0.101372, -0.0358724, 0.277067, -0.361331, -0.319759, -0.523847, -0.285231, -0.111576, 0.642107, 0.145911, 0.170233, 0.243002, 0.357947, 0.0884532, -0.557661, -0.383267, -0.19625, -0.255141, -0.125266, 0.134492, -0.121553, 0.0245462, -0.228936, 0.336372, -0.201978, 0.362743, 0.559106, 0.320819, -0.241411, 0.0497071, 0.170586, 0.548672, 0.437943, 0.137289, 0.405731, 0.117685, 0.172188, -0.347306, 0.263556, 0.138273, 0.364241, -0.080372, 0.176049, 0.474652, -0.471223, -0.180281, 0.547086, 0.265358, -0.734024, 0.414979, 0.626329, -0.0494344, 0.0515387, 0.305652, 0.175391, -0.0197458, -1.08966, 0.279384, 0.0896859, 0.498616, -0.0947573, -0.187932, 0.017724, -0.434609, -0.035152, -0.441821, -0.222304, -0.26487, 0.311642, 0.119908, 0.027441, -0.0786835, -0.282907, -0.329758, -0.330846, 0.88207, 0.521322, -0.299459, 0.14986, 0.240254, 0.446469, -0.159487, 0.571417, 0.305665, -0.584389, -0.375311, 0.417945, 0.460568, -0.338139, 0.455623, 0.4259, 0.602091, -0.660003, -0.124699, 0.329897, 0.325124, -0.0299613, -0.168586, -0.0165498, 0.671591, 0.245068, -0.213306, 0.209012, 0.11567, 0.0516041, 0.274507, -0.00526091, -0.409466, 0.0409512, -0.560002, -0.0407076, -0.385163, -0.131475, -0.158866, -0.172601, 0.516096, 0.218877, -0.349255, 0.104015, -0.0144057, 0.514744, 0.65834, 0.235042, -0.129454, -0.430745, -0.213217, -0.128399, -0.120578, 0.383776, 0.627724, -0.481382, 0.387171, 0.025743, 0.248999, 0.0971323, 0.0402518, 0.353281, 0.453724, 0.0528586, 0.444997, -0.576441, 0.604793, 0.415406, 0.203728, 0.185649, -0.306526, -0.176935, -0.0114625, -0.202572, 0.0509878, -0.395705, -0.06838, -0.284516, -0.109527, 0.0243396, -0.391136, 0.0188109, -0.318122, 0.386287, -0.224643, -0.140779, 0.234726, 0.132334, 0.677935, -0.0217432, -0.164601, 0.169676, -0.100635, 0.149447, -0.505736, 0.30739, 0.0557087, -0.0665877, -0.346546, -0.221866, 0.242387, 0.0778222, -0.0156885, 0.558158, 0.119263, 0.317097, 0.25686, 0.546398, 0.32441, -0.298829, -0.272979, 0.0531958, -0.0632959, 0.476272, -0.30698, 0.530308, -0.253727, 0.256732, -0.398726, 0.0354204, 0.348124, -0.0432345, -0.0108404, 0.46566, 0.456635, -0.28438, 0.17256, 0.23331, -0.478372, -0.0575037, -0.591141, 0.230598, 0.101641, 0.0683655, -0.110971, -0.626401, -0.760078, -0.225593, -0.0833504, 0.391805, -0.467366, 0.260185, -0.0954431, 0.00892391, -0.0484197, -0.337147, 0.386066, -0.330273, -0.159255, 0.0992272, -0.719521, 0.160303, -0.463244, 0.0219656, -0.042781, 0.136326, 0.253815, 0.509282, 0.3318, -0.0264221, -0.0857954, 0.354809, -0.149757, 0.466091, -0.018816, 0.37588, -0.482892, -0.52625, -0.191951, -0.383497, -0.823708, -0.309937, -0.190808, -0.270589, 0.832468, 0.211445, -0.103818, -0.311269, -0.81684, 0.0245425, 0.433834, 0.188951, 0.688053, -0.305519, -0.153517, 0.191037, -0.677607, -0.374606, -0.170279, -0.407949, -0.00407064, 0.197616, -0.372031, 0.00626397, 0.0856477, 0.243184, 0.110422, -0.245185, -0.183466, 0.132773, -0.0516682, 0.139409, 0.531798, -0.0340902, 0.422441, 0.618457, -0.276283, -0.298003, 0.45909, -0.282269, 0.236286, 0.355181, -0.144643, -0.106404, -0.200461, 0.426846, -0.385558, 0.0811667, -0.0408792, -0.529899, -0.327897, 0.77986, -0.432245, -0.210755, -0.122654, 0.112842, -0.293179, 0.0849058, 0.43047, 0.494095, 0.184078, 0.223088, 0.172258, 0.0157218, -0.230771, 0.206789, -0.0586869, 0.180733, -0.39212, 0.250883, 0.717556, -0.438574, -0.430894, -0.290442, -0.0988165, -0.0167267, -0.557035, -0.782807, -0.316226, 0.483453, 0.247723, 0.0999879, 0.265649, -0.0819124, -0.0340083, 0.247391, 0.377364, -0.343169, -0.299782, -0.0176467, 0.224865, 0.405872, 0.157202, 0.32796, 1.06431, -0.346108, -0.620042, 0.4044, 0.389764, -0.0496704, 0.294471, 0.179955, -0.151151, -0.166084, -0.00681805, 0.400968, 0.124784, -0.0991198, -0.456152, 0.30036, -0.145621, 0.169156, 1.16134, 0.455167, 0.339403, 0.0567635, 0.0809087, 0.524967, -0.451675, 0.0200751, -0.0229806, -0.00678508, 0.264714, 0.0277383, -0.258145, 0.0831366, -0.103617, -0.0786546, -0.440663, -0.202706, -0.231277, 0.439165, 0.163464, 0.0718704, -0.324812, -0.595672, 0.493976, -0.432494, -0.38525, -0.191534, 0.151143, -0.211372, -0.276955, -0.204651, -0.457086, -0.455563, 0.259198, -0.143803, -0.334624, 0.10866, 0.273864, -0.151292, 0.65086, -0.0790217, 0.0915285, -0.226019, -0.341739, -0.0996615, -0.351465, -0.617792, -0.312406, -0.429609, -0.200035, 0.104787, -0.752979, -0.179125, -0.319212, -0.115667, -0.481102, 0.133653, -0.154637, -0.384951, -0.1498, 0.0199605, -0.0416822, 0.0479039, -0.464775, 0.669526, -0.0700878, -0.317341, -0.0567456, 0.286481, -0.13091, -0.433933, 0.367144, 0.00170352, 0.290963, -0.187066, 0.0521167, 0.579095, 0.251605, -0.775693, -0.124978, 0.3673, -0.0994555, 0.0348243, 0.377845, 0.522721, -0.418868, 0.334014, 0.170506, 0.469001, -0.263446, 0.219079, -0.0999497, 0.316573, 0.642854, 0.238662, 0.281238, 0.684546, -0.59358, -0.154404, -0.235305, -0.0258559, -0.0937976, -0.203483, 0.268845, 0.581101, -0.3481, 0.231461, -0.454763, -0.0747566, 0.173104, 0.327362, 0.0219489, 0.470493, -0.109527, -0.325505, 0.229286, -0.501284, -0.266687, 0.137192, -0.217244, 0.135663, -0.122515, 0.565514, -0.37459, 0.127537, -0.402908, -0.0210329, 0.796237, 0.749105, -0.490807, 0.0444612, 0.079382, -0.322507, -0.368038, 0.480038, 0.334339, -0.532235, -0.159423, -0.227617, -0.490518, 0.115122, -0.163628, -0.228068, 0.406818, 0.116473, -0.208662, -0.637427, 0.456112, 0.24751, -0.0297248, -0.364658, -0.249417, -0.250628, -0.247213, 0.202316, 0.660557, -0.514897, 0.416394, 0.248078, -0.28322, 0.286239, 0.306906, 0.3367, 0.145197, -0.163499, -0.97696, 0.425765, 0.478424, 0.0198446, 0.878157, -0.399072, 0.344136, -0.0362566, 0.416474, -0.359683, 0.552084, 0.200753, 0.107951, 0.0974365, -0.342678, -0.00922876, -0.117456, 0.139703, -0.207668, 0.287332, 0.344679, -0.17871, 0.523005, 0.0991613, -0.277298, 0.0723713, -0.100791, -0.0397238, -0.0607437, -0.349861, -0.59906, -0.391024, -0.185568, 0.408097, -0.198339, 0.575405, 0.215342, 0.289288, 0.479481, 0.486162, 0.0457775, -0.04647, -0.119646, -0.112317, 0.49168, -0.0973535, 0.375504, -0.608472, 0.537475, 0.252757, 0.0705374, -0.371435, 0.630193, -0.140958, 0.259892, -0.106277, 0.467697, 0.078077, -0.236529, 0.603985, -0.138276, 0.0430448, 1.0369, 0.517549, 0.341017, 0.257654, 0.214564, -0.404718, 0.0101467, 0.181016, 0.18369, -0.286221, 0.32922, 0.1967, 0.576092, -0.859987, -0.104488, -0.589712, 0.401423, -0.255918, 0.368624, 0.140051, 0.12848, 0.072887, 0.57485, 0.252114, 0.554662, 0.187892, -0.0726634, 0.274018, 0.0339728, -0.204741, -0.665611, -0.0400364, 0.126206, -0.126575, 0.600909, 0.249688, 0.355662, 0.00353217, 0.29564, 0.387445, -0.540741, 0.168198, 0.0977583, -0.448305, 0.244433, 0.942238, 0.0394954, 0.180362, -0.359695, -0.00667573, -0.387431, 0.100951, 0.162704, -0.51065, -1.16261, 0.111595, 0.112722, 0.115554, 0.434956, 0.243515, -0.0386563, -0.314844, 0.180083, -0.342091, -0.14432, -0.232395, 0.0264495, 0.236082, -0.0652246, 0.231002, -0.441411, 0.0460981, -0.476596, 0.887116, 0.231809, -0.844007, 0.167436, -0.323242, 0.370781, -0.27111, -0.0381882, 0.162021, 0.48645, 0.894774, 0.0741111, -0.604929, 0.0705876, 0.266073, 0.203138, 0.163372, 0.229279, 0.174852, -0.111363, -0.118239, 0.140972, -0.487688, -0.220705, 0.244307, -0.746538, -0.465878, -0.0578788, 0.503521, 0.0825896, 0.316374, 0.670994, -0.121052, 0.123858, -0.164635, -0.240757, -0.167572, -0.144838, -0.622833, 0.209944, 0.0730585, 0.603102, -0.105045, 0.255051, 0.548108, 0.584034, -0.0762639, 0.567995, 0.102746, 1.07081, -0.325357, -0.0780752, 0.585638, 0.0940382, 0.42365, -0.1799, 0.324361, 0.293446, -0.0758538, 0.293389, 0.146407, -0.178322, -0.0791875, -0.374005, 0.620918, 0.621512, 0.298664, 0.609866, -0.457179, -0.290258, -0.392863, -0.31245, 1.07692, -0.0416485, -0.741892, 0.297823, -0.212409, 0.388988, 0.638586, -0.58714, 0.260422, 0.00120265, -0.00241376, -0.305624, 0.020684, 0.347584, -0.117532, 0.496498, -0.0435082, -0.577645, 0.43324, 0.236487, 0.344822, -0.111544, 0.135012, 0.00224851, 0.133062, -0.398131, -0.257874, 0.107319, -0.0833097, -0.00805429, -0.0323822, -0.238286, 0.194879, 0.418884, -0.180991, -0.469632, -0.223906, 0.435262, -0.249322, 0.200651, 0.152856, 0.155889, 0.091234, 0.962984, -0.0321954, 0.390525, -0.607131, 0.827612, 0.0963337, -0.300924, 0.31919, 0.38715, -0.068724, 0.348206, -0.365657, -0.192947, -0.314455, -0.613472, 0.186122, -0.136103, 0.118555, 0.0898336, 0.530072, -0.0350503, 0.0858015, 0.0856665, -0.663116, -0.199058, -0.319959, 0.177299, -0.154944, 0.0677192, -0.219631, 0.222653, -0.0946276, -0.0580973, 0.110311, 1.05707, 0.229116, -0.2501, -0.394021, -0.0656444, 0.264836, -0.233418, -0.606202, 0.131216, 0.137183, 0.904677, -0.012816, -0.256929, -0.117342, -0.064195, 0.179769, -0.105889, -0.818655, 0.678947, -9.68698e-05, 0.860698, -0.132008, 0.0414006, 0.00831816, 0.624084, -0.0782962, 0.0103562, -0.255107, 0.664524, 0.0414844, -0.486131, 0.643155, 0.0497063, 0.0802601, 0.375557, 0.331947, 0.194541, 0.40859, 0.582008, -0.320755, -0.8193, 0.17284, -0.1182, 0.270124, 0.473026, -0.112331, 0.389063, -0.0481552, 0.039272, -0.179422, 0.224664, -0.0469976, -0.525951, 0.657726, 0.145456, 0.048389, 0.233364, 0.141258, 0.39467, 0.362119, -0.354326, 0.156298, -0.102938, 0.315833, -0.348956, 0.161993, 0.0565664, -0.0925176, 0.0321227, -0.0432173, 0.407724, -0.35331, -0.255241, 0.717663, -0.491173, -0.185272, -0.281506, -0.167982, -0.0534831, 0.947605, 0.347081, -0.134491, -0.417801, -0.0914157, -0.16812, -0.053916, -0.0103933, -0.0783708, -0.611489, -0.0970622, 0.0458487, 0.058512, 0.471705, -0.0640573, 0.196019, -0.689993, -0.139283, -0.402357, -0.0940392, -0.239046, -0.0988266, -0.140695, 0.470238, 0.147728, -0.689679, 0.0279113, -0.383338, 0.866656, 0.20993, -0.0720747, -0.206271, -0.214305, 0.222041, -0.801159, 0.165177, 0.163178, 0.240878, -0.363798, 0.0147699, -0.294306, 0.335535, -0.232626, -0.827647, 0.523906, 0.399743, 0.0348011, 0.0577159, 0.573487, 0.586667, -0.17657, -0.611389, 0.271906, -0.559478, -0.147147, -0.253927, 0.497476, 0.422104, 0.0779692, 0.865876, 0.245306, -0.408668, -0.107557, 0.335973, -0.227125, 0.141734, -0.454331, 0.124488, -0.343231, -0.15646, -0.815182, -0.221908, 0.397868, -0.316692, -0.54059, 0.0651102, 0.0407445, 0.580252, -0.11498, 0.0602581, 0.78435, -0.647228, -0.0284392, 0.118521, 2.58937e-06, 0.00423562, 0.227192, 0.210888, -0.213029, 1.0656, 0.413128, -0.211687, 0.125881, 0.55236, 0.161476, 0.411542, 0.0638492, -0.166704, 0.51743, 0.282112, -0.110551, -0.104062, 0.178206, 0.0574561, 0.126905, 0.400958, 0.166066, -0.19239, -0.244777, -0.223947, 0.26474, 0.112146, 0.379807, 0.136221, 0.395055, 0.613496, -0.0786505, 0.00757024, -0.15451, 0.102253, -0.333922, -0.115232, 0.588471, 0.278618, 0.440078, -0.392179, -0.213198, 0.507349, 0.231207, 0.0108075, -0.0729506, 0.103138, -0.0606212, -0.228398, 0.0885921, 0.0768238, 0.0660296, -0.279149, -0.229945, 0.118751, 0.396564, 0.0900794, -0.20769, 0.270314, -0.479239, -0.0318908, -0.302807, -0.424118, -0.348047, 0.30181, 0.0537538, -0.0890569, -0.0379646, -0.58059, -0.0323224, -0.116252, -0.157065, 0.0266536, 0.20766, -0.000526302, 0.706278, -0.930313, 0.28141, 0.0284947, 0.191376, 0.18486, 0.0501192, -0.00832208, -0.159976, 0.333062, -0.182519, -0.376907, 0.0550615, 0.416916, 0.214995, 0.0106483, 0.0358949, 1.46373, 0.350478, -0.283689, 0.0473306, -0.231104, 0.69475, -0.582358, -0.614261, 0.0768408, 0.473764, -0.0566343, -0.00225838, -0.485958, -0.148742, 0.00988722, 0.193933, 0.1505, 0.956125, 0.100119, -0.103453, -0.693469, -0.582137, 0.551837, -0.354538, 0.378792, -0.0362706, -0.118281, -0.64694, -0.168951, -0.339149, -0.966383, -0.326123, 0.423063, 0.554604, -0.262798, 0.0781948, 0.0700743, -0.00757781, -0.0694299, 0.0926256, -0.140863, -0.157454, -0.11279, -0.169824, 0.0273144, -0.802519, -0.709337, -0.472873, 0.464681, 0.84608, 0.207917, 0.215015, 0.276709, -0.294667, -0.227648, 0.107755, 0.081233, -0.944595, 0.613435, -0.218897, 0.456555, -0.0817334, -0.0342133, -0.324517, -0.212917, -0.0360862, -0.558728, -0.270032, -0.200335, 0.215476, 0.0284473, -0.175024, 0.0899652, 0.107276, -0.115512, 0.040508, 0.396827, -0.398331, 0.738974, -0.0778466, 0.097096, 0.247639, -0.320836, -0.16499, 0.661868, 0.145478, -0.281229, -0.26243, -0.20571, 0.475694, -0.654837, -0.0730227, -0.084909, -0.0033806, 0.313252, 0.0509352, -0.163565, -0.203478, 0.258408, -0.0304926, 0.212132, -0.806387, -0.112698, 0.171226, -0.113078, 0.0097377, -0.0712836, 0.0724713, 0.420372, -0.111578, -0.228379, -0.140747, 0.279715, -0.364669, -0.608736, -0.366356, -0.244584, 0.253493, -0.348937, 0.106177, 0.724449, -0.238841, 0.498703, 0.144421, -0.53721, 0.1054, 0.140909, 0.256518, -0.331807, -0.292487, 0.208639, 0.052748, 0.0550929, 0.322356, 0.0834615, 0.339516, 0.112583, 0.26458, 0.39899, -0.117874, -0.406941, -0.286461, -0.358051, 0.0666853, -0.228356, 0.187623, 0.0770349, -0.211717, 0.566982, 0.157143, 0.076527, 0.288711, 0.43571, -0.239633, 0.287893, 0.210038, -0.0601068, 0.393984, -0.0356444, -0.230873, 0.116604, -0.107921, 0.0352571, 0.0915947, -0.0965705, -0.184279, -0.240921, -0.485706, -0.121671, 0.103005, -0.0346883, -0.208833, -0.0376599, 0.206817, 0.326939, -0.473439, 0.498836, 0.342957, 0.0194005, 0.0794814, 0.11956, 0.0315949, 0.0114042, 0.31337, 0.0140965, 0.0277758, 0.0374882, 0.17699, 0.0768354, 0.176378, -0.215929, -0.458666, 0.0476212, -0.346249, -0.0835545, -0.278267, 0.0326398, -0.153003, 0.144367, 0.231839, -0.150531, 0.194544, 0.0676015, 0.101529, 0.657844, 0.126472, 0.359081, -0.474006, 0.193336, -0.202007, 0.323866, 0.0746377, -0.0146767, -0.376769, -0.212917, -0.135878, -0.0806851, 0.0773091, -0.0343338, 0.428791, -0.411958, -0.285081, -0.76136, 0.466569, -0.0440507, 0.0160414, 0.133028, 0.682067, 0.503233, -0.300107, -0.349763, 0.199853, 0.396493, -0.0807849, -0.175832, -0.445114, -0.243654, -0.472027, -0.0815481, 0.515665, -0.251189, 0.325764, 0.207516, -0.320222, -0.796041, 0.114343, 0.317034, 0.0807446, 0.607095, 0.501471, 0.234334, 0.780262, -0.523892, 0.406515, 0.481716, 0.448469, -0.163997, 0.219861, 0.28653, 0.251157, -0.442055, -0.707092, 0.420071, 0.339934, -0.471315, 0.134231, 0.372927, -0.0432515, -0.356902, 0.215395, -0.088352, 0.179956, -0.14149, 0.109964, -0.0674659, -0.153408, -0.513833, -0.538583, 0.399866, -0.0680257, 0.45594, 0.167879, -0.314415, -0.337071, 0.290271, -0.570572, -0.127132, -0.11016, 0.362862, 0.199432, -0.182327, 0.168096, -0.0686528, 0.095441, 0.0213056, -0.493941, -0.139831, -0.0710422, 0.201084, -0.113293, -0.19749, 0.392617, -0.222603, -0.931356, 0.361925, -0.0700587, 0.371899, -0.083832, 0.525359, -0.53343, -0.62708, 0.0667088, 0.375023, -0.650575, 0.242644, -0.189156, 0.132507, 0.17017, -0.0121728, -0.634679, -0.162565, -0.0934422, -0.235896, -0.456873, -0.0433524, -0.350877, -0.0211502, 0.0315387, -0.132435, 0.115691, 0.167397, -0.329891, 0.254518, -0.402373, -0.193884, 0.102641, -0.137228, 0.0990893, -0.734182, -0.271951, 0.989932, -0.070208, 0.261589, 0.0846628, -0.04887, 0.35385, -0.163713, -0.26595, -0.348651, -0.108382, -0.0349618, -0.0594251, -0.13165, -0.227909, 0.184747, 0.0538836, 0.193902, -0.484609, -0.410662, -0.0365157, -0.0795557, 0.0632856, -0.180419, 0.320302, -0.147036, 0.18283, -0.211949, 0.53894, 0.256149, -0.45757, -0.452761, 0.0766376, -0.389177, 0.120211, -0.232485, 0.0382792, 0.223794, 0.0196826, -0.240511, 0.0456245, -0.402856, 0.24307, 0.449311, 0.352654, -0.275537, -0.145815, 0.456914, -0.100511, 0.122596, 0.0909905, -0.0343173, 0.135411, 0.0514762, -0.189998, 0.446567, -0.242521, -0.344128, -0.31453, 0.664527, -0.52514, -0.124452, 0.0145162, -0.0418611, -0.188485, 0.325136, -0.186897, -0.160926, -0.151015, 0.35451, 0.136115, 0.034848, -0.16503, -0.404258, 0.0504361, -0.219224, -0.470957, 0.242997, 0.362579, -0.302926, 0.531268, -0.284884, -0.221614, -0.00764639, -0.461859, -0.278992, -0.248712, -0.227983, -0.0292416, 0.187905, 0.367072, 0.0458306, -0.0371337, 0.123707, -0.270942, 0.307055, 0.142452, -0.120398, 0.0762094, 0.1321, -0.112573, -0.036894, -0.244169, 0.346052, 0.256831, 0.429854, -0.113839, 0.0189913, -0.1816, 0.0303931, -0.482871, 0.162375, -0.0536002, -0.0126752, -0.054972, 0.101349, 0.252113, 0.504147, 0.0717894, 0.483013, -0.203855, 0.173707, -0.566148, 0.186345, 0.100176, 1.1629, -0.0520231, 0.145271, -0.769842, 0.132707, -0.709206, 0.287652, -0.478649, -0.304617, 0.337662, 0.252711, 0.269572, 0.481802, -0.0118346, 0.250586, -0.530579, 0.155247, -0.0395547, -0.122902, -0.0375211, -0.391734, -0.113652, -0.427062, -0.00806135, -0.246825, 0.0560247, -0.0527968, -0.730836, -0.455504, -0.633369, -0.403792, 0.56933, -0.172633, -0.0475177, -0.355559, 0.00231812, -0.772227, -0.224764, -0.0867565, 0.0551591, 0.448775, 0.551395, 0.0492691, 0.111966, 0.039917, 0.0545492, -0.137103, 0.16443, 0.0108024, 0.352696, 0.648099, -0.0717678, -0.178576, -0.132982, 0.728015, -0.733729, -0.949144, -0.0204285, 0.119883, -0.165538, 0.0164985, -0.482396, 0.256873, -0.161153, 0.0363101, 0.393771, 0.15897, -0.0347187, -0.0983002, 0.30601, -0.137135, 0.0139815, 0.193468, -0.157584, 0.267207, 0.213777, 0.02546, -0.123906, 0.396194, -0.360545, -0.292603, -0.159079, -0.13804, 0.215227, -0.123366, -0.246775, -0.0619191, -0.415075, -0.0696369, -0.143503, -0.0496855, 0.0286708, 0.515894, -0.676395, 0.683895, 0.173119, -0.422851, 0.196069, -1.15595, -0.069271, 0.764325, -0.227447, 0.449263, 0.227229, 0.017554, -0.0556811, 0.629428, 0.051146, 0.231958, 0.0151253, -0.488896, 0.416654, 0.151386, -0.165081, -0.0701313, 0.363394, 0.951526, 0.196487, -0.00237736, 0.119597, -0.382391, -0.492389, 0.829918, 0.027375, 0.182122, 0.116544, -0.30218, -0.0685023, 0.31078, -0.0429736, 0.0205689, -0.482766, 0.151946, -0.0708628, 0.124227, -0.0798312, -0.442183, 0.222558, -0.794713, 0.407387, -0.587093, -0.0709723, 0.304996, -0.843038, 0.117993, 0.187317, 0.101567, -0.484173, 0.168846, -0.156289, -0.228588, 0.362146, 0.217774, 0.431529, 0.408295, 0.245037, -0.00881362, 0.452917, 0.265674, 0.419768, 0.837433, -0.0784511, 0.259145, -0.192938, -0.617853, -0.202689, -0.0659279, -0.183254, 0.416652, -0.168866, 0.872968, 0.125769, 0.294038, -0.144836, 0.276897, 0.277529, 0.152586, 0.615157, -0.228661, -0.461303, 0.288299, -0.498741, -0.652415, -0.472013, 0.552324, 0.487451, -0.0527166, -0.423701, 0.106848, 0.481926, 0.538654, 0.223009, 0.645466, -0.151019, 0.220609, -0.347832, 0.44664, -0.373241, 0.074989, 0.451836, 0.567292, -1.0915, -0.211947, 0.526061, -0.0374966, 0.473258, -0.370294, 0.489847, -0.068966, -0.70514, -0.444863, 0.342978, 0.145198, -0.0929436, 0.322494, 0.0587462, -0.0695655, -0.614505, -0.236079, 0.0620939, -0.0598122, 0.279985, 0.123015, -0.046049, -0.678173, 0.058537, -0.478107, 0.215832, -0.36627, 0.336816, 0.130794, 0.285383, -0.311448, -0.157251, -0.14268, -0.00962829, -0.11296, -0.190309, -0.000123267, -0.218816, -0.163144, -0.0384405, 0.0740902, 0.644029, 0.00347236, -0.166888, 0.129848, 0.188026, 0.626995, -0.0315521, -0.0156105, -0.330754, -0.819655, -0.242599, -0.611272, 0.00898199, 0.874464, 0.111189, 0.00990146, -0.296989, -0.409309, -0.120508, 0.376974, -0.185832, 0.00396391, -0.403152, -0.11265, 0.346806, -0.196048, 0.525685, 0.0641645, 0.543721, -0.232645, 0.0700591, 0.569293, -0.218329, 0.290877, 0.501841, 0.341529, 0.357924, 0.0424596, 0.0430551, 0.190455, -0.501295, 0.433946, -0.286786, 0.114284, -0.0500666, 0.261992, 0.0947285, 0.160306, -0.119072, 0.160444, 0.0647172, 0.0857615, -0.283234, -0.0084674, -0.183586, 0.358482, 0.0316266, -0.204245, -0.273322, 0.202639, 0.020308, 0.249405, -0.287469, 0.199595, 0.875921, -0.0338227, -0.488182, -0.299277, -0.0914179, 0.327351, -0.144674, 0.199559, 0.00222485, 0.164786, 0.44144, -0.789609, 0.0700067, 0.758402, 0.0532888, -0.386063, 0.0712013, -0.0879954, -0.310496, -0.577105, 0.0482611, 0.448298, -0.0294301, -0.308618, -0.0450029, -0.626097, -0.0844716, -0.041564, -0.649883, 0.179801, -0.460564, -0.216533, 0.0889636, -0.362597, 0.0734507, -0.0978654, -0.341493, 0.192233, -0.152775, -0.0378339, -0.66887, 0.422729, -0.442369, 0.482735, -0.741477, -0.459013, 0.254728, -0.943618, 0.551171, 0.095487, -0.2245, 0.0179612, 0.10063, 0.00468056, 0.181317, 0.58944, -0.095132, 1.15534, -0.302021, -0.254094, 0.261144, 0.0928712, -0.612303, 0.234748, -0.37447, 0.307159, 0.255504, 0.268222, 0.517744, 0.0463071, -0.79972, 0.133746, 0.411444, -0.626513, 0.250823, -0.167069, -0.0766459, -0.166536, -0.165679, 0.323742, -0.205544, -0.217233, 0.329256, 0.533366, -0.31172, -0.17402, 0.404088, 0.0556577, 0.43738, -0.262786, 0.326088, 0.43046, -0.0338152, 0.127737, -0.0454937, 0.1909, -0.301109, -0.167489, -0.179714, 0.231736, 0.368587, -0.252053, 0.447407, -0.153451, 0.0294647, 0.470446, -0.205183, 0.216237, 0.876564, 0.145772, -0.012088, 0.2287, -0.0816896, -0.659885, -0.0774525, 0.280526, -0.158471, 0.130459, 0.115999, -0.611563, -0.256525, 0.195925, -0.253329, 0.481885, 0.118286, 0.396607, 0.803207, 0.115026, -0.723928, -0.0921294, -0.0535657, -0.235233, 0.0434032, -0.348795, 0.776344, 0.579009, -0.121203, -0.253781, 0.49888, -0.18357, 0.318203, 0.403941, -0.320133, 0.0444505, 0.550504, -0.243056, -0.441853, 0.735091, 0.328615, 0.0224037, -0.239712, -0.288095, 0.153864, -0.301898, 0.0900349, -0.382907, -0.0127215, -0.547376, -0.106066, -0.506547, 0.222664, -0.26992, 0.513278, 0.323246, -0.424291, 0.0993881, -0.789414, -0.196774, 0.0293174, -0.364551, 0.335203, 0.589319, 0.026149, -0.182449, -0.229818, 0.112793, 0.2096, -0.111421, -0.442241, 0.296063, 0.132287, 0.225503, 0.158687, 0.157022, 0.0411438, 0.176371, -0.117131, -0.0704998, -0.430491, 0.480079, -0.0103911, 0.211238, 0.235478, -0.0941321, 0.229634, 0.234713, -0.0321113, -0.202378, -0.298265, 0.259235, -0.374634, -0.828375, 0.349769, -0.0636554, 0.142266, 0.0450836, 0.382897, 0.493646, 0.0237831, 0.306042, 0.176501, 0.591802, -0.485501, -0.0861336, 0.13221, -0.221402, 0.0984704, -0.0557698, -0.299356, 0.292914, 0.358835, -0.268932, -0.0789369, 0.429555, 0.110138, 0.0455091, -0.0257126, -0.325048, -0.0219691, -0.420909, 0.23936, -0.918828, 0.205236, -0.484148, -0.314615, 0.218745, 0.419225, 0.0181444, -0.501685, 0.517038, 0.303155, 0.119183, -0.0277041, 0.215653, 0.265114, -0.375803, -0.0239087, 0.478044, 0.135579, 0.133276, -0.538009, 0.378011, -0.509863, 0.511202, 0.256205, 0.136016, -0.505563, -0.239008, -0.18259, -0.314526, 0.131398, -0.285512, -0.852219, 0.576165, 1.02895, -0.432801, -0.0372874, 0.286663, 0.262501, -0.0655815, 0.183169, 0.469432, -0.180296, -0.0753105, -0.512035, 0.0661444, -0.22185, 0.471802, -0.236405, 0.110746, 0.243008, 0.176365, -0.566229, -0.0451223, -0.112504, -0.217661, -0.0413981, -0.32858, 0.426199, 0.0425709, -0.1718, 0.493918, -0.381637, -0.11529, -0.0388806, -0.081461, -0.448113, -0.119735, -0.036375, -0.589002, 0.0682046, 0.761392, 0.180334, 0.248528, 0.103633, 0.19469, 0.0636831, -0.0243018, 0.0507686, 0.000199268, 0.0617031, 0.559992, 0.226572, 0.194343, -0.13508, -0.534234, -0.532635, -0.201019, -0.515989, -0.239964, -0.0789666, 0.0214123, 0.387867, -0.00632611, -0.00830861, -0.434471, 0.429301, -0.163153, -0.496601, 0.453184, 0.196942, -0.298064, -0.184927, -0.383714, 0.035211, -0.518105, -0.229328, 0.165728, -0.130507, 0.306611, 0.0426426, -0.180949, 0.288533, -1.42456, 0.218177, -0.0591925, -0.415319, -0.262273, 0.10238, 0.06419, 0.548699, 0.374575, -0.428899, 0.449481, -0.142499, -0.508393, 0.366473, -0.0306118, 0.235923, -0.167639, 0.0327494, 0.0320409, 0.302748, -0.111946, 0.29173, 0.409444, -0.298822, -0.342933, 0.522895, -0.760669, -0.446259, 0.404371, 0.295197, 0.00155738, 0.224233, 0.0117352, 0.430654, -0.679412, -0.27773, 0.261577, 0.486433, -0.362348, -0.169133, -0.178058, -0.265496, 0.118588, 0.120342, -0.312527, 0.223749, -0.155652, -0.390333, 0.317641, -0.247347, -0.435955, 0.47473, -0.250621, 0.118312, 0.116537, 0.0216444, 0.489158, -0.472967, -0.226171, -0.144195, -0.042857, 0.0238292, 0.106718, 0.403305, 0.177802, 0.19308, -0.432682, 0.460608, -0.116827, -0.092984, 0.0222281, -0.00285004, 0.21003, -0.0384745, -0.359841, 0.143558, 0.259276, -0.438207, 0.0819315, -0.00983472, 0.372334, -0.242501, -0.259573, 0.550427, -0.307661, 0.13433, 0.367998, 0.467186, -0.130577, -0.13495, -0.127733, 0.0575974, 0.330934, -0.0619495, 0.491232, 0.0213527, 0.00435432, 0.0870428, -0.408044, 0.405165, -0.375812, -0.285601, -0.221399, -0.355997, 0.00535658, 0.273248, 0.137721, 0.192557, 0.604335, 0.0662002, 0.336664, 0.11787, 0.235548, 0.153437, 0.421274, 0.293264, -0.132162, -0.260853, 0.258433, -0.244267, 0.048761, 0.168182, -0.0690259, -0.128252, 0.180267, 0.137093, 0.116301, 0.103064, -0.272674, -0.692903, 0.103982, -0.422044, -0.695884, -0.097137, -0.0215906, 0.19065, 0.365915, -0.0299966, 0.101333, -0.027352, -0.408861, 0.0708751, -0.347855, 0.105191, -0.334901, 0.345568, 0.0254838, -0.0917912, 0.0939574, 0.353258, -0.351888, -0.220793, 0.242564, 0.166991, 0.481869, -0.0703094, 0.346193, -0.38187, 0.67667, -0.158815, 0.33646, 0.454855, 0.178358, -0.491848, 0.79373, -0.43272, 0.172131, -0.105572, 0.156449, -0.0834938, -0.0598616, -0.392621, 0.209652, 0.376786, 0.11256, 0.659572, -0.0515315, -0.0121565, -0.188977, 0.29616, -0.786177, 0.0863053, -0.139706, 0.251789, 0.00702311, 0.184664, 0.117556, -0.13254, 0.539786, -0.212539, 0.00130198, 0.223282, -0.467076, -0.010158, 0.244091, -0.62132, -0.148351, 0.196166, 0.198123, -0.221603, -0.0615579, 0.100444, -0.0242736, 0.165546, 0.352149, -0.136241, -0.272659, -0.0359146, -0.129713, -0.234778, -0.395446, 0.0930027, -0.0792541, -0.0759197, 0.776012, 0.298778, 0.406583, 0.336189, -0.109086, -0.309366, -0.19572, 0.365751, 0.515338, -0.252925, 0.347311, -0.225967, 0.255189, -0.249762, -0.10066, -0.389719, -0.260548, -0.163044, -0.549539, -0.24454, -0.285496, 0.051567, 0.086056, 0.0148354, -0.0221136, -0.00426923, -0.185781, -0.601745, 0.422827, 0.0838231, -0.595534, -0.288581, 0.203525, -0.104931, -0.940194, -0.163758, 0.435749, -0.0547221, 0.475924, 0.171675, -0.178062, 0.157252, 0.0712319, -0.322443, -0.0991373, 0.0659701, 0.0374116, -0.0399433, -0.213539, 0.12894, 0.385169, -0.223229, 0.0332699, 0.154537, -0.290364, -0.265192, -0.212405, 0.410173, -0.0795379, 0.241018, -0.516129, 0.0968888, 0.0365052, 0.701081, 0.18122, -0.506589, -0.254246, 0.32082, -0.619807, 0.037448, 0.470021, 0.269293, 0.532781, 0.0442272, -0.381354, 0.330507, -0.666396, 0.0623522, 0.442722, 0.0580849, 0.0559577, -0.310321, 0.368594, -0.0506684, -0.318552, -0.243947, -0.215803, 0.153516, 0.207183, -0.414139, -0.117134, -0.0328015, -0.322538, -0.387125, -0.0563521, -0.206582, 0.0607476, 0.139257, 0.907293, -0.209038, -0.412692, -0.275326, -0.33778, -0.291395, 0.400307, 0.302939, 0.488359, 0.282704, -0.00533514, 0.432176, -0.376386, 0.00644448, 0.229037, 0.101995, -0.313839, 0.129996, -0.0987699, -0.0376597, 0.0366143, -0.375838, -0.386158, 0.176656, -0.314983, -0.134045, 0.081971, -0.347644, 0.187391, 0.136926, 0.159713, -0.140345, -0.217093, 0.282747, -0.108529, 0.00078209, -0.0918608, 0.459354, 0.450175, -0.00742067, 0.290524, -0.0242807, -0.279079, -0.161919, 0.243176, -0.0801339, 0.114332, -0.609137, 0.0135749, -0.241461, -0.292872, -0.0759382, 0.0905576, 0.28549, 0.977792, 0.0639916, 0.118308, 0.329819, 0.669982, 0.0464443, -0.141045, -0.467359, 0.614097, 0.0106934, -0.317303, -0.305564, -0.0107239, 0.28531, 0.358712, -0.173212, 0.0212189, 0.295021, 0.0982227, 0.302488, 0.109974, -0.365031, -0.0116936, -0.144127, -0.118939, 0.187173, 0.11558, -0.374462, -0.478556, -0.247321, -0.11976, 0.185464, -0.156067, -0.0716718, 0.0271611, -0.179061, 0.239622, -0.173472, 0.185073, 0.612912, -0.27083, 0.0381888, -0.416714, 0.368414, -0.769023, 0.349002, 0.165229, 0.590176, 0.281402, -0.347608, 0.169175, -0.608654, 0.139781, -0.0237151, -0.227752, -0.0717513, 0.213904, -0.0685431, 0.350385, -0.358057, -0.146576, -0.143746, 0.377013, 0.0176243, -0.28859, 0.246069, -0.828392, -0.00304533, -0.304332, 0.41493, 0.230624, -0.638834, 0.752113, 0.0178337, -0.475715, -0.241599, 0.368203, -0.0338111, 0.0479687, -0.0225773, 0.286877, 0.0434973, 0.228394, -0.356467, -0.600701, 0.448613, 0.0404823, -0.261074, -0.0386345, -0.0755095, 0.417997, -0.414343, 0.0456956, -0.0772921, 0.631639, 0.602765, -0.240007, -0.724388, -0.184434, 0.0837626, -0.36563, 0.0157293, -0.0432808, -0.680977, -0.188699, -0.322662, 0.188731, -0.355281, 0.0826293, 0.030854, -0.0603894, -0.375469, 0.169106, -0.804943, 0.0485262, 0.0780841, 0.197648, -0.0822647, -0.277871, -0.416987, -0.0755564, -0.807771, -0.42161, 0.0639447, -0.102191, 0.0328727, 0.677614, 0.594807, -0.0962775, 0.672914, 0.582962, 0.62602, 0.819868, -0.474676, 0.0385501, 0.320664, -0.0941411, 0.490495, -0.373801, -0.282322, 0.338681, 0.622408, 0.339007, 0.226982, -0.919116, 0.590516, 0.492386, -0.241769, 0.151367, -0.0794751, 0.00720454, 0.183289, -0.0427804, -0.333052, -0.389976, 0.35135, 0.263271, 0.488254, 0.0779325, 0.420288, -0.47699, 0.0102119, 0.377044, -0.943146, -0.282834, -0.147678, -0.281366, 0.550213, -0.474779, -0.351865, -0.354629, 0.409986, -0.135079, 0.26006, 0.451064, -0.204198, 0.0625577, 0.375748, 0.303141, -0.443594, -0.689694, 0.168919, 0.283674, 0.0348834, -0.0276799, -0.0601011, 0.51419, 0.621142, -0.00731774, -0.190129, -0.197045, -0.185283, -0.272207, 0.287024, -1.07511, -0.640082, -0.266217, 0.0152997, 0.377771, -0.613961, -0.28994, 0.0955368, 0.277641, 0.259916, 0.15508, -0.727588, 0.122685, -0.104252, -0.328117, -0.356608, -0.205496, -0.390122, -0.266637, 0.0164431, -0.0600654, 0.053498, 0.43992, -0.0369799, 0.0503303, 0.0389689, -0.419337, -0.0767848, 0.337269, -0.400155, -0.346775, -0.421445, 0.420039, 0.110464, 0.625262, -0.0461446, 0.221189, 0.00832279, -0.18805, 0.0639726, -0.129017, 0.149196, 0.0437865, 0.129039, -0.574092, 0.267715, 0.533681, -0.196584, 0.0926237, -0.685192, -0.000484218, -0.352959, -0.0580022, -0.170842, -0.0836195, -0.488845, 0.125049, -0.230358, 0.0309211, 0.162136, 0.168046, -0.74838, 0.574113, -0.173997, 0.847269, -0.20473, 0.22277, -0.0926256, 0.22635, 0.0775102, 0.535208, 0.0107338, -0.00971897, -0.58871, 0.18918, 0.67686, 0.82436, -0.0142176, -0.438753, 0.408308, 0.0436261, 0.436515, -0.493557, -0.0704369, 0.40096, -0.0724474, 0.308064, 0.302703, 0.0981242, 0.178894, -0.33731, -0.0550099, 0.31155, -0.470068, -0.0461597, 0.466282, 0.236268, -0.131201, -0.037218, 0.388033, 0.205286, 0.727627, -0.195617, 0.362753, -0.264434, 0.73661, -0.541512, -0.0717707, -0.113088, -0.618147, -0.0377523, 0.390353, 0.158901, -0.0579247, -0.117779, -0.549854, 0.0642203, 0.38608, 0.0347123, 0.0529827, -0.628845, -0.232465, -0.241812, 0.123021, -0.158474, -0.272875, 0.102726, 0.165165, -1.13747, -0.48788, -0.405805, 0.249792, 0.286548, -0.653375, 0.0501807, 0.41967, -0.23643, -0.136955, -0.132653, -0.138634, -0.0451049, -0.243384, -0.660015, -0.0355843, 0.236401, -0.27448, -0.217515, 0.179363, -0.184996, 0.0924282, 0.399131, -0.376463, 0.0923833, -0.334171, -0.335486, -0.331914, 0.257682, -0.0942617, -0.112747, -0.328216, -0.462943, 0.205807, -0.171413, 0.169623, -0.247529, 0.0158056, -0.0681981, -0.154471, 0.355904, 0.273233, 0.00120546, 0.0963937, 0.166327, 0.200344, 0.304219, -0.777163, -0.0167421, 0.402743, -0.114248, -0.362493, -0.394285, -0.375079, -0.0123003, -0.464603, 0.697197, -0.143538, -0.212942, -0.276076, 0.852903, 0.0164318, 0.432748, 0.281676, 1.13418, 0.377339, 0.618402, 0.744249, 0.399906, 0.215219, 0.156595, 0.169786, -0.274573, -0.017754, 0.578488, 0.610852, 0.263925, 0.174579, -1.06693, 0.44855, 0.495324, -0.337433, -0.0897529, -0.398688, -0.0514488, 0.0422318, -0.0723385, -0.122788, 0.0151047, -0.00982263, 0.166955, 0.16344, 0.125057, -0.00777204, -0.358659, -0.0173186, 0.656364, 0.353018, -0.0492879, -0.0707111, 0.0724262, 0.207455, -0.557087, -0.498285, -0.33312, 0.563894, -0.14348, 0.0366315, -0.343433, 0.0462305, 0.418781, -0.284749, -0.24435, -0.139911, -0.310979, 0.195529, 0.078266, -0.376109, -0.186832, 0.315855, 0.210784, 0.365642, 0.400721, 0.003467, 0.0241438, -0.0377607, -0.0644746, 0.296931, -0.310024, -0.791272, -0.40637, 0.350411, 0.148105, -0.54657, -0.0485927, 0.161645, 0.0666595, -0.22201, 0.0230177, -0.103978, -0.236956, -0.118549, 0.56677, -0.163901, -0.0409734, 0.261655, -0.72776, 0.480985, -0.312325, -0.425573, -0.798503, -0.187017, -0.289683, -0.611262, 0.0561904, 0.123708, -0.129223, -0.0956915, -0.276123, -0.731774, 0.745521, 0.218553, -0.198229, -0.0483165, -0.212151, 0.389675, -0.244668, 0.089448, 0.154408, -0.0672956, -0.254986, 0.352458, -0.668386, 0.318396, 0.112151, -0.482001, 0.578583, -0.338072, 0.178408, -0.293582, -0.10585, 0.27615, -0.0320591, -0.96216, -0.170152, -0.226428, 0.593704, 0.297303, 0.887621, -0.00794975, -0.354513, -0.310526, 0.784951, 0.428399, -0.0495072, -0.19512, 0.284273, -0.503685, 0.780888, 1.04578, -0.211678, 0.172838, 0.102191, -0.267559, 0.351796, 0.0047147, -0.740075, -0.235052, 0.421026, 0.286926, -0.046801, 0.00113964, 0.327478, -0.318567, -0.228853, 0.256337, -0.480606, -0.13168, -0.0770115, -0.371913, -0.125269, 0.215611, -0.350157, -0.341921, 0.939811, -0.663274, -0.0833527, 0.441528, 0.222507, -0.257233, -0.372748, -0.259373, -0.553309, 0.320683, -0.126263, 0.318463, 0.136714, -0.246759, -0.145086, -0.0254159, -0.158155, -0.0129448, -0.662721, -0.191139, 0.351247, 0.618351, 0.414477, 0.442031, -0.290858, -0.0909163, -0.481858, 0.179672, 0.492347, -0.485997, -0.177018, -0.0877374, 0.063612, -0.507924, -0.450722, 0.280621, -0.36874, 0.193273, 0.0904431, 0.191843, 0.86935, -0.0490159, 0.153739, 0.573514, 0.668922, -0.191252, 0.0280028, 0.51621, -0.0240681, -0.122794, -0.483301, -0.0742228, 0.128789, 0.102707, 0.302873, 0.346162, 0.263761, 0.115301, 0.388593, -0.0111189, -0.386966, -0.0832093, 0.19613, 0.23082, -0.452276, 0.393022, -0.210239, 0.0345495, 0.0950147, 0.418364, -0.173738, -0.274398, 0.425645, -0.0517971, -0.174583, -0.393049, -0.291224, 0.19303, -0.0132437, 0.0134899, -0.170074, -0.307691, 0.134396, 0.1013, 0.186988, -0.00391351, -0.146268, 0.0109186, 0.0297731, -0.0744043, 0.0338292, -0.16316, -0.153832, -0.25955, 0.0411047, 0.00563888, 0.0784913, 0.413113, -0.47852, 0.131337, 0.371519, -0.128108, -0.390732, 0.0351142, 0.096155, -0.98538, -0.533527, -0.155411, 0.350318, 0.202026, 0.268597, -0.353261, 0.364035, -0.24321, 0.163344, -0.294626, 0.304667, -0.200252, -1.18356, 0.098807, -0.0275227, -0.297743, 0.469788, 0.393365, 0.0960873, 0.348068, 0.00785985, -0.404249, 0.0514728, 0.145279, 0.333167, -0.221128, -0.165555, -0.143011, 0.102256, -0.0214397, 2.08033, 0.0855441, 0.175389, 0.150177, 0.151383, -0.330623, -0.462735, -0.00983048, 0.0119965, 0.2941, -0.308708, 0.0930803, 0.325792, 0.188879, -0.0922957, -0.333429, -0.0789666, -0.103776, -0.180889, 0.372439, 0.0103466, 0.393151, 0.0598365, -0.116047], "bias": [0.103402, 0.102302, 0.418174, 0.357554, 0.212518, -0.00649977, 0.209356, 0.593962, -0.291889, -0.152965, -0.454057, 0.177204, 0.241221, 0.0971341, 0.0834701, -0.164631, -0.441539, 0.0372751, -0.632682, -0.300718, 0.201623, 0.364192, 1.1147, 0.274118, -0.0222082, -0.584136, -0.399356, 0.190501, -0.491945, -0.751341, -0.571238, -0.853816, 0.076608, -0.344845, -0.173191, -0.592863, -0.805868, -0.469759, 0.0638095, -0.218221, -0.157885, 0.177896, -0.752469, 0.131056, -0.006244, -0.578645, -0.318977, -0.414537, -0.825933, 0.27634, -0.0819373, -0.404946, -0.571579, 0.276437, 0.461327, 0.596645, -0.740113, 1.19933, 0.175189, 0.109886, 0.146472, -0.259733, 0.0485667, -0.00499279, 6.93489], "internal": []}, "subsample_level_2": {"input": [-0.154008, 0.384051, -0.0176023, -0.256211, -0.282772, 0.176207, -0.344356, 0.366704, 0.108426, -0.0502991, 0.0891388, -0.195117, 0.142353, 0.266005, 0.260314, 0.315494, 0.649634, 0.666142, 0.32861, -0.232462, -0.332906, -0.141209, 0.134053, -0.581313, -0.0156514, -0.253734, -0.168169, -0.272094, -0.324369, -0.0145732, 0.262333, -0.0913747, 0.602623, 0.262743, -0.550141, -0.0452832, -0.00527425, -0.190649, -0.0711238, 0.0129349, -0.401163, -0.210175, 0.0173447, 0.210753, 0.234598, 0.255885, 0.108716, -0.241548, 0.0643097, -0.350519, 0.11781, -0.670414, 0.00564423, -0.358976, -0.135522, -0.244945, -0.486222, -1.17199, -0.0529752, -0.211656, -0.879558, -0.445006, 0.0902615, 0.000392607, 0.076629, 0.352865, -0.273757, -0.0375329, 0.202746, -0.204569, 0.142301, -0.0273872, 0.128687, 0.082711, -0.24971, 0.10525, 0.0453551, 0.0855756, 0.36836, -0.116858, 0.11773, -0.359361, -0.0210355, -0.0135595, 0.122247, 0.0820357, 0.0640565, 0.125025, -0.00241108, -0.351193, 0.0209709, 0.367264, -0.152082, 0.0819381, -0.139886, -0.174082, -0.0663709, -0.442047, -0.121213, 0.0951562, -0.372414, 0.313927, 0.219877, 0.0217073, 0.298691, -0.018337, -0.0827172, 0.306799, 0.152676, 0.0218348, 0.0894723, -0.216408, -0.120568, 0.513596, 0.0482366, -0.0385147, -0.00236502, 0.0339098, 0.0289332, 0.277379, 0.444956, -0.107616, 0.126352, -0.175143, -0.0026427, -0.13461, 0.158123, 0.415531, -0.161519, -0.0822462, 0.0575186, 0.0926397, -0.144734, -0.0498281, 0.113425, 0.199817, 0.108335, 0.0632316, -0.148513, 0.141895, 0.949423, 0.416977, -0.206543, 0.00378442, -0.159006, 0.373259, -0.278462, 0.0557522, -0.285445, -0.107355, 0.232517, 0.374167, 0.073038, 0.0525656, 0.12883, -0.314996, 0.136332, 0.286042, -0.272825, 0.460519, 0.288482, 0.0121897, -0.0775584, -0.27936, 0.200127, -0.0244191, -0.128792, 0.427866, -0.505778, -0.162622, 0.0978719, -0.046635, -0.17023, 0.0158716, -0.269182, -0.00429651, -0.0353013, 1.2071, 0.176059, 0.0537273, 0.189489, 0.296396, -0.618533, -0.154085, 0.17996, 0.0516578, 0.243048, 0.183739, -0.122285, -0.0558662, -0.388642, -0.143197, 0.198142, 0.0316468, -0.0824791, 0.561607, 0.257883, 0.327208, 0.184833, -0.0075247, 0.240368, -0.0532478, -0.192428, -0.47208, -0.0353639, -0.279329, 0.535517, -0.215047, 0.218502, -0.250154, 0.203562, 0.410359, 0.0510632, 0.211175, -0.440581, 0.0952429, -0.122904, 0.207519, 0.66699, -0.177735, -0.223964, 0.140094, -0.0209542, -0.334716, -0.22, 0.269362, 0.0980587, 0.301912, -0.24062, -0.264709, -0.635054, 0.363859, -0.0142467, -0.168303, -0.466051, -0.418777, 0.0916156, -0.796796, 0.199745, 0.0200083, 0.0328201, -0.581858, 0.532611, 0.177969, -0.0287462, -0.432729, -0.24952, 0.0455442, -0.071398, -0.00490158, -0.00642857, 0.145383, -0.151991, 0.519083, 0.404182, -0.105004, 0.254379, 0.0167626, 0.232144, 0.202424, 0.242123, -0.151321, -0.0683032, -0.139305, -0.366545, -0.192945, -0.36985, -0.377521, 0.266373, 0.160666, -0.306066, 0.219514, -0.0344757, 0.33638, -0.350306, 0.0194094, -0.227076, -0.418586, -0.488271, -0.0181804, -0.854314, 0.375334, 0.141905, 0.27177, 0.463002, -0.251515, 0.0238978, -0.221918, -0.38984, -0.0702329, -0.483195, 0.00394675, -0.789006, 0.00260645, 0.139921, -0.248498, 0.19426, 0.0221561, 0.217699, -0.327995, 0.287791, -0.434749, 0.27436, -0.530656, -0.0106582, 0.444071, -0.14434, 0.142915, -0.301036, -0.154316, 0.0813574, 0.596508, 0.0496918, 0.078823, -0.2302, 0.110413, -0.178273, -0.258902, 0.472801, 0.306997, -0.253678, 0.446561, -0.403475, 0.233494, 0.151352, 0.159349, 0.178494, -0.509062, 0.257984, 0.294425, 0.0329494, -0.186478, 0.0743291, -0.247859, -0.0137888, 0.158868, 0.195651, 0.05425, 0.3837, -0.29583, 0.121295, 0.108959, 0.286493, 0.140868, -0.25452, -0.0243136, 0.227643, -0.552206, 0.12703, -0.0375523, -0.280412, 0.357339, -0.180264, 0.0602582, 0.404, -0.477056, 0.381747, -0.0997737, -0.240895, -0.15926, 0.0864616, 0.233213, 0.0467994, 0.0586221, -0.0976447, 0.0812491, 0.058952, 0.155585, -0.25342, 0.0821884, -0.0748174, -0.0464453, -0.0984068, -0.257515, -0.237616, -0.159897, 0.0267106, 0.0266587, 0.139964, -0.0478288, -0.274774, -0.707475, -0.597798, 0.0758918, -0.00924172, 0.04741, -0.00884013, -0.0608008, 0.517544, -0.306887, -0.147513, -0.369373, -0.0795613, 0.170344, 0.472561, 0.238926, -0.238796, -0.0727993, 0.103973, -0.38101, 0.0543157, 0.0622782, 0.0176268, 0.251882, 0.376982, 0.498373, -0.0114712, 0.0019554, 0.0641148, -0.0121512, 0.232861, 0.194169, -0.0181358, -0.490825, 0.153387, 0.000752159, 0.0959175, -0.0723322, 0.195138, 0.24137, -0.270734, 0.113392, 0.0143614, 0.553368, 0.0435873, 0.235382, -0.0498024, 0.195525, -0.189536, 0.0539706, 0.392936, 0.016236, 0.253471, -0.897384, 0.075378, 0.052236, -0.305249, -0.00277437, 0.147423, -0.0911243, 0.0905403, 0.193906, 0.165105, 0.219088, 0.0846209, 0.0222922, -0.448111, -0.291958, -0.292572, 0.0463232, 0.133704, -0.220131, 0.048136, -0.208081, -0.436584, 0.249799, -0.0508907, -0.0190763, 0.218817, 0.192411, 0.407341, -0.327405, 0.552957, 0.0379277, 0.61872, -0.11432, 0.0969984, -0.104889, -0.0485136, -0.0445111, 0.0118961, 0.0762605, 0.174651, 0.269161, 0.314836, 0.219346, -0.14552, -0.0606047, 0.175965, -0.0223255, 0.0866472, -0.0506719, 0.22778, -0.406848, 0.170733, -0.0173517, 0.576788, -0.228792, -0.0736946, 0.372258, 0.0444353, -0.102466, -0.230727, -0.622598, -0.402394, 0.216608, -0.295494, -0.0424635, -0.230455, -0.158257, -0.435844, -0.676574, -0.194318, 0.0159494, -0.0772, 0.0987862, 0.0718535, 0.0527259, -0.0770243, 1.00492, 0.106428, -0.357822, 0.211211, -0.127449, 0.228484, -0.0962396, 0.01415, -0.0813634, 0.347365, 0.242957, -0.750623, -0.399825, 0.389405, -0.426034, -0.143703, 0.192143, 0.0213942, -0.113925, -0.0823646, 0.629276, 0.117978, -0.290767, 0.213988, 0.308982, 0.0923074, -0.166595, -0.120152, -0.341155, 0.0577374, 0.0782028, -0.0330345, 0.137382, -0.0433042, -0.166076, -0.26412, -0.182005, -0.222134, 0.44268, 0.296189, 0.1997, 0.0893223, 0.135888, -0.0970073, -0.098042, -0.0522114, -0.071643, 0.156015, 0.248698, -0.0607216, -0.117555, -0.392079, -0.383164, -0.131513, 0.271799, -0.0272196, 0.0297617, -0.124268, 0.114314, 0.0454573, -0.260576, -0.0968717, -0.226321, -0.106601, -0.248724, -0.119357, -0.0472978, -0.299745, 0.202153, -0.183279, -0.026243, -0.111751, 0.0985587, -0.380554, 0.232246, -0.221536, 0.0314189, -0.616517, -0.190219, 0.34237, -0.159582, -0.210988, 0.318677, 0.215624, 0.0128584, 0.107196, 0.0990133, -0.356833, -0.18572, 0.156084, 0.645023, 0.219026, 0.0456445, -0.107954, 0.0945802, -0.261149, -0.065975, -0.0819339, 0.202682, 0.208378, -0.0292186, -0.2901, 0.276403, 0.262617, -0.244002, 0.118629, 0.010404, -0.482324, 0.557592, -0.426582, -0.0809858, 0.193909, 0.123563, -0.258802, -0.219552, -0.0704521, 0.251723, -0.211111, 0.0230278, -0.552114, 0.113671, 0.0263923, 0.528319, 0.0407829, 0.176082, 0.457095, -0.129314, 0.370384, 0.399021, 0.140943, -0.24505, 0.295328, -0.495286, -0.27392, -0.114006, -0.547612, 0.582243, -0.211291, 0.0784431, -0.314627, -0.0848368, -0.81801, -0.0686944, -0.370165, 0.00221073, 0.06844, -0.04387, -0.191854, 0.701085, 0.18598, -0.287925, -0.0926431, -0.0292049, 0.248082, -0.202139, -0.11663, -0.619907, -0.417846, -0.0905994, 0.976795, 0.288152, 0.291624, -0.0378385, 0.323965, -0.10432, 0.252637, -0.11418, -0.278676, -0.0105556, -0.11698, 0.0369724, -0.0448206, 0.0605834, 0.0976553, -0.209707, -0.0699171, -0.206604, -0.511588, -0.032914, -0.0709282, 0.122391, -0.192678, -0.0934435, -0.506847, 0.414244, 0.432325, 0.166684, -0.23773, -0.107226, 0.035919, -0.56978, 0.0621747, 0.0918848, 0.313542, -0.0283269, -0.334276, -0.112699, 0.279024, -0.0376532, -0.0572394, -0.11167, 0.734872, 0.249247, 0.147648, -0.155574, -0.079018, 0.0694169, 0.0498523, 0.0540743, 0.0886962, -0.0258131, -0.128598, -0.260237, -0.248928, 0.363436, -0.0393767, -0.124665, 0.133572, -0.287958, 0.459203, -0.0429283, 0.317961, -0.0248637, 0.247229, -0.056266, 0.0632496, -0.318392, -0.457704, 0.759786, 0.0904969, 0.0939843, -0.329907, -0.0298473, 0.411725, 0.230663, -0.269306, 0.170345, 0.0223101, 0.156744, 0.351312, -0.0810123, 0.321846, -0.304708, 0.202157, -0.262273, -0.282977, 0.227288, -0.141974, -0.288755, -0.188162, 0.192815, -0.0953634, -0.184053, 0.398576, 0.846658, -0.286834, -0.0265257, -0.0949171, 0.421341, -0.0861322, 0.365233, 0.734978, -0.0601071, -0.220737, -0.311841, -0.526544, -0.113646, 0.431412, -0.138823, 0.270463, 0.044105, -0.00666586, 0.16716, 0.0545546, 0.153933, 0.00859896, 0.0800259, 0.013572, -0.272185, -0.0196973, -0.489397, -0.0120323, -0.0867771, 0.295684, -0.0645025, 0.428873, 0.0843756, -0.204436, 0.524977, 0.209902, -0.0776445, 0.26758, 0.26382, -0.339827, 0.117167, 0.0029932, -0.0529419, 0.291993, 0.336035, 0.0230019, 0.0789917, -0.242776, 0.0410803, 0.0688685, 0.124948, 0.276136, 0.234171, -0.518694, -0.250917, -0.24125, -0.0100864, -0.351829, -0.249504, 0.00727629, 0.13437, 0.217143, 0.00861935, -0.105086, 0.0251337, -0.0268583, -0.57057, 0.0224817, 0.178008, -0.00239185, 0.148059, -0.0378477, 0.186831, -0.0555136, 0.0301483, 0.036907, -0.025384, 0.180702, 0.102714, 0.0211699, -0.293192, -0.697613, -0.149979, -0.332808, -0.103113, -0.146999, 0.0319897, -0.0893072, -0.253447, 0.106113, -0.27715, 0.167252, 0.40393, -0.081958, -0.170862, -0.485171, 0.215988, 0.171498, 0.247561, 0.190694, 0.302061, 0.40707, 0.0890275, -0.0478234, 0.2617, -0.460218, 0.346282, -0.172876, -0.0127214, -0.268688, 0.374598, -0.240739, 0.374814, -0.604253, 0.0260649, 0.353881, -0.565381, 0.0341116, 0.113382, -0.117187, -0.214781, 0.20756, 0.514104, 0.0327233, -0.18857, -0.363468, 0.691559, 0.473897, -0.269458, -0.540482, -0.193651, 0.0191264, -0.208503, 0.0460142, 0.204851, -0.0220987, -0.376828, 0.058293, 0.0401321, -0.0263496, 0.280853, -0.131307, 0.191412, -0.00336854, -0.380281, -0.113334, 0.653396, 0.293062, -0.0813883, -0.178327, -0.792062, -0.578454, 0.584967, 0.183391, -0.203782, 0.393117, 0.203679, 0.161435, -0.30582, 0.147323, -0.320279, 0.12605, -0.01723, -0.0904123, -0.034005, -0.200934, 0.177828, 0.236504, 0.03894, 0.470478, 0.0630389, 0.0196941, -0.0939548, -0.116925, -0.381885, -0.149494, -0.18319, -0.0398089, 0.223093, -0.390263, -0.429337, 0.386602, 0.0932779, -0.0648367, 0.271151, -0.229559, -0.223934, -0.41349, -0.0511516, -0.271526, 0.214513, -0.0200175, 0.14704, -0.293374, -0.0162037, 